digraph Tree {
node [shape=box] ;
0 [label="X[1] <= -0.0\ngini = 0.433\nsamples = 47471\nvalue = [32519, 98, 14854]"] ;
1 [label="X[0] <= -0.903\ngini = 0.016\nsamples = 31876\nvalue = [31620, 57, 199]"] ;
0 -> 1 [labeldistance=2.5, labelangle=45, headlabel="True"] ;
2 [label="X[0] <= -0.909\ngini = 0.079\nsamples = 121\nvalue = [5, 0, 116]"] ;
1 -> 2 ;
3 [label="gini = 0.0\nsamples = 100\nvalue = [0, 0, 100]"] ;
2 -> 3 ;
4 [label="X[1] <= -0.007\ngini = 0.363\nsamples = 21\nvalue = [5, 0, 16]"] ;
2 -> 4 ;
5 [label="gini = 0.0\nsamples = 11\nvalue = [0, 0, 11]"] ;
4 -> 5 ;
6 [label="X[1] <= -0.004\ngini = 0.5\nsamples = 10\nvalue = [5, 0, 5]"] ;
4 -> 6 ;
7 [label="gini = 0.0\nsamples = 4\nvalue = [4, 0, 0]"] ;
6 -> 7 ;
8 [label="X[1] <= -0.002\ngini = 0.278\nsamples = 6\nvalue = [1, 0, 5]"] ;
6 -> 8 ;
9 [label="X[0] <= -0.906\ngini = 0.5\nsamples = 2\nvalue = [1, 0, 1]"] ;
8 -> 9 ;
10 [label="gini = 0.0\nsamples = 1\nvalue = [0, 0, 1]"] ;
9 -> 10 ;
11 [label="gini = 0.0\nsamples = 1\nvalue = [1, 0, 0]"] ;
9 -> 11 ;
12 [label="gini = 0.0\nsamples = 4\nvalue = [0, 0, 4]"] ;
8 -> 12 ;
13 [label="X[0] <= -0.852\ngini = 0.009\nsamples = 31755\nvalue = [31615, 57, 83]"] ;
1 -> 13 ;
14 [label="X[1] <= -0.005\ngini = 0.358\nsamples = 397\nvalue = [312, 54, 31]"] ;
13 -> 14 ;
15 [label="X[0] <= -0.896\ngini = 0.129\nsamples = 309\nvalue = [288, 12, 9]"] ;
14 -> 15 ;
16 [label="X[1] <= -0.01\ngini = 0.454\nsamples = 23\nvalue = [15, 0, 8]"] ;
15 -> 16 ;
17 [label="X[1] <= -0.016\ngini = 0.198\nsamples = 9\nvalue = [1, 0, 8]"] ;
16 -> 17 ;
18 [label="gini = 0.0\nsamples = 1\nvalue = [1, 0, 0]"] ;
17 -> 18 ;
19 [label="gini = 0.0\nsamples = 8\nvalue = [0, 0, 8]"] ;
17 -> 19 ;
20 [label="gini = 0.0\nsamples = 14\nvalue = [14, 0, 0]"] ;
16 -> 20 ;
21 [label="X[1] <= -0.005\ngini = 0.087\nsamples = 286\nvalue = [273, 12, 1]"] ;
15 -> 21 ;
22 [label="X[0] <= -0.857\ngini = 0.05\nsamples = 273\nvalue = [266, 6, 1]"] ;
21 -> 22 ;
23 [label="X[0] <= -0.888\ngini = 0.009\nsamples = 218\nvalue = [217, 0, 1]"] ;
22 -> 23 ;
24 [label="X[0] <= -0.888\ngini = 0.071\nsamples = 27\nvalue = [26, 0, 1]"] ;
23 -> 24 ;
25 [label="gini = 0.0\nsamples = 26\nvalue = [26, 0, 0]"] ;
24 -> 25 ;
26 [label="gini = 0.0\nsamples = 1\nvalue = [0, 0, 1]"] ;
24 -> 26 ;
27 [label="gini = 0.0\nsamples = 191\nvalue = [191, 0, 0]"] ;
23 -> 27 ;
28 [label="X[0] <= -0.857\ngini = 0.194\nsamples = 55\nvalue = [49, 6, 0]"] ;
22 -> 28 ;
29 [label="X[1] <= -0.008\ngini = 0.444\nsamples = 3\nvalue = [1, 2, 0]"] ;
28 -> 29 ;
30 [label="gini = 0.0\nsamples = 1\nvalue = [1, 0, 0]"] ;
29 -> 30 ;
31 [label="gini = 0.0\nsamples = 2\nvalue = [0, 2, 0]"] ;
29 -> 31 ;
32 [label="X[1] <= -0.007\ngini = 0.142\nsamples = 52\nvalue = [48, 4, 0]"] ;
28 -> 32 ;
33 [label="gini = 0.0\nsamples = 28\nvalue = [28, 0, 0]"] ;
32 -> 33 ;
34 [label="X[1] <= -0.007\ngini = 0.278\nsamples = 24\nvalue = [20, 4, 0]"] ;
32 -> 34 ;
35 [label="gini = 0.0\nsamples = 3\nvalue = [0, 3, 0]"] ;
34 -> 35 ;
36 [label="X[0] <= -0.856\ngini = 0.091\nsamples = 21\nvalue = [20, 1, 0]"] ;
34 -> 36 ;
37 [label="gini = 0.0\nsamples = 1\nvalue = [0, 1, 0]"] ;
36 -> 37 ;
38 [label="gini = 0.0\nsamples = 20\nvalue = [20, 0, 0]"] ;
36 -> 38 ;
39 [label="X[0] <= -0.871\ngini = 0.497\nsamples = 13\nvalue = [7, 6, 0]"] ;
21 -> 39 ;
40 [label="gini = 0.0\nsamples = 7\nvalue = [7, 0, 0]"] ;
39 -> 40 ;
41 [label="gini = 0.0\nsamples = 6\nvalue = [0, 6, 0]"] ;
39 -> 41 ;
42 [label="X[0] <= -0.865\ngini = 0.635\nsamples = 88\nvalue = [24, 42, 22]"] ;
14 -> 42 ;
43 [label="X[1] <= -0.002\ngini = 0.49\nsamples = 42\nvalue = [24, 0, 18]"] ;
42 -> 43 ;
44 [label="X[0] <= -0.874\ngini = 0.147\nsamples = 25\nvalue = [23, 0, 2]"] ;
43 -> 44 ;
45 [label="X[1] <= -0.002\ngini = 0.08\nsamples = 24\nvalue = [23, 0, 1]"] ;
44 -> 45 ;
46 [label="gini = 0.0\nsamples = 21\nvalue = [21, 0, 0]"] ;
45 -> 46 ;
47 [label="X[0] <= -0.896\ngini = 0.444\nsamples = 3\nvalue = [2, 0, 1]"] ;
45 -> 47 ;
48 [label="gini = 0.0\nsamples = 2\nvalue = [2, 0, 0]"] ;
47 -> 48 ;
49 [label="gini = 0.0\nsamples = 1\nvalue = [0, 0, 1]"] ;
47 -> 49 ;
50 [label="gini = 0.0\nsamples = 1\nvalue = [0, 0, 1]"] ;
44 -> 50 ;
51 [label="X[0] <= -0.902\ngini = 0.111\nsamples = 17\nvalue = [1, 0, 16]"] ;
43 -> 51 ;
52 [label="gini = 0.0\nsamples = 1\nvalue = [1, 0, 0]"] ;
51 -> 52 ;
53 [label="gini = 0.0\nsamples = 16\nvalue = [0, 0, 16]"] ;
51 -> 53 ;
54 [label="X[1] <= -0.001\ngini = 0.159\nsamples = 46\nvalue = [0, 42, 4]"] ;
42 -> 54 ;
55 [label="gini = 0.0\nsamples = 40\nvalue = [0, 40, 0]"] ;
54 -> 55 ;
56 [label="X[0] <= -0.863\ngini = 0.444\nsamples = 6\nvalue = [0, 2, 4]"] ;
54 -> 56 ;
57 [label="gini = 0.0\nsamples = 2\nvalue = [0, 2, 0]"] ;
56 -> 57 ;
58 [label="gini = 0.0\nsamples = 4\nvalue = [0, 0, 4]"] ;
56 -> 58 ;
59 [label="X[1] <= -0.005\ngini = 0.004\nsamples = 31358\nvalue = [31303, 3, 52]"] ;
13 -> 59 ;
60 [label="X[1] <= -0.008\ngini = 0.001\nsamples = 30679\nvalue = [30662, 1, 16]"] ;
59 -> 60 ;
61 [label="X[1] <= -0.009\ngini = 0.0\nsamples = 30001\nvalue = [29999, 0, 2]"] ;
60 -> 61 ;
62 [label="gini = 0.0\nsamples = 29793\nvalue = [29793, 0, 0]"] ;
61 -> 62 ;
63 [label="X[1] <= -0.009\ngini = 0.019\nsamples = 208\nvalue = [206, 0, 2]"] ;
61 -> 63 ;
64 [label="gini = 0.0\nsamples = 1\nvalue = [0, 0, 1]"] ;
63 -> 64 ;
65 [label="X[1] <= -0.009\ngini = 0.01\nsamples = 207\nvalue = [206, 0, 1]"] ;
63 -> 65 ;
66 [label="X[1] <= -0.009\ngini = 0.117\nsamples = 16\nvalue = [15, 0, 1]"] ;
65 -> 66 ;
67 [label="gini = 0.0\nsamples = 14\nvalue = [14, 0, 0]"] ;
66 -> 67 ;
68 [label="X[0] <= -0.377\ngini = 0.5\nsamples = 2\nvalue = [1, 0, 1]"] ;
66 -> 68 ;
69 [label="gini = 0.0\nsamples = 1\nvalue = [0, 0, 1]"] ;
68 -> 69 ;
70 [label="gini = 0.0\nsamples = 1\nvalue = [1, 0, 0]"] ;
68 -> 70 ;
71 [label="gini = 0.0\nsamples = 191\nvalue = [191, 0, 0]"] ;
65 -> 71 ;
72 [label="X[1] <= -0.008\ngini = 0.043\nsamples = 678\nvalue = [663, 1, 14]"] ;
60 -> 72 ;
73 [label="gini = 0.0\nsamples = 1\nvalue = [0, 0, 1]"] ;
72 -> 73 ;
74 [label="X[0] <= -0.507\ngini = 0.041\nsamples = 677\nvalue = [663, 1, 13]"] ;
72 -> 74 ;
75 [label="X[0] <= -0.681\ngini = 0.124\nsamples = 212\nvalue = [198, 1, 13]"] ;
74 -> 75 ;
76 [label="X[0] <= -0.849\ngini = 0.01\nsamples = 199\nvalue = [198, 1, 0]"] ;
75 -> 76 ;
77 [label="X[0] <= -0.849\ngini = 0.087\nsamples = 22\nvalue = [21, 1, 0]"] ;
76 -> 77 ;
78 [label="gini = 0.0\nsamples = 21\nvalue = [21, 0, 0]"] ;
77 -> 78 ;
79 [label="gini = 0.0\nsamples = 1\nvalue = [0, 1, 0]"] ;
77 -> 79 ;
80 [label="gini = 0.0\nsamples = 177\nvalue = [177, 0, 0]"] ;
76 -> 80 ;
81 [label="gini = 0.0\nsamples = 13\nvalue = [0, 0, 13]"] ;
75 -> 81 ;
82 [label="gini = 0.0\nsamples = 465\nvalue = [465, 0, 0]"] ;
74 -> 82 ;
83 [label="X[0] <= -0.505\ngini = 0.106\nsamples = 679\nvalue = [641, 2, 36]"] ;
59 -> 83 ;
84 [label="X[0] <= -0.696\ngini = 0.375\nsamples = 47\nvalue = [9, 2, 36]"] ;
83 -> 84 ;
85 [label="X[1] <= -0.004\ngini = 0.298\nsamples = 11\nvalue = [9, 2, 0]"] ;
84 -> 85 ;
86 [label="gini = 0.0\nsamples = 9\nvalue = [9, 0, 0]"] ;
85 -> 86 ;
87 [label="gini = 0.0\nsamples = 2\nvalue = [0, 2, 0]"] ;
85 -> 87 ;
88 [label="gini = 0.0\nsamples = 36\nvalue = [0, 0, 36]"] ;
84 -> 88 ;
89 [label="gini = 0.0\nsamples = 632\nvalue = [632, 0, 0]"] ;
83 -> 89 ;
90 [label="X[1] <= 0.011\ngini = 0.114\nsamples = 15595\nvalue = [899, 41, 14655]"] ;
0 -> 90 [labeldistance=2.5, labelangle=-45, headlabel="False"] ;
91 [label="X[0] <= -0.478\ngini = 0.344\nsamples = 3932\nvalue = [831, 26, 3075]"] ;
90 -> 91 ;
92 [label="X[0] <= -0.484\ngini = 0.012\nsamples = 2383\nvalue = [0, 14, 2369]"] ;
91 -> 92 ;
93 [label="X[0] <= -0.487\ngini = 0.004\nsamples = 2363\nvalue = [0, 5, 2358]"] ;
92 -> 93 ;
94 [label="X[1] <= 0.008\ngini = 0.003\nsamples = 2347\nvalue = [0, 3, 2344]"] ;
93 -> 94 ;
95 [label="gini = 0.0\nsamples = 2115\nvalue = [0, 0, 2115]"] ;
94 -> 95 ;
96 [label="X[1] <= 0.008\ngini = 0.026\nsamples = 232\nvalue = [0, 3, 229]"] ;
94 -> 96 ;
97 [label="gini = 0.0\nsamples = 1\nvalue = [0, 1, 0]"] ;
96 -> 97 ;
98 [label="X[0] <= -0.699\ngini = 0.017\nsamples = 231\nvalue = [0, 2, 229]"] ;
96 -> 98 ;
99 [label="gini = 0.0\nsamples = 164\nvalue = [0, 0, 164]"] ;
98 -> 99 ;
100 [label="X[0] <= -0.547\ngini = 0.058\nsamples = 67\nvalue = [0, 2, 65]"] ;
98 -> 100 ;
101 [label="gini = 0.0\nsamples = 2\nvalue = [0, 2, 0]"] ;
100 -> 101 ;
102 [label="gini = 0.0\nsamples = 65\nvalue = [0, 0, 65]"] ;
100 -> 102 ;
103 [label="X[1] <= 0.007\ngini = 0.219\nsamples = 16\nvalue = [0, 2, 14]"] ;
93 -> 103 ;
104 [label="gini = 0.0\nsamples = 13\nvalue = [0, 0, 13]"] ;
103 -> 104 ;
105 [label="X[1] <= 0.009\ngini = 0.444\nsamples = 3\nvalue = [0, 2, 1]"] ;
103 -> 105 ;
106 [label="gini = 0.0\nsamples = 2\nvalue = [0, 2, 0]"] ;
105 -> 106 ;
107 [label="gini = 0.0\nsamples = 1\nvalue = [0, 0, 1]"] ;
105 -> 107 ;
108 [label="X[1] <= 0.005\ngini = 0.495\nsamples = 20\nvalue = [0, 9, 11]"] ;
92 -> 108 ;
109 [label="gini = 0.0\nsamples = 11\nvalue = [0, 0, 11]"] ;
108 -> 109 ;
110 [label="gini = 0.0\nsamples = 9\nvalue = [0, 9, 0]"] ;
108 -> 110 ;
111 [label="X[0] <= 0.027\ngini = 0.504\nsamples = 1549\nvalue = [831, 12, 706]"] ;
91 -> 111 ;
112 [label="X[0] <= -0.47\ngini = 0.035\nsamples = 846\nvalue = [831, 12, 3]"] ;
111 -> 112 ;
113 [label="X[1] <= 0.002\ngini = 0.64\nsamples = 15\nvalue = [6, 6, 3]"] ;
112 -> 113 ;
114 [label="gini = 0.0\nsamples = 6\nvalue = [6, 0, 0]"] ;
113 -> 114 ;
115 [label="X[1] <= 0.01\ngini = 0.444\nsamples = 9\nvalue = [0, 6, 3]"] ;
113 -> 115 ;
116 [label="gini = 0.0\nsamples = 6\nvalue = [0, 6, 0]"] ;
115 -> 116 ;
117 [label="gini = 0.0\nsamples = 3\nvalue = [0, 0, 3]"] ;
115 -> 117 ;
118 [label="X[1] <= 0.011\ngini = 0.014\nsamples = 831\nvalue = [825, 6, 0]"] ;
112 -> 118 ;
119 [label="X[0] <= -0.46\ngini = 0.01\nsamples = 823\nvalue = [819, 4, 0]"] ;
118 -> 119 ;
120 [label="X[1] <= 0.007\ngini = 0.236\nsamples = 22\nvalue = [19, 3, 0]"] ;
119 -> 120 ;
121 [label="X[1] <= 0.004\ngini = 0.095\nsamples = 20\nvalue = [19, 1, 0]"] ;
120 -> 121 ;
122 [label="gini = 0.0\nsamples = 17\nvalue = [17, 0, 0]"] ;
121 -> 122 ;
123 [label="X[0] <= -0.464\ngini = 0.444\nsamples = 3\nvalue = [2, 1, 0]"] ;
121 -> 123 ;
124 [label="gini = 0.0\nsamples = 1\nvalue = [0, 1, 0]"] ;
123 -> 124 ;
125 [label="gini = 0.0\nsamples = 2\nvalue = [2, 0, 0]"] ;
123 -> 125 ;
126 [label="gini = 0.0\nsamples = 2\nvalue = [0, 2, 0]"] ;
120 -> 126 ;
127 [label="X[0] <= -0.45\ngini = 0.002\nsamples = 801\nvalue = [800, 1, 0]"] ;
119 -> 127 ;
128 [label="X[1] <= 0.008\ngini = 0.057\nsamples = 34\nvalue = [33, 1, 0]"] ;
127 -> 128 ;
129 [label="gini = 0.0\nsamples = 33\nvalue = [33, 0, 0]"] ;
128 -> 129 ;
130 [label="gini = 0.0\nsamples = 1\nvalue = [0, 1, 0]"] ;
128 -> 130 ;
131 [label="gini = 0.0\nsamples = 767\nvalue = [767, 0, 0]"] ;
127 -> 131 ;
132 [label="X[0] <= -0.437\ngini = 0.375\nsamples = 8\nvalue = [6, 2, 0]"] ;
118 -> 132 ;
133 [label="gini = 0.0\nsamples = 2\nvalue = [0, 2, 0]"] ;
132 -> 133 ;
134 [label="gini = 0.0\nsamples = 6\nvalue = [6, 0, 0]"] ;
132 -> 134 ;
135 [label="gini = 0.0\nsamples = 703\nvalue = [0, 0, 703]"] ;
111 -> 135 ;
136 [label="X[1] <= 0.015\ngini = 0.014\nsamples = 11663\nvalue = [68, 15, 11580]"] ;
90 -> 136 ;
137 [label="X[0] <= -0.005\ngini = 0.129\nsamples = 904\nvalue = [49, 13, 842]"] ;
136 -> 137 ;
138 [label="X[0] <= -0.458\ngini = 0.234\nsamples = 472\nvalue = [49, 13, 410]"] ;
137 -> 138 ;
139 [label="X[1] <= 0.011\ngini = 0.01\nsamples = 412\nvalue = [0, 2, 410]"] ;
138 -> 139 ;
140 [label="X[1] <= 0.011\ngini = 0.133\nsamples = 28\nvalue = [0, 2, 26]"] ;
139 -> 140 ;
141 [label="X[0] <= -0.689\ngini = 0.071\nsamples = 27\nvalue = [0, 1, 26]"] ;
140 -> 141 ;
142 [label="gini = 0.0\nsamples = 22\nvalue = [0, 0, 22]"] ;
141 -> 142 ;
143 [label="X[0] <= -0.526\ngini = 0.32\nsamples = 5\nvalue = [0, 1, 4]"] ;
141 -> 143 ;
144 [label="gini = 0.0\nsamples = 1\nvalue = [0, 1, 0]"] ;
143 -> 144 ;
145 [label="gini = 0.0\nsamples = 4\nvalue = [0, 0, 4]"] ;
143 -> 145 ;
146 [label="gini = 0.0\nsamples = 1\nvalue = [0, 1, 0]"] ;
140 -> 146 ;
147 [label="gini = 0.0\nsamples = 384\nvalue = [0, 0, 384]"] ;
139 -> 147 ;
148 [label="X[0] <= -0.431\ngini = 0.299\nsamples = 60\nvalue = [49, 11, 0]"] ;
138 -> 148 ;
149 [label="gini = 0.0\nsamples = 11\nvalue = [0, 11, 0]"] ;
148 -> 149 ;
150 [label="gini = 0.0\nsamples = 49\nvalue = [49, 0, 0]"] ;
148 -> 150 ;
151 [label="gini = 0.0\nsamples = 432\nvalue = [0, 0, 432]"] ;
137 -> 151 ;
152 [label="X[1] <= 0.018\ngini = 0.004\nsamples = 10759\nvalue = [19, 2, 10738]"] ;
136 -> 152 ;
153 [label="X[1] <= 0.018\ngini = 0.05\nsamples = 828\nvalue = [19, 2, 807]"] ;
152 -> 153 ;
154 [label="X[0] <= -0.631\ngini = 0.047\nsamples = 827\nvalue = [18, 2, 807]"] ;
153 -> 154 ;
155 [label="gini = 0.0\nsamples = 407\nvalue = [0, 0, 407]"] ;
154 -> 155 ;
156 [label="X[0] <= -0.054\ngini = 0.091\nsamples = 420\nvalue = [18, 2, 400]"] ;
154 -> 156 ;
157 [label="X[0] <= -0.435\ngini = 0.18\nsamples = 20\nvalue = [18, 2, 0]"] ;
156 -> 157 ;
158 [label="gini = 0.0\nsamples = 2\nvalue = [0, 2, 0]"] ;
157 -> 158 ;
159 [label="gini = 0.0\nsamples = 18\nvalue = [18, 0, 0]"] ;
157 -> 159 ;
160 [label="gini = 0.0\nsamples = 400\nvalue = [0, 0, 400]"] ;
156 -> 160 ;
161 [label="gini = 0.0\nsamples = 1\nvalue = [1, 0, 0]"] ;
153 -> 161 ;
162 [label="gini = 0.0\nsamples = 9931\nvalue = [0, 0, 9931]"] ;
152 -> 162 ;
}