digraph Tree {
node [shape=box] ;
0 [label="X[1] <= -0.0\ngini = 0.44\nsamples = 9032\nvalue = [6101, 23, 2908]"] ;
1 [label="X[0] <= -0.902\ngini = 0.02\nsamples = 5931\nvalue = [5871, 11, 49]"] ;
0 -> 1 [labeldistance=2.5, labelangle=45, headlabel="True"] ;
2 [label="X[1] <= -0.032\ngini = 0.38\nsamples = 51\nvalue = [13, 0, 38]"] ;
1 -> 2 ;
3 [label="gini = 0.0\nsamples = 11\nvalue = [11, 0, 0]"] ;
2 -> 3 ;
4 [label="X[0] <= -0.907\ngini = 0.095\nsamples = 40\nvalue = [2, 0, 38]"] ;
2 -> 4 ;
5 [label="gini = 0.0\nsamples = 35\nvalue = [0, 0, 35]"] ;
4 -> 5 ;
6 [label="X[1] <= -0.007\ngini = 0.48\nsamples = 5\nvalue = [2, 0, 3]"] ;
4 -> 6 ;
7 [label="gini = 0.0\nsamples = 2\nvalue = [0, 0, 2]"] ;
6 -> 7 ;
8 [label="X[1] <= -0.001\ngini = 0.444\nsamples = 3\nvalue = [2, 0, 1]"] ;
6 -> 8 ;
9 [label="gini = 0.0\nsamples = 2\nvalue = [2, 0, 0]"] ;
8 -> 9 ;
10 [label="gini = 0.0\nsamples = 1\nvalue = [0, 0, 1]"] ;
8 -> 10 ;
11 [label="X[1] <= -0.005\ngini = 0.007\nsamples = 5880\nvalue = [5858, 11, 11]"] ;
1 -> 11 ;
12 [label="X[1] <= -0.009\ngini = 0.001\nsamples = 5722\nvalue = [5720, 0, 2]"] ;
11 -> 12 ;
13 [label="gini = 0.0\nsamples = 5528\nvalue = [5528, 0, 0]"] ;
12 -> 13 ;
14 [label="X[1] <= -0.009\ngini = 0.02\nsamples = 194\nvalue = [192, 0, 2]"] ;
12 -> 14 ;
15 [label="gini = 0.0\nsamples = 1\nvalue = [0, 0, 1]"] ;
14 -> 15 ;
16 [label="X[0] <= -0.521\ngini = 0.01\nsamples = 193\nvalue = [192, 0, 1]"] ;
14 -> 16 ;
17 [label="X[0] <= -0.67\ngini = 0.031\nsamples = 63\nvalue = [62, 0, 1]"] ;
16 -> 17 ;
18 [label="gini = 0.0\nsamples = 62\nvalue = [62, 0, 0]"] ;
17 -> 18 ;
19 [label="gini = 0.0\nsamples = 1\nvalue = [0, 0, 1]"] ;
17 -> 19 ;
20 [label="gini = 0.0\nsamples = 130\nvalue = [130, 0, 0]"] ;
16 -> 20 ;
21 [label="X[0] <= -0.493\ngini = 0.229\nsamples = 158\nvalue = [138, 11, 9]"] ;
11 -> 21 ;
22 [label="X[1] <= -0.003\ngini = 0.601\nsamples = 23\nvalue = [3, 11, 9]"] ;
21 -> 22 ;
23 [label="X[0] <= -0.873\ngini = 0.397\nsamples = 11\nvalue = [3, 8, 0]"] ;
22 -> 23 ;
24 [label="gini = 0.0\nsamples = 3\nvalue = [3, 0, 0]"] ;
23 -> 24 ;
25 [label="gini = 0.0\nsamples = 8\nvalue = [0, 8, 0]"] ;
23 -> 25 ;
26 [label="X[0] <= -0.845\ngini = 0.375\nsamples = 12\nvalue = [0, 3, 9]"] ;
22 -> 26 ;
27 [label="X[0] <= -0.87\ngini = 0.49\nsamples = 7\nvalue = [0, 3, 4]"] ;
26 -> 27 ;
28 [label="gini = 0.0\nsamples = 4\nvalue = [0, 0, 4]"] ;
27 -> 28 ;
29 [label="gini = 0.0\nsamples = 3\nvalue = [0, 3, 0]"] ;
27 -> 29 ;
30 [label="gini = 0.0\nsamples = 5\nvalue = [0, 0, 5]"] ;
26 -> 30 ;
31 [label="gini = 0.0\nsamples = 135\nvalue = [135, 0, 0]"] ;
21 -> 31 ;
32 [label="X[1] <= 0.015\ngini = 0.144\nsamples = 3101\nvalue = [230, 12, 2859]"] ;
0 -> 32 [labeldistance=2.5, labelangle=-45, headlabel="False"] ;
33 [label="X[0] <= -0.473\ngini = 0.372\nsamples = 906\nvalue = [209, 10, 687]"] ;
32 -> 33 ;
34 [label="X[1] <= 0.009\ngini = 0.022\nsamples = 543\nvalue = [0, 6, 537]"] ;
33 -> 34 ;
35 [label="gini = 0.0\nsamples = 433\nvalue = [0, 0, 433]"] ;
34 -> 35 ;
36 [label="X[1] <= 0.009\ngini = 0.103\nsamples = 110\nvalue = [0, 6, 104]"] ;
34 -> 36 ;
37 [label="gini = 0.0\nsamples = 1\nvalue = [0, 1, 0]"] ;
36 -> 37 ;
38 [label="X[0] <= -0.681\ngini = 0.088\nsamples = 109\nvalue = [0, 5, 104]"] ;
36 -> 38 ;
39 [label="gini = 0.0\nsamples = 77\nvalue = [0, 0, 77]"] ;
38 -> 39 ;
40 [label="X[0] <= -0.535\ngini = 0.264\nsamples = 32\nvalue = [0, 5, 27]"] ;
38 -> 40 ;
41 [label="gini = 0.0\nsamples = 5\nvalue = [0, 5, 0]"] ;
40 -> 41 ;
42 [label="gini = 0.0\nsamples = 27\nvalue = [0, 0, 27]"] ;
40 -> 42 ;
43 [label="X[0] <= 0.243\ngini = 0.498\nsamples = 363\nvalue = [209, 4, 150]"] ;
33 -> 43 ;
44 [label="X[0] <= -0.469\ngini = 0.046\nsamples = 213\nvalue = [208, 4, 1]"] ;
43 -> 44 ;
45 [label="gini = 0.0\nsamples = 2\nvalue = [0, 2, 0]"] ;
44 -> 45 ;
46 [label="X[0] <= -0.455\ngini = 0.028\nsamples = 211\nvalue = [208, 2, 1]"] ;
44 -> 46 ;
47 [label="X[1] <= 0.005\ngini = 0.46\nsamples = 10\nvalue = [7, 2, 1]"] ;
46 -> 47 ;
48 [label="gini = 0.0\nsamples = 7\nvalue = [7, 0, 0]"] ;
47 -> 48 ;
49 [label="X[1] <= 0.01\ngini = 0.444\nsamples = 3\nvalue = [0, 2, 1]"] ;
47 -> 49 ;
50 [label="gini = 0.0\nsamples = 2\nvalue = [0, 2, 0]"] ;
49 -> 50 ;
51 [label="gini = 0.0\nsamples = 1\nvalue = [0, 0, 1]"] ;
49 -> 51 ;
52 [label="gini = 0.0\nsamples = 201\nvalue = [201, 0, 0]"] ;
46 -> 52 ;
53 [label="X[1] <= 0.001\ngini = 0.013\nsamples = 150\nvalue = [1, 0, 149]"] ;
43 -> 53 ;
54 [label="X[1] <= 0.0\ngini = 0.375\nsamples = 4\nvalue = [1, 0, 3]"] ;
53 -> 54 ;
55 [label="gini = 0.0\nsamples = 3\nvalue = [0, 0, 3]"] ;
54 -> 55 ;
56 [label="gini = 0.0\nsamples = 1\nvalue = [1, 0, 0]"] ;
54 -> 56 ;
57 [label="gini = 0.0\nsamples = 146\nvalue = [0, 0, 146]"] ;
53 -> 57 ;
58 [label="X[1] <= 0.018\ngini = 0.021\nsamples = 2195\nvalue = [21, 2, 2172]"] ;
32 -> 58 ;
59 [label="X[0] <= -0.031\ngini = 0.183\nsamples = 198\nvalue = [18, 2, 178]"] ;
58 -> 59 ;
60 [label="X[0] <= -0.614\ngini = 0.327\nsamples = 100\nvalue = [18, 2, 80]"] ;
59 -> 60 ;
61 [label="gini = 0.0\nsamples = 80\nvalue = [0, 0, 80]"] ;
60 -> 61 ;
62 [label="X[0] <= -0.422\ngini = 0.18\nsamples = 20\nvalue = [18, 2, 0]"] ;
60 -> 62 ;
63 [label="gini = 0.0\nsamples = 2\nvalue = [0, 2, 0]"] ;
62 -> 63 ;
64 [label="gini = 0.0\nsamples = 18\nvalue = [18, 0, 0]"] ;
62 -> 64 ;
65 [label="gini = 0.0\nsamples = 98\nvalue = [0, 0, 98]"] ;
59 -> 65 ;
66 [label="X[0] <= -0.11\ngini = 0.003\nsamples = 1997\nvalue = [3, 0, 1994]"] ;
58 -> 66 ;
67 [label="gini = 0.0\nsamples = 1484\nvalue = [0, 0, 1484]"] ;
66 -> 67 ;
68 [label="X[0] <= -0.109\ngini = 0.012\nsamples = 513\nvalue = [3, 0, 510]"] ;
66 -> 68 ;
69 [label="gini = 0.0\nsamples = 1\nvalue = [1, 0, 0]"] ;
68 -> 69 ;
70 [label="X[0] <= 0.08\ngini = 0.008\nsamples = 512\nvalue = [2, 0, 510]"] ;
68 -> 70 ;
71 [label="X[1] <= 0.024\ngini = 0.028\nsamples = 142\nvalue = [2, 0, 140]"] ;
70 -> 71 ;
72 [label="gini = 0.0\nsamples = 1\nvalue = [1, 0, 0]"] ;
71 -> 72 ;
73 [label="X[1] <= 0.028\ngini = 0.014\nsamples = 141\nvalue = [1, 0, 140]"] ;
71 -> 73 ;
74 [label="X[0] <= 0.004\ngini = 0.375\nsamples = 4\nvalue = [1, 0, 3]"] ;
73 -> 74 ;
75 [label="gini = 0.0\nsamples = 1\nvalue = [1, 0, 0]"] ;
74 -> 75 ;
76 [label="gini = 0.0\nsamples = 3\nvalue = [0, 0, 3]"] ;
74 -> 76 ;
77 [label="gini = 0.0\nsamples = 137\nvalue = [0, 0, 137]"] ;
73 -> 77 ;
78 [label="gini = 0.0\nsamples = 370\nvalue = [0, 0, 370]"] ;
70 -> 78 ;
}