digraph Tree {
node [shape=box] ;
0 [label="X[5] <= -10.5\ngini = 0.799\nsamples = 160000\nvalue = [18959, 15399, 42120, 11746, 40925, 30851]"] ;
1 [label="X[1] <= 70.5\ngini = 0.153\nsamples = 12054\nvalue = [205, 123, 347, 118, 11082, 179]"] ;
0 -> 1 [labeldistance=2.5, labelangle=45, headlabel="True"] ;
2 [label="X[1] <= 64.5\ngini = 0.784\nsamples = 1091\nvalue = [194, 65, 334, 70, 274, 154]"] ;
1 -> 2 ;
3 [label="X[3] <= 2.5\ngini = 0.701\nsamples = 561\nvalue = [49, 60, 128, 24, 264, 36]"] ;
2 -> 3 ;
4 [label="X[6] <= -12.5\ngini = 0.803\nsamples = 308\nvalue = [41, 59, 61, 24, 90, 33]"] ;
3 -> 4 ;
5 [label="X[3] <= -7.0\ngini = 0.668\nsamples = 164\nvalue = [23, 2, 24, 17, 86, 12]"] ;
4 -> 5 ;
6 [label="gini = 0.0\nsamples = 10\nvalue = [0, 0, 0, 10, 0, 0]"] ;
5 -> 6 ;
7 [label="X[0] <= -34.0\ngini = 0.633\nsamples = 154\nvalue = [23, 2, 24, 7, 86, 12]"] ;
5 -> 7 ;
8 [label="X[0] <= -43.5\ngini = 0.498\nsamples = 51\nvalue = [0, 0, 24, 0, 27, 0]"] ;
7 -> 8 ;
9 [label="gini = 0.0\nsamples = 27\nvalue = [0, 0, 0, 0, 27, 0]"] ;
8 -> 9 ;
10 [label="gini = 0.0\nsamples = 24\nvalue = [0, 0, 24, 0, 0, 0]"] ;
8 -> 10 ;
11 [label="X[4] <= -4.0\ngini = 0.603\nsamples = 103\nvalue = [23, 2, 0, 7, 59, 12]"] ;
7 -> 11 ;
12 [label="X[1] <= 59.5\ngini = 0.64\nsamples = 70\nvalue = [23, 0, 0, 2, 33, 12]"] ;
11 -> 12 ;
13 [label="X[1] <= 25.5\ngini = 0.559\nsamples = 24\nvalue = [13, 0, 0, 2, 0, 9]"] ;
12 -> 13 ;
14 [label="X[3] <= -3.5\ngini = 0.32\nsamples = 5\nvalue = [1, 0, 0, 0, 0, 4]"] ;
13 -> 14 ;
15 [label="gini = 0.0\nsamples = 4\nvalue = [0, 0, 0, 0, 0, 4]"] ;
14 -> 15 ;
16 [label="gini = 0.0\nsamples = 1\nvalue = [1, 0, 0, 0, 0, 0]"] ;
14 -> 16 ;
17 [label="X[0] <= -11.5\ngini = 0.521\nsamples = 19\nvalue = [12, 0, 0, 2, 0, 5]"] ;
13 -> 17 ;
18 [label="X[6] <= -14.0\ngini = 0.56\nsamples = 5\nvalue = [1, 0, 0, 1, 0, 3]"] ;
17 -> 18 ;
19 [label="gini = 0.0\nsamples = 3\nvalue = [0, 0, 0, 0, 0, 3]"] ;
18 -> 19 ;
20 [label="gini = 0.5\nsamples = 2\nvalue = [1, 0, 0, 1, 0, 0]"] ;
18 -> 20 ;
21 [label="X[1] <= 58.5\ngini = 0.357\nsamples = 14\nvalue = [11, 0, 0, 1, 0, 2]"] ;
17 -> 21 ;
22 [label="gini = 0.26\nsamples = 13\nvalue = [11, 0, 0, 0, 0, 2]"] ;
21 -> 22 ;
23 [label="gini = 0.0\nsamples = 1\nvalue = [0, 0, 0, 1, 0, 0]"] ;
21 -> 23 ;
24 [label="X[0] <= 0.0\ngini = 0.434\nsamples = 46\nvalue = [10, 0, 0, 0, 33, 3]"] ;
12 -> 24 ;
25 [label="X[0] <= -20.0\ngini = 0.357\nsamples = 43\nvalue = [10, 0, 0, 0, 33, 0]"] ;
24 -> 25 ;
26 [label="gini = 0.0\nsamples = 13\nvalue = [0, 0, 0, 0, 13, 0]"] ;
25 -> 26 ;
27 [label="X[0] <= -10.0\ngini = 0.444\nsamples = 30\nvalue = [10, 0, 0, 0, 20, 0]"] ;
25 -> 27 ;
28 [label="gini = 0.466\nsamples = 27\nvalue = [10, 0, 0, 0, 17, 0]"] ;
27 -> 28 ;
29 [label="gini = 0.0\nsamples = 3\nvalue = [0, 0, 0, 0, 3, 0]"] ;
27 -> 29 ;
30 [label="gini = 0.0\nsamples = 3\nvalue = [0, 0, 0, 0, 0, 3]"] ;
24 -> 30 ;
31 [label="X[0] <= -10.0\ngini = 0.353\nsamples = 33\nvalue = [0, 2, 0, 5, 26, 0]"] ;
11 -> 31 ;
32 [label="X[3] <= -1.0\ngini = 0.408\nsamples = 7\nvalue = [0, 2, 0, 5, 0, 0]"] ;
31 -> 32 ;
33 [label="gini = 0.0\nsamples = 2\nvalue = [0, 2, 0, 0, 0, 0]"] ;
32 -> 33 ;
34 [label="gini = 0.0\nsamples = 5\nvalue = [0, 0, 0, 5, 0, 0]"] ;
32 -> 34 ;
35 [label="gini = 0.0\nsamples = 26\nvalue = [0, 0, 0, 0, 26, 0]"] ;
31 -> 35 ;
36 [label="X[0] <= -9.5\ngini = 0.737\nsamples = 144\nvalue = [18, 57, 37, 7, 4, 21]"] ;
4 -> 36 ;
37 [label="X[0] <= -66.0\ngini = 0.755\nsamples = 68\nvalue = [9, 9, 27, 6, 3, 14]"] ;
36 -> 37 ;
38 [label="gini = 0.0\nsamples = 7\nvalue = [0, 7, 0, 0, 0, 0]"] ;
37 -> 38 ;
39 [label="X[3] <= -2.5\ngini = 0.716\nsamples = 61\nvalue = [9, 2, 27, 6, 3, 14]"] ;
37 -> 39 ;
40 [label="X[1] <= 14.0\ngini = 0.695\nsamples = 26\nvalue = [4, 0, 3, 6, 1, 12]"] ;
39 -> 40 ;
41 [label="X[1] <= 2.0\ngini = 0.653\nsamples = 12\nvalue = [2, 0, 3, 6, 1, 0]"] ;
40 -> 41 ;
42 [label="X[2] <= -24.5\ngini = 0.494\nsamples = 9\nvalue = [2, 0, 0, 6, 1, 0]"] ;
41 -> 42 ;
43 [label="X[2] <= -37.0\ngini = 0.444\nsamples = 3\nvalue = [2, 0, 0, 0, 1, 0]"] ;
42 -> 43 ;
44 [label="gini = 0.0\nsamples = 2\nvalue = [2, 0, 0, 0, 0, 0]"] ;
43 -> 44 ;
45 [label="gini = 0.0\nsamples = 1\nvalue = [0, 0, 0, 0, 1, 0]"] ;
43 -> 45 ;
46 [label="gini = 0.0\nsamples = 6\nvalue = [0, 0, 0, 6, 0, 0]"] ;
42 -> 46 ;
47 [label="gini = 0.0\nsamples = 3\nvalue = [0, 0, 3, 0, 0, 0]"] ;
41 -> 47 ;
48 [label="X[2] <= 3.0\ngini = 0.245\nsamples = 14\nvalue = [2, 0, 0, 0, 0, 12]"] ;
40 -> 48 ;
49 [label="gini = 0.0\nsamples = 12\nvalue = [0, 0, 0, 0, 0, 12]"] ;
48 -> 49 ;
50 [label="gini = 0.0\nsamples = 2\nvalue = [2, 0, 0, 0, 0, 0]"] ;
48 -> 50 ;
51 [label="X[2] <= -1.0\ngini = 0.5\nsamples = 35\nvalue = [5, 2, 24, 0, 2, 2]"] ;
39 -> 51 ;
52 [label="X[2] <= -4.5\ngini = 0.266\nsamples = 27\nvalue = [0, 2, 23, 0, 1, 1]"] ;
51 -> 52 ;
53 [label="gini = 0.0\nsamples = 1\nvalue = [0, 0, 0, 0, 0, 1]"] ;
52 -> 53 ;
54 [label="X[6] <= -7.5\ngini = 0.21\nsamples = 26\nvalue = [0, 2, 23, 0, 1, 0]"] ;
52 -> 54 ;
55 [label="X[5] <= -13.5\ngini = 0.095\nsamples = 20\nvalue = [0, 0, 19, 0, 1, 0]"] ;
54 -> 55 ;
56 [label="gini = 0.444\nsamples = 3\nvalue = [0, 0, 2, 0, 1, 0]"] ;
55 -> 56 ;
57 [label="gini = 0.0\nsamples = 17\nvalue = [0, 0, 17, 0, 0, 0]"] ;
55 -> 57 ;
58 [label="X[4] <= -7.5\ngini = 0.444\nsamples = 6\nvalue = [0, 2, 4, 0, 0, 0]"] ;
54 -> 58 ;
59 [label="gini = 0.0\nsamples = 4\nvalue = [0, 0, 4, 0, 0, 0]"] ;
58 -> 59 ;
60 [label="gini = 0.0\nsamples = 2\nvalue = [0, 2, 0, 0, 0, 0]"] ;
58 -> 60 ;
61 [label="X[0] <= -28.5\ngini = 0.562\nsamples = 8\nvalue = [5, 0, 1, 0, 1, 1]"] ;
51 -> 61 ;
62 [label="gini = 0.0\nsamples = 5\nvalue = [5, 0, 0, 0, 0, 0]"] ;
61 -> 62 ;
63 [label="X[4] <= -8.0\ngini = 0.667\nsamples = 3\nvalue = [0, 0, 1, 0, 1, 1]"] ;
61 -> 63 ;
64 [label="gini = 0.0\nsamples = 1\nvalue = [0, 0, 0, 0, 1, 0]"] ;
63 -> 64 ;
65 [label="X[5] <= -12.0\ngini = 0.5\nsamples = 2\nvalue = [0, 0, 1, 0, 0, 1]"] ;
63 -> 65 ;
66 [label="gini = 0.0\nsamples = 1\nvalue = [0, 0, 1, 0, 0, 0]"] ;
65 -> 66 ;
67 [label="gini = 0.0\nsamples = 1\nvalue = [0, 0, 0, 0, 0, 1]"] ;
65 -> 67 ;
68 [label="X[0] <= 0.5\ngini = 0.561\nsamples = 76\nvalue = [9, 48, 10, 1, 1, 7]"] ;
36 -> 68 ;
69 [label="X[2] <= -2.5\ngini = 0.33\nsamples = 53\nvalue = [1, 43, 2, 1, 1, 5]"] ;
68 -> 69 ;
70 [label="X[0] <= -6.0\ngini = 0.571\nsamples = 7\nvalue = [0, 0, 2, 1, 0, 4]"] ;
69 -> 70 ;
71 [label="gini = 0.32\nsamples = 5\nvalue = [0, 0, 0, 1, 0, 4]"] ;
70 -> 71 ;
72 [label="gini = 0.0\nsamples = 2\nvalue = [0, 0, 2, 0, 0, 0]"] ;
70 -> 72 ;
73 [label="X[3] <= -6.5\ngini = 0.125\nsamples = 46\nvalue = [1, 43, 0, 0, 1, 1]"] ;
69 -> 73 ;
74 [label="gini = 0.0\nsamples = 1\nvalue = [0, 0, 0, 0, 1, 0]"] ;
73 -> 74 ;
75 [label="X[1] <= 55.0\ngini = 0.086\nsamples = 45\nvalue = [1, 43, 0, 0, 0, 1]"] ;
73 -> 75 ;
76 [label="X[3] <= 0.5\ngini = 0.56\nsamples = 5\nvalue = [1, 3, 0, 0, 0, 1]"] ;
75 -> 76 ;
77 [label="gini = 0.0\nsamples = 3\nvalue = [0, 3, 0, 0, 0, 0]"] ;
76 -> 77 ;
78 [label="X[0] <= -4.5\ngini = 0.5\nsamples = 2\nvalue = [1, 0, 0, 0, 0, 1]"] ;
76 -> 78 ;
79 [label="gini = 0.0\nsamples = 1\nvalue = [1, 0, 0, 0, 0, 0]"] ;
78 -> 79 ;
80 [label="gini = 0.0\nsamples = 1\nvalue = [0, 0, 0, 0, 0, 1]"] ;
78 -> 80 ;
81 [label="gini = 0.0\nsamples = 40\nvalue = [0, 40, 0, 0, 0, 0]"] ;
75 -> 81 ;
82 [label="X[1] <= 60.0\ngini = 0.703\nsamples = 23\nvalue = [8, 5, 8, 0, 0, 2]"] ;
68 -> 82 ;
83 [label="X[4] <= -7.5\ngini = 0.587\nsamples = 15\nvalue = [0, 5, 8, 0, 0, 2]"] ;
82 -> 83 ;
84 [label="X[4] <= -8.5\ngini = 0.444\nsamples = 6\nvalue = [0, 4, 0, 0, 0, 2]"] ;
83 -> 84 ;
85 [label="gini = 0.0\nsamples = 2\nvalue = [0, 0, 0, 0, 0, 2]"] ;
84 -> 85 ;
86 [label="gini = 0.0\nsamples = 4\nvalue = [0, 4, 0, 0, 0, 0]"] ;
84 -> 86 ;
87 [label="X[3] <= -3.0\ngini = 0.198\nsamples = 9\nvalue = [0, 1, 8, 0, 0, 0]"] ;
83 -> 87 ;
88 [label="gini = 0.0\nsamples = 7\nvalue = [0, 0, 7, 0, 0, 0]"] ;
87 -> 88 ;
89 [label="X[1] <= 45.5\ngini = 0.5\nsamples = 2\nvalue = [0, 1, 1, 0, 0, 0]"] ;
87 -> 89 ;
90 [label="gini = 0.0\nsamples = 1\nvalue = [0, 1, 0, 0, 0, 0]"] ;
89 -> 90 ;
91 [label="gini = 0.0\nsamples = 1\nvalue = [0, 0, 1, 0, 0, 0]"] ;
89 -> 91 ;
92 [label="gini = 0.0\nsamples = 8\nvalue = [8, 0, 0, 0, 0, 0]"] ;
82 -> 92 ;
93 [label="X[1] <= 39.0\ngini = 0.456\nsamples = 253\nvalue = [8, 1, 67, 0, 174, 3]"] ;
3 -> 93 ;
94 [label="X[2] <= -3.5\ngini = 0.245\nsamples = 44\nvalue = [1, 0, 38, 0, 4, 1]"] ;
93 -> 94 ;
95 [label="X[0] <= -38.0\ngini = 0.56\nsamples = 5\nvalue = [1, 0, 1, 0, 3, 0]"] ;
94 -> 95 ;
96 [label="gini = 0.0\nsamples = 3\nvalue = [0, 0, 0, 0, 3, 0]"] ;
95 -> 96 ;
97 [label="X[1] <= 25.0\ngini = 0.5\nsamples = 2\nvalue = [1, 0, 1, 0, 0, 0]"] ;
95 -> 97 ;
98 [label="gini = 0.0\nsamples = 1\nvalue = [0, 0, 1, 0, 0, 0]"] ;
97 -> 98 ;
99 [label="gini = 0.0\nsamples = 1\nvalue = [1, 0, 0, 0, 0, 0]"] ;
97 -> 99 ;
100 [label="X[6] <= -11.5\ngini = 0.099\nsamples = 39\nvalue = [0, 0, 37, 0, 1, 1]"] ;
94 -> 100 ;
101 [label="gini = 0.0\nsamples = 37\nvalue = [0, 0, 37, 0, 0, 0]"] ;
100 -> 101 ;
102 [label="X[0] <= -29.0\ngini = 0.5\nsamples = 2\nvalue = [0, 0, 0, 0, 1, 1]"] ;
100 -> 102 ;
103 [label="gini = 0.0\nsamples = 1\nvalue = [0, 0, 0, 0, 1, 0]"] ;
102 -> 103 ;
104 [label="gini = 0.0\nsamples = 1\nvalue = [0, 0, 0, 0, 0, 1]"] ;
102 -> 104 ;
105 [label="X[5] <= -11.5\ngini = 0.318\nsamples = 209\nvalue = [7, 1, 29, 0, 170, 2]"] ;
93 -> 105 ;
106 [label="X[6] <= -16.5\ngini = 0.117\nsamples = 146\nvalue = [7, 0, 0, 0, 137, 2]"] ;
105 -> 106 ;
107 [label="gini = 0.0\nsamples = 7\nvalue = [7, 0, 0, 0, 0, 0]"] ;
106 -> 107 ;
108 [label="X[4] <= -2.5\ngini = 0.028\nsamples = 139\nvalue = [0, 0, 0, 0, 137, 2]"] ;
106 -> 108 ;
109 [label="gini = 0.0\nsamples = 137\nvalue = [0, 0, 0, 0, 137, 0]"] ;
108 -> 109 ;
110 [label="gini = 0.0\nsamples = 2\nvalue = [0, 0, 0, 0, 0, 2]"] ;
108 -> 110 ;
111 [label="X[1] <= 55.5\ngini = 0.513\nsamples = 63\nvalue = [0, 1, 29, 0, 33, 0]"] ;
105 -> 111 ;
112 [label="gini = 0.0\nsamples = 28\nvalue = [0, 0, 0, 0, 28, 0]"] ;
111 -> 112 ;
113 [label="X[0] <= -46.5\ngini = 0.292\nsamples = 35\nvalue = [0, 1, 29, 0, 5, 0]"] ;
111 -> 113 ;
114 [label="gini = 0.0\nsamples = 3\nvalue = [0, 0, 0, 0, 3, 0]"] ;
113 -> 114 ;
115 [label="X[2] <= -4.5\ngini = 0.174\nsamples = 32\nvalue = [0, 1, 29, 0, 2, 0]"] ;
113 -> 115 ;
116 [label="gini = 0.0\nsamples = 2\nvalue = [0, 0, 0, 0, 2, 0]"] ;
115 -> 116 ;
117 [label="X[0] <= -1.5\ngini = 0.064\nsamples = 30\nvalue = [0, 1, 29, 0, 0, 0]"] ;
115 -> 117 ;
118 [label="gini = 0.0\nsamples = 29\nvalue = [0, 0, 29, 0, 0, 0]"] ;
117 -> 118 ;
119 [label="gini = 0.0\nsamples = 1\nvalue = [0, 1, 0, 0, 0, 0]"] ;
117 -> 119 ;
120 [label="X[2] <= -1.0\ngini = 0.717\nsamples = 530\nvalue = [145, 5, 206, 46, 10, 118]"] ;
2 -> 120 ;
121 [label="X[1] <= 69.5\ngini = 0.501\nsamples = 321\nvalue = [92, 0, 206, 22, 0, 1]"] ;
120 -> 121 ;
122 [label="X[1] <= 65.5\ngini = 0.219\nsamples = 233\nvalue = [17, 0, 205, 10, 0, 1]"] ;
121 -> 122 ;
123 [label="X[6] <= -10.5\ngini = 0.65\nsamples = 25\nvalue = [11, 0, 4, 9, 0, 1]"] ;
122 -> 123 ;
124 [label="X[6] <= -12.5\ngini = 0.18\nsamples = 10\nvalue = [0, 0, 0, 9, 0, 1]"] ;
123 -> 124 ;
125 [label="gini = 0.219\nsamples = 8\nvalue = [0, 0, 0, 7, 0, 1]"] ;
124 -> 125 ;
126 [label="gini = 0.0\nsamples = 2\nvalue = [0, 0, 0, 2, 0, 0]"] ;
124 -> 126 ;
127 [label="X[6] <= -8.5\ngini = 0.391\nsamples = 15\nvalue = [11, 0, 4, 0, 0, 0]"] ;
123 -> 127 ;
128 [label="gini = 0.0\nsamples = 11\nvalue = [11, 0, 0, 0, 0, 0]"] ;
127 -> 128 ;
129 [label="gini = 0.0\nsamples = 4\nvalue = [0, 0, 4, 0, 0, 0]"] ;
127 -> 129 ;
130 [label="X[6] <= -16.5\ngini = 0.065\nsamples = 208\nvalue = [6, 0, 201, 1, 0, 0]"] ;
122 -> 130 ;
131 [label="gini = 0.0\nsamples = 4\nvalue = [4, 0, 0, 0, 0, 0]"] ;
130 -> 131 ;
132 [label="X[6] <= -3.5\ngini = 0.029\nsamples = 204\nvalue = [2, 0, 201, 1, 0, 0]"] ;
130 -> 132 ;
133 [label="X[3] <= -1.0\ngini = 0.01\nsamples = 202\nvalue = [0, 0, 201, 1, 0, 0]"] ;
132 -> 133 ;
134 [label="gini = 0.0\nsamples = 1\nvalue = [0, 0, 0, 1, 0, 0]"] ;
133 -> 134 ;
135 [label="gini = 0.0\nsamples = 201\nvalue = [0, 0, 201, 0, 0, 0]"] ;
133 -> 135 ;
136 [label="gini = 0.0\nsamples = 2\nvalue = [2, 0, 0, 0, 0, 0]"] ;
132 -> 136 ;
137 [label="X[2] <= -4.0\ngini = 0.255\nsamples = 88\nvalue = [75, 0, 1, 12, 0, 0]"] ;
121 -> 137 ;
138 [label="gini = 0.0\nsamples = 75\nvalue = [75, 0, 0, 0, 0, 0]"] ;
137 -> 138 ;
139 [label="X[0] <= -3.0\ngini = 0.142\nsamples = 13\nvalue = [0, 0, 1, 12, 0, 0]"] ;
137 -> 139 ;
140 [label="gini = 0.0\nsamples = 1\nvalue = [0, 0, 1, 0, 0, 0]"] ;
139 -> 140 ;
141 [label="gini = 0.0\nsamples = 12\nvalue = [0, 0, 0, 12, 0, 0]"] ;
139 -> 141 ;
142 [label="X[2] <= 2.5\ngini = 0.606\nsamples = 209\nvalue = [53, 5, 0, 24, 10, 117]"] ;
120 -> 142 ;
143 [label="X[0] <= -7.0\ngini = 0.094\nsamples = 123\nvalue = [2, 4, 0, 0, 0, 117]"] ;
142 -> 143 ;
144 [label="X[3] <= 3.5\ngini = 0.48\nsamples = 5\nvalue = [2, 3, 0, 0, 0, 0]"] ;
143 -> 144 ;
145 [label="gini = 0.0\nsamples = 2\nvalue = [2, 0, 0, 0, 0, 0]"] ;
144 -> 145 ;
146 [label="gini = 0.0\nsamples = 3\nvalue = [0, 3, 0, 0, 0, 0]"] ;
144 -> 146 ;
147 [label="X[1] <= 69.5\ngini = 0.017\nsamples = 118\nvalue = [0, 1, 0, 0, 0, 117]"] ;
143 -> 147 ;
148 [label="gini = 0.0\nsamples = 117\nvalue = [0, 0, 0, 0, 0, 117]"] ;
147 -> 148 ;
149 [label="gini = 0.0\nsamples = 1\nvalue = [0, 1, 0, 0, 0, 0]"] ;
147 -> 149 ;
150 [label="X[0] <= -1.5\ngini = 0.557\nsamples = 86\nvalue = [51, 1, 0, 24, 10, 0]"] ;
142 -> 150 ;
151 [label="X[5] <= -11.5\ngini = 0.357\nsamples = 65\nvalue = [51, 0, 0, 4, 10, 0]"] ;
150 -> 151 ;
152 [label="X[3] <= 3.0\ngini = 0.105\nsamples = 54\nvalue = [51, 0, 0, 0, 3, 0]"] ;
151 -> 152 ;
153 [label="gini = 0.0\nsamples = 51\nvalue = [51, 0, 0, 0, 0, 0]"] ;
152 -> 153 ;
154 [label="gini = 0.0\nsamples = 3\nvalue = [0, 0, 0, 0, 3, 0]"] ;
152 -> 154 ;
155 [label="X[0] <= -34.0\ngini = 0.463\nsamples = 11\nvalue = [0, 0, 0, 4, 7, 0]"] ;
151 -> 155 ;
156 [label="gini = 0.0\nsamples = 7\nvalue = [0, 0, 0, 0, 7, 0]"] ;
155 -> 156 ;
157 [label="gini = 0.0\nsamples = 4\nvalue = [0, 0, 0, 4, 0, 0]"] ;
155 -> 157 ;
158 [label="X[4] <= -6.5\ngini = 0.091\nsamples = 21\nvalue = [0, 1, 0, 20, 0, 0]"] ;
150 -> 158 ;
159 [label="gini = 0.0\nsamples = 20\nvalue = [0, 0, 0, 20, 0, 0]"] ;
158 -> 159 ;
160 [label="gini = 0.0\nsamples = 1\nvalue = [0, 1, 0, 0, 0, 0]"] ;
158 -> 160 ;
161 [label="X[1] <= 72.5\ngini = 0.028\nsamples = 10963\nvalue = [11, 58, 13, 48, 10808, 25]"] ;
1 -> 161 ;
162 [label="X[5] <= -13.5\ngini = 0.005\nsamples = 10746\nvalue = [0, 0, 4, 0, 10720, 22]"] ;
161 -> 162 ;
163 [label="X[6] <= -10.5\ngini = 0.26\nsamples = 26\nvalue = [0, 0, 4, 0, 0, 22]"] ;
162 -> 163 ;
164 [label="X[1] <= 71.5\ngini = 0.083\nsamples = 23\nvalue = [0, 0, 1, 0, 0, 22]"] ;
163 -> 164 ;
165 [label="gini = 0.0\nsamples = 22\nvalue = [0, 0, 0, 0, 0, 22]"] ;
164 -> 165 ;
166 [label="gini = 0.0\nsamples = 1\nvalue = [0, 0, 1, 0, 0, 0]"] ;
164 -> 166 ;
167 [label="gini = 0.0\nsamples = 3\nvalue = [0, 0, 3, 0, 0, 0]"] ;
163 -> 167 ;
168 [label="gini = 0.0\nsamples = 10720\nvalue = [0, 0, 0, 0, 10720, 0]"] ;
162 -> 168 ;
169 [label="X[6] <= -13.5\ngini = 0.711\nsamples = 217\nvalue = [11, 58, 9, 48, 88, 3]"] ;
161 -> 169 ;
170 [label="X[5] <= -11.5\ngini = 0.499\nsamples = 54\nvalue = [0, 35, 3, 15, 1, 0]"] ;
169 -> 170 ;
171 [label="gini = 0.0\nsamples = 35\nvalue = [0, 35, 0, 0, 0, 0]"] ;
170 -> 171 ;
172 [label="X[0] <= -20.5\ngini = 0.349\nsamples = 19\nvalue = [0, 0, 3, 15, 1, 0]"] ;
170 -> 172 ;
173 [label="gini = 0.0\nsamples = 15\nvalue = [0, 0, 0, 15, 0, 0]"] ;
172 -> 173 ;
174 [label="X[3] <= 3.5\ngini = 0.375\nsamples = 4\nvalue = [0, 0, 3, 0, 1, 0]"] ;
172 -> 174 ;
175 [label="gini = 0.0\nsamples = 3\nvalue = [0, 0, 3, 0, 0, 0]"] ;
174 -> 175 ;
176 [label="gini = 0.0\nsamples = 1\nvalue = [0, 0, 0, 0, 1, 0]"] ;
174 -> 176 ;
177 [label="X[0] <= 3.0\ngini = 0.648\nsamples = 163\nvalue = [11, 23, 6, 33, 87, 3]"] ;
169 -> 177 ;
178 [label="X[0] <= -18.5\ngini = 0.502\nsamples = 127\nvalue = [0, 22, 6, 10, 86, 3]"] ;
177 -> 178 ;
179 [label="X[3] <= 2.5\ngini = 0.534\nsamples = 25\nvalue = [0, 15, 0, 8, 1, 1]"] ;
178 -> 179 ;
180 [label="gini = 0.0\nsamples = 15\nvalue = [0, 15, 0, 0, 0, 0]"] ;
179 -> 180 ;
181 [label="X[2] <= 1.0\ngini = 0.34\nsamples = 10\nvalue = [0, 0, 0, 8, 1, 1]"] ;
179 -> 181 ;
182 [label="X[6] <= -10.5\ngini = 0.5\nsamples = 2\nvalue = [0, 0, 0, 0, 1, 1]"] ;
181 -> 182 ;
183 [label="gini = 0.0\nsamples = 1\nvalue = [0, 0, 0, 0, 0, 1]"] ;
182 -> 183 ;
184 [label="gini = 0.0\nsamples = 1\nvalue = [0, 0, 0, 0, 1, 0]"] ;
182 -> 184 ;
185 [label="gini = 0.0\nsamples = 8\nvalue = [0, 0, 0, 8, 0, 0]"] ;
181 -> 185 ;
186 [label="X[6] <= -9.0\ngini = 0.297\nsamples = 102\nvalue = [0, 7, 6, 2, 85, 2]"] ;
178 -> 186 ;
187 [label="X[3] <= 3.0\ngini = 0.216\nsamples = 93\nvalue = [0, 7, 3, 1, 82, 0]"] ;
186 -> 187 ;
188 [label="X[2] <= -3.0\ngini = 0.165\nsamples = 89\nvalue = [0, 7, 0, 1, 81, 0]"] ;
187 -> 188 ;
189 [label="X[4] <= -4.5\ngini = 0.249\nsamples = 56\nvalue = [0, 7, 0, 1, 48, 0]"] ;
188 -> 189 ;
190 [label="X[0] <= -8.5\ngini = 0.222\nsamples = 55\nvalue = [0, 7, 0, 0, 48, 0]"] ;
189 -> 190 ;
191 [label="gini = 0.0\nsamples = 1\nvalue = [0, 1, 0, 0, 0, 0]"] ;
190 -> 191 ;
192 [label="gini = 0.198\nsamples = 54\nvalue = [0, 6, 0, 0, 48, 0]"] ;
190 -> 192 ;
193 [label="gini = 0.0\nsamples = 1\nvalue = [0, 0, 0, 1, 0, 0]"] ;
189 -> 193 ;
194 [label="gini = 0.0\nsamples = 33\nvalue = [0, 0, 0, 0, 33, 0]"] ;
188 -> 194 ;
195 [label="X[2] <= -2.0\ngini = 0.375\nsamples = 4\nvalue = [0, 0, 3, 0, 1, 0]"] ;
187 -> 195 ;
196 [label="gini = 0.0\nsamples = 1\nvalue = [0, 0, 0, 0, 1, 0]"] ;
195 -> 196 ;
197 [label="gini = 0.0\nsamples = 3\nvalue = [0, 0, 3, 0, 0, 0]"] ;
195 -> 197 ;
198 [label="X[2] <= 2.5\ngini = 0.716\nsamples = 9\nvalue = [0, 0, 3, 1, 3, 2]"] ;
186 -> 198 ;
199 [label="gini = 0.0\nsamples = 3\nvalue = [0, 0, 3, 0, 0, 0]"] ;
198 -> 199 ;
200 [label="X[4] <= -7.5\ngini = 0.611\nsamples = 6\nvalue = [0, 0, 0, 1, 3, 2]"] ;
198 -> 200 ;
201 [label="X[6] <= -7.5\ngini = 0.444\nsamples = 3\nvalue = [0, 0, 0, 1, 0, 2]"] ;
200 -> 201 ;
202 [label="gini = 0.0\nsamples = 2\nvalue = [0, 0, 0, 0, 0, 2]"] ;
201 -> 202 ;
203 [label="gini = 0.0\nsamples = 1\nvalue = [0, 0, 0, 1, 0, 0]"] ;
201 -> 203 ;
204 [label="gini = 0.0\nsamples = 3\nvalue = [0, 0, 0, 0, 3, 0]"] ;
200 -> 204 ;
205 [label="X[0] <= 13.5\ngini = 0.497\nsamples = 36\nvalue = [11, 1, 0, 23, 1, 0]"] ;
177 -> 205 ;
206 [label="gini = 0.0\nsamples = 22\nvalue = [0, 0, 0, 22, 0, 0]"] ;
205 -> 206 ;
207 [label="X[6] <= -9.0\ngini = 0.367\nsamples = 14\nvalue = [11, 1, 0, 1, 1, 0]"] ;
205 -> 207 ;
208 [label="gini = 0.0\nsamples = 11\nvalue = [11, 0, 0, 0, 0, 0]"] ;
207 -> 208 ;
209 [label="X[1] <= 73.5\ngini = 0.667\nsamples = 3\nvalue = [0, 1, 0, 1, 1, 0]"] ;
207 -> 209 ;
210 [label="gini = 0.0\nsamples = 1\nvalue = [0, 0, 0, 1, 0, 0]"] ;
209 -> 210 ;
211 [label="X[5] <= -11.5\ngini = 0.5\nsamples = 2\nvalue = [0, 1, 0, 0, 1, 0]"] ;
209 -> 211 ;
212 [label="gini = 0.0\nsamples = 1\nvalue = [0, 0, 0, 0, 1, 0]"] ;
211 -> 212 ;
213 [label="gini = 0.0\nsamples = 1\nvalue = [0, 1, 0, 0, 0, 0]"] ;
211 -> 213 ;
214 [label="X[0] <= -11.5\ngini = 0.804\nsamples = 147946\nvalue = [18754, 15276, 41773, 11628, 29843, 30672]"] ;
0 -> 214 [labeldistance=2.5, labelangle=-45, headlabel="False"] ;
215 [label="X[4] <= -0.5\ngini = 0.717\nsamples = 64582\nvalue = [6087, 2896, 27284, 3779, 18384, 6152]"] ;
214 -> 215 ;
216 [label="X[1] <= 66.5\ngini = 0.49\nsamples = 27076\nvalue = [1754, 755, 18829, 954, 3694, 1090]"] ;
215 -> 216 ;
217 [label="X[1] <= 52.5\ngini = 0.752\nsamples = 10604\nvalue = [1577, 556, 3958, 797, 2819, 897]"] ;
216 -> 217 ;
218 [label="X[3] <= 3.5\ngini = 0.819\nsamples = 4278\nvalue = [757, 420, 912, 489, 1017, 683]"] ;
217 -> 218 ;
219 [label="X[0] <= -81.0\ngini = 0.82\nsamples = 3037\nvalue = [682, 368, 685, 332, 423, 547]"] ;
218 -> 219 ;
220 [label="X[6] <= -11.5\ngini = 0.675\nsamples = 308\nvalue = [12, 25, 56, 21, 35, 159]"] ;
219 -> 220 ;
221 [label="X[4] <= -1.5\ngini = 0.538\nsamples = 169\nvalue = [3, 6, 45, 10, 0, 105]"] ;
220 -> 221 ;
222 [label="gini = 0.512\nsamples = 62\nvalue = [0, 0, 33, 1, 0, 28]"] ;
221 -> 222 ;
223 [label="X[0] <= -82.5\ngini = 0.459\nsamples = 107\nvalue = [3, 6, 12, 9, 0, 77]"] ;
221 -> 223 ;
224 [label="gini = 0.469\nsamples = 104\nvalue = [3, 6, 12, 9, 0, 74]"] ;
223 -> 224 ;
225 [label="gini = 0.0\nsamples = 3\nvalue = [0, 0, 0, 0, 0, 3]"] ;
223 -> 225 ;
226 [label="X[3] <= -53.0\ngini = 0.75\nsamples = 139\nvalue = [9, 19, 11, 11, 35, 54]"] ;
220 -> 226 ;
227 [label="X[6] <= -7.0\ngini = 0.064\nsamples = 30\nvalue = [0, 0, 0, 0, 1, 29]"] ;
226 -> 227 ;
228 [label="gini = 0.0\nsamples = 1\nvalue = [0, 0, 0, 0, 1, 0]"] ;
227 -> 228 ;
229 [label="gini = 0.0\nsamples = 29\nvalue = [0, 0, 0, 0, 0, 29]"] ;
227 -> 229 ;
230 [label="X[3] <= -41.5\ngini = 0.793\nsamples = 109\nvalue = [9, 19, 11, 11, 34, 25]"] ;
226 -> 230 ;
231 [label="gini = 0.0\nsamples = 5\nvalue = [0, 0, 5, 0, 0, 0]"] ;
230 -> 231 ;
232 [label="X[3] <= -12.0\ngini = 0.78\nsamples = 104\nvalue = [9, 19, 6, 11, 34, 25]"] ;
230 -> 232 ;
233 [label="X[2] <= -59.0\ngini = 0.338\nsamples = 15\nvalue = [1, 0, 0, 2, 12, 0]"] ;
232 -> 233 ;
234 [label="gini = 0.0\nsamples = 2\nvalue = [0, 0, 0, 2, 0, 0]"] ;
233 -> 234 ;
235 [label="gini = 0.142\nsamples = 13\nvalue = [1, 0, 0, 0, 12, 0]"] ;
233 -> 235 ;
236 [label="X[5] <= -2.5\ngini = 0.792\nsamples = 89\nvalue = [8, 19, 6, 9, 22, 25]"] ;
232 -> 236 ;
237 [label="gini = 0.784\nsamples = 38\nvalue = [4, 7, 5, 7, 2, 13]"] ;
236 -> 237 ;
238 [label="gini = 0.727\nsamples = 51\nvalue = [4, 12, 1, 2, 20, 12]"] ;
236 -> 238 ;
239 [label="X[1] <= 1.5\ngini = 0.817\nsamples = 2729\nvalue = [670, 343, 629, 311, 388, 388]"] ;
219 -> 239 ;
240 [label="X[2] <= -9.0\ngini = 0.803\nsamples = 1535\nvalue = [400, 246, 306, 130, 349, 104]"] ;
239 -> 240 ;
241 [label="X[2] <= -12.5\ngini = 0.76\nsamples = 334\nvalue = [13, 90, 35, 72, 109, 15]"] ;
240 -> 241 ;
242 [label="X[5] <= -8.5\ngini = 0.743\nsamples = 299\nvalue = [12, 90, 35, 38, 109, 15]"] ;
241 -> 242 ;
243 [label="X[4] <= -4.5\ngini = 0.056\nsamples = 35\nvalue = [1, 34, 0, 0, 0, 0]"] ;
242 -> 243 ;
244 [label="gini = 0.0\nsamples = 1\nvalue = [1, 0, 0, 0, 0, 0]"] ;
243 -> 244 ;
245 [label="gini = 0.0\nsamples = 34\nvalue = [0, 34, 0, 0, 0, 0]"] ;
243 -> 245 ;
246 [label="X[2] <= -58.5\ngini = 0.741\nsamples = 264\nvalue = [11, 56, 35, 38, 109, 15]"] ;
242 -> 246 ;
247 [label="gini = 0.511\nsamples = 67\nvalue = [3, 45, 11, 6, 1, 1]"] ;
246 -> 247 ;
248 [label="gini = 0.648\nsamples = 197\nvalue = [8, 11, 24, 32, 108, 14]"] ;
246 -> 248 ;
249 [label="X[6] <= -1.5\ngini = 0.056\nsamples = 35\nvalue = [1, 0, 0, 34, 0, 0]"] ;
241 -> 249 ;
250 [label="gini = 0.0\nsamples = 1\nvalue = [1, 0, 0, 0, 0, 0]"] ;
249 -> 250 ;
251 [label="gini = 0.0\nsamples = 34\nvalue = [0, 0, 0, 34, 0, 0]"] ;
249 -> 251 ;
252 [label="X[4] <= -9.5\ngini = 0.781\nsamples = 1201\nvalue = [387, 156, 271, 58, 240, 89]"] ;
240 -> 252 ;
253 [label="X[2] <= -6.5\ngini = 0.766\nsamples = 389\nvalue = [71, 39, 104, 29, 130, 16]"] ;
252 -> 253 ;
254 [label="X[0] <= -40.5\ngini = 0.219\nsamples = 24\nvalue = [21, 0, 0, 3, 0, 0]"] ;
253 -> 254 ;
255 [label="gini = 0.0\nsamples = 21\nvalue = [21, 0, 0, 0, 0, 0]"] ;
254 -> 255 ;
256 [label="gini = 0.0\nsamples = 3\nvalue = [0, 0, 0, 3, 0, 0]"] ;
254 -> 256 ;
257 [label="X[0] <= -22.5\ngini = 0.755\nsamples = 365\nvalue = [50, 39, 104, 26, 130, 16]"] ;
253 -> 257 ;
258 [label="gini = 0.712\nsamples = 284\nvalue = [34, 35, 71, 14, 125, 5]"] ;
257 -> 258 ;
259 [label="gini = 0.748\nsamples = 81\nvalue = [16, 4, 33, 12, 5, 11]"] ;
257 -> 259 ;
260 [label="X[5] <= 1.5\ngini = 0.758\nsamples = 812\nvalue = [316, 117, 167, 29, 110, 73]"] ;
252 -> 260 ;
261 [label="X[0] <= -79.5\ngini = 0.715\nsamples = 541\nvalue = [250, 51, 108, 21, 48, 63]"] ;
260 -> 261 ;
262 [label="gini = 0.512\nsamples = 101\nvalue = [69, 8, 9, 5, 5, 5]"] ;
261 -> 262 ;
263 [label="gini = 0.742\nsamples = 440\nvalue = [181, 43, 99, 16, 43, 58]"] ;
261 -> 263 ;
264 [label="X[3] <= -43.0\ngini = 0.779\nsamples = 271\nvalue = [66, 66, 59, 8, 62, 10]"] ;
260 -> 264 ;
265 [label="gini = 0.0\nsamples = 16\nvalue = [0, 0, 0, 0, 16, 0]"] ;
264 -> 265 ;
266 [label="gini = 0.777\nsamples = 255\nvalue = [66, 66, 59, 8, 46, 10]"] ;
264 -> 266 ;
267 [label="X[1] <= 9.5\ngini = 0.788\nsamples = 1194\nvalue = [270, 97, 323, 181, 39, 284]"] ;
239 -> 267 ;
268 [label="X[2] <= -3.5\ngini = 0.663\nsamples = 517\nvalue = [87, 9, 267, 59, 8, 87]"] ;
267 -> 268 ;
269 [label="X[3] <= -3.5\ngini = 0.568\nsamples = 424\nvalue = [77, 6, 261, 53, 0, 27]"] ;
268 -> 269 ;
270 [label="X[0] <= -40.5\ngini = 0.466\nsamples = 255\nvalue = [0, 5, 179, 44, 0, 27]"] ;
269 -> 270 ;
271 [label="gini = 0.661\nsamples = 48\nvalue = [0, 3, 7, 19, 0, 19]"] ;
270 -> 271 ;
272 [label="gini = 0.293\nsamples = 207\nvalue = [0, 2, 172, 25, 0, 8]"] ;
270 -> 272 ;
273 [label="X[1] <= 2.5\ngini = 0.554\nsamples = 169\nvalue = [77, 1, 82, 9, 0, 0]"] ;
269 -> 273 ;
274 [label="gini = 0.0\nsamples = 40\nvalue = [0, 0, 40, 0, 0, 0]"] ;
273 -> 274 ;
275 [label="gini = 0.533\nsamples = 129\nvalue = [77, 1, 42, 9, 0, 0]"] ;
273 -> 275 ;
276 [label="X[0] <= -53.0\ngini = 0.555\nsamples = 93\nvalue = [10, 3, 6, 6, 8, 60]"] ;
268 -> 276 ;
277 [label="X[4] <= -9.5\ngini = 0.604\nsamples = 15\nvalue = [2, 0, 6, 0, 7, 0]"] ;
276 -> 277 ;
278 [label="gini = 0.0\nsamples = 7\nvalue = [0, 0, 0, 0, 7, 0]"] ;
277 -> 278 ;
279 [label="gini = 0.375\nsamples = 8\nvalue = [2, 0, 6, 0, 0, 0]"] ;
277 -> 279 ;
280 [label="X[0] <= -25.5\ngini = 0.39\nsamples = 78\nvalue = [8, 3, 0, 6, 1, 60]"] ;
276 -> 280 ;
281 [label="gini = 0.153\nsamples = 61\nvalue = [4, 0, 0, 0, 1, 56]"] ;
280 -> 281 ;
282 [label="gini = 0.734\nsamples = 17\nvalue = [4, 3, 0, 6, 0, 4]"] ;
280 -> 282 ;
283 [label="X[0] <= -76.5\ngini = 0.784\nsamples = 677\nvalue = [183, 88, 56, 122, 31, 197]"] ;
267 -> 283 ;
284 [label="X[5] <= -6.0\ngini = 0.1\nsamples = 19\nvalue = [1, 0, 0, 0, 0, 18]"] ;
283 -> 284 ;
285 [label="gini = 0.0\nsamples = 1\nvalue = [1, 0, 0, 0, 0, 0]"] ;
284 -> 285 ;
286 [label="gini = 0.0\nsamples = 18\nvalue = [0, 0, 0, 0, 0, 18]"] ;
284 -> 286 ;
287 [label="X[1] <= 21.5\ngini = 0.788\nsamples = 658\nvalue = [182, 88, 56, 122, 31, 179]"] ;
283 -> 287 ;
288 [label="X[2] <= 2.5\ngini = 0.798\nsamples = 209\nvalue = [31, 52, 30, 39, 5, 52]"] ;
287 -> 288 ;
289 [label="gini = 0.783\nsamples = 164\nvalue = [24, 23, 28, 38, 1, 50]"] ;
288 -> 289 ;
290 [label="gini = 0.548\nsamples = 45\nvalue = [7, 29, 2, 1, 4, 2]"] ;
288 -> 290 ;
291 [label="X[3] <= -7.0\ngini = 0.76\nsamples = 449\nvalue = [151, 36, 26, 83, 26, 127]"] ;
287 -> 291 ;
292 [label="gini = 0.509\nsamples = 36\nvalue = [3, 0, 1, 24, 1, 7]"] ;
291 -> 292 ;
293 [label="gini = 0.752\nsamples = 413\nvalue = [148, 36, 25, 59, 25, 120]"] ;
291 -> 293 ;
294 [label="X[1] <= 43.5\ngini = 0.704\nsamples = 1241\nvalue = [75, 52, 227, 157, 594, 136]"] ;
218 -> 294 ;
295 [label="X[2] <= 0.5\ngini = 0.781\nsamples = 810\nvalue = [62, 51, 152, 134, 283, 128]"] ;
294 -> 295 ;
296 [label="X[0] <= -22.5\ngini = 0.75\nsamples = 621\nvalue = [59, 46, 143, 100, 244, 29]"] ;
295 -> 296 ;
297 [label="X[2] <= -4.5\ngini = 0.694\nsamples = 440\nvalue = [35, 23, 126, 47, 198, 11]"] ;
296 -> 297 ;
298 [label="X[3] <= 5.5\ngini = 0.309\nsamples = 68\nvalue = [2, 2, 1, 7, 56, 0]"] ;
297 -> 298 ;
299 [label="X[1] <= 37.5\ngini = 0.595\nsamples = 17\nvalue = [0, 2, 0, 7, 8, 0]"] ;
298 -> 299 ;
300 [label="gini = 0.569\nsamples = 12\nvalue = [0, 2, 0, 7, 3, 0]"] ;
299 -> 300 ;
301 [label="gini = 0.0\nsamples = 5\nvalue = [0, 0, 0, 0, 5, 0]"] ;
299 -> 301 ;
302 [label="X[0] <= -43.5\ngini = 0.112\nsamples = 51\nvalue = [2, 0, 1, 0, 48, 0]"] ;
298 -> 302 ;
303 [label="gini = 0.48\nsamples = 5\nvalue = [2, 0, 0, 0, 3, 0]"] ;
302 -> 303 ;
304 [label="gini = 0.043\nsamples = 46\nvalue = [0, 0, 1, 0, 45, 0]"] ;
302 -> 304 ;
305 [label="X[3] <= 4.5\ngini = 0.718\nsamples = 372\nvalue = [33, 21, 125, 40, 142, 11]"] ;
297 -> 305 ;
306 [label="X[1] <= 40.5\ngini = 0.783\nsamples = 223\nvalue = [30, 18, 53, 40, 71, 11]"] ;
305 -> 306 ;
307 [label="gini = 0.778\nsamples = 197\nvalue = [27, 18, 34, 37, 70, 11]"] ;
306 -> 307 ;
308 [label="gini = 0.438\nsamples = 26\nvalue = [3, 0, 19, 3, 1, 0]"] ;
306 -> 308 ;
309 [label="X[6] <= -1.5\ngini = 0.539\nsamples = 149\nvalue = [3, 3, 72, 0, 71, 0]"] ;
305 -> 309 ;
310 [label="gini = 0.255\nsamples = 40\nvalue = [0, 0, 34, 0, 6, 0]"] ;
309 -> 310 ;
311 [label="gini = 0.521\nsamples = 109\nvalue = [3, 3, 38, 0, 65, 0]"] ;
309 -> 311 ;
312 [label="X[0] <= -21.5\ngini = 0.797\nsamples = 181\nvalue = [24, 23, 17, 53, 46, 18]"] ;
296 -> 312 ;
313 [label="X[4] <= -2.5\ngini = 0.203\nsamples = 27\nvalue = [0, 0, 0, 24, 1, 2]"] ;
312 -> 313 ;
314 [label="X[5] <= -6.0\ngini = 0.444\nsamples = 3\nvalue = [0, 0, 0, 0, 1, 2]"] ;
313 -> 314 ;
315 [label="gini = 0.0\nsamples = 1\nvalue = [0, 0, 0, 0, 1, 0]"] ;
314 -> 315 ;
316 [label="gini = 0.0\nsamples = 2\nvalue = [0, 0, 0, 0, 0, 2]"] ;
314 -> 316 ;
317 [label="gini = 0.0\nsamples = 24\nvalue = [0, 0, 0, 24, 0, 0]"] ;
313 -> 317 ;
318 [label="X[4] <= -4.5\ngini = 0.81\nsamples = 154\nvalue = [24, 23, 17, 29, 45, 16]"] ;
312 -> 318 ;
319 [label="X[6] <= -2.5\ngini = 0.786\nsamples = 96\nvalue = [23, 16, 17, 27, 13, 0]"] ;
318 -> 319 ;
320 [label="gini = 0.482\nsamples = 32\nvalue = [22, 1, 3, 6, 0, 0]"] ;
319 -> 320 ;
321 [label="gini = 0.748\nsamples = 64\nvalue = [1, 15, 14, 21, 13, 0]"] ;
319 -> 321 ;
322 [label="X[3] <= 5.5\ngini = 0.603\nsamples = 58\nvalue = [1, 7, 0, 2, 32, 16]"] ;
318 -> 322 ;
323 [label="gini = 0.672\nsamples = 31\nvalue = [1, 7, 0, 2, 6, 15]"] ;
322 -> 323 ;
324 [label="gini = 0.071\nsamples = 27\nvalue = [0, 0, 0, 0, 26, 1]"] ;
322 -> 324 ;
325 [label="X[0] <= -34.5\ngini = 0.647\nsamples = 189\nvalue = [3, 5, 9, 34, 39, 99]"] ;
295 -> 325 ;
326 [label="X[2] <= 2.5\ngini = 0.685\nsamples = 68\nvalue = [2, 5, 2, 20, 31, 8]"] ;
325 -> 326 ;
327 [label="X[5] <= -1.5\ngini = 0.542\nsamples = 29\nvalue = [0, 0, 0, 18, 6, 5]"] ;
326 -> 327 ;
328 [label="X[0] <= -65.5\ngini = 0.392\nsamples = 24\nvalue = [0, 0, 0, 18, 1, 5]"] ;
327 -> 328 ;
329 [label="gini = 0.408\nsamples = 7\nvalue = [0, 0, 0, 2, 0, 5]"] ;
328 -> 329 ;
330 [label="gini = 0.111\nsamples = 17\nvalue = [0, 0, 0, 16, 1, 0]"] ;
328 -> 330 ;
331 [label="gini = 0.0\nsamples = 5\nvalue = [0, 0, 0, 0, 5, 0]"] ;
327 -> 331 ;
332 [label="X[0] <= -43.5\ngini = 0.559\nsamples = 39\nvalue = [2, 5, 2, 2, 25, 3]"] ;
326 -> 332 ;
333 [label="X[1] <= 37.5\ngini = 0.753\nsamples = 19\nvalue = [1, 5, 2, 1, 7, 3]"] ;
332 -> 333 ;
334 [label="gini = 0.64\nsamples = 10\nvalue = [1, 5, 0, 0, 1, 3]"] ;
333 -> 334 ;
335 [label="gini = 0.494\nsamples = 9\nvalue = [0, 0, 2, 1, 6, 0]"] ;
333 -> 335 ;
336 [label="X[6] <= 5.5\ngini = 0.185\nsamples = 20\nvalue = [1, 0, 0, 1, 18, 0]"] ;
332 -> 336 ;
337 [label="gini = 0.1\nsamples = 19\nvalue = [0, 0, 0, 1, 18, 0]"] ;
336 -> 337 ;
338 [label="gini = 0.0\nsamples = 1\nvalue = [1, 0, 0, 0, 0, 0]"] ;
336 -> 338 ;
339 [label="X[1] <= 40.5\ngini = 0.413\nsamples = 121\nvalue = [1, 0, 7, 14, 8, 91]"] ;
325 -> 339 ;
340 [label="X[2] <= 3.5\ngini = 0.232\nsamples = 102\nvalue = [1, 0, 4, 1, 7, 89]"] ;
339 -> 340 ;
341 [label="X[3] <= 4.5\ngini = 0.094\nsamples = 82\nvalue = [0, 0, 3, 0, 1, 78]"] ;
340 -> 341 ;
342 [label="gini = 0.0\nsamples = 74\nvalue = [0, 0, 0, 0, 0, 74]"] ;
341 -> 342 ;
343 [label="gini = 0.594\nsamples = 8\nvalue = [0, 0, 3, 0, 1, 4]"] ;
341 -> 343 ;
344 [label="X[1] <= 29.5\ngini = 0.6\nsamples = 20\nvalue = [1, 0, 1, 1, 6, 11]"] ;
340 -> 344 ;
345 [label="gini = 0.37\nsamples = 9\nvalue = [1, 0, 1, 0, 0, 7]"] ;
344 -> 345 ;
346 [label="gini = 0.562\nsamples = 11\nvalue = [0, 0, 0, 1, 6, 4]"] ;
344 -> 346 ;
347 [label="X[4] <= -4.0\ngini = 0.493\nsamples = 19\nvalue = [0, 0, 3, 13, 1, 2]"] ;
339 -> 347 ;
348 [label="X[1] <= 41.5\ngini = 0.231\nsamples = 15\nvalue = [0, 0, 0, 13, 0, 2]"] ;
347 -> 348 ;
349 [label="gini = 0.0\nsamples = 8\nvalue = [0, 0, 0, 8, 0, 0]"] ;
348 -> 349 ;
350 [label="gini = 0.408\nsamples = 7\nvalue = [0, 0, 0, 5, 0, 2]"] ;
348 -> 350 ;
351 [label="X[3] <= 22.5\ngini = 0.375\nsamples = 4\nvalue = [0, 0, 3, 0, 1, 0]"] ;
347 -> 351 ;
352 [label="gini = 0.0\nsamples = 1\nvalue = [0, 0, 0, 0, 1, 0]"] ;
351 -> 352 ;
353 [label="gini = 0.0\nsamples = 3\nvalue = [0, 0, 3, 0, 0, 0]"] ;
351 -> 353 ;
354 [label="X[0] <= -23.5\ngini = 0.445\nsamples = 431\nvalue = [13, 1, 75, 23, 311, 8]"] ;
294 -> 354 ;
355 [label="X[0] <= -33.5\ngini = 0.265\nsamples = 291\nvalue = [0, 0, 33, 10, 247, 1]"] ;
354 -> 355 ;
356 [label="X[4] <= -8.5\ngini = 0.543\nsamples = 88\nvalue = [0, 0, 30, 6, 51, 1]"] ;
355 -> 356 ;
357 [label="X[1] <= 51.5\ngini = 0.4\nsamples = 32\nvalue = [0, 0, 24, 1, 6, 1]"] ;
356 -> 357 ;
358 [label="X[1] <= 46.0\ngini = 0.34\nsamples = 30\nvalue = [0, 0, 24, 1, 4, 1]"] ;
357 -> 358 ;
359 [label="gini = 0.667\nsamples = 3\nvalue = [0, 0, 0, 1, 1, 1]"] ;
358 -> 359 ;
360 [label="gini = 0.198\nsamples = 27\nvalue = [0, 0, 24, 0, 3, 0]"] ;
358 -> 360 ;
361 [label="gini = 0.0\nsamples = 2\nvalue = [0, 0, 0, 0, 2, 0]"] ;
357 -> 361 ;
362 [label="X[0] <= -69.5\ngini = 0.335\nsamples = 56\nvalue = [0, 0, 6, 5, 45, 0]"] ;
356 -> 362 ;
363 [label="X[4] <= -4.5\ngini = 0.571\nsamples = 7\nvalue = [0, 0, 2, 4, 1, 0]"] ;
362 -> 363 ;
364 [label="gini = 0.0\nsamples = 2\nvalue = [0, 0, 2, 0, 0, 0]"] ;
363 -> 364 ;
365 [label="gini = 0.32\nsamples = 5\nvalue = [0, 0, 0, 4, 1, 0]"] ;
363 -> 365 ;
366 [label="X[2] <= -5.0\ngini = 0.187\nsamples = 49\nvalue = [0, 0, 4, 1, 44, 0]"] ;
362 -> 366 ;
367 [label="gini = 0.0\nsamples = 2\nvalue = [0, 0, 2, 0, 0, 0]"] ;
366 -> 367 ;
368 [label="gini = 0.121\nsamples = 47\nvalue = [0, 0, 2, 1, 44, 0]"] ;
366 -> 368 ;
369 [label="X[5] <= 1.5\ngini = 0.067\nsamples = 203\nvalue = [0, 0, 3, 4, 196, 0]"] ;
355 -> 369 ;
370 [label="X[3] <= 4.5\ngini = 0.02\nsamples = 194\nvalue = [0, 0, 2, 0, 192, 0]"] ;
369 -> 370 ;
371 [label="X[6] <= -0.5\ngini = 0.095\nsamples = 20\nvalue = [0, 0, 1, 0, 19, 0]"] ;
370 -> 371 ;
372 [label="gini = 0.0\nsamples = 18\nvalue = [0, 0, 0, 0, 18, 0]"] ;
371 -> 372 ;
373 [label="gini = 0.5\nsamples = 2\nvalue = [0, 0, 1, 0, 1, 0]"] ;
371 -> 373 ;
374 [label="X[4] <= -2.0\ngini = 0.011\nsamples = 174\nvalue = [0, 0, 1, 0, 173, 0]"] ;
370 -> 374 ;
375 [label="gini = 0.0\nsamples = 132\nvalue = [0, 0, 0, 0, 132, 0]"] ;
374 -> 375 ;
376 [label="gini = 0.046\nsamples = 42\nvalue = [0, 0, 1, 0, 41, 0]"] ;
374 -> 376 ;
377 [label="X[2] <= -1.0\ngini = 0.593\nsamples = 9\nvalue = [0, 0, 1, 4, 4, 0]"] ;
369 -> 377 ;
378 [label="gini = 0.0\nsamples = 4\nvalue = [0, 0, 0, 0, 4, 0]"] ;
377 -> 378 ;
379 [label="X[5] <= 4.5\ngini = 0.32\nsamples = 5\nvalue = [0, 0, 1, 4, 0, 0]"] ;
377 -> 379 ;
380 [label="gini = 0.0\nsamples = 4\nvalue = [0, 0, 0, 4, 0, 0]"] ;
379 -> 380 ;
381 [label="gini = 0.0\nsamples = 1\nvalue = [0, 0, 1, 0, 0, 0]"] ;
379 -> 381 ;
382 [label="X[2] <= -3.5\ngini = 0.681\nsamples = 140\nvalue = [13, 1, 42, 13, 64, 7]"] ;
354 -> 382 ;
383 [label="X[0] <= -21.5\ngini = 0.495\nsamples = 96\nvalue = [0, 0, 39, 0, 56, 1]"] ;
382 -> 383 ;
384 [label="X[6] <= -9.0\ngini = 0.391\nsamples = 45\nvalue = [0, 0, 33, 0, 12, 0]"] ;
383 -> 384 ;
385 [label="gini = 0.0\nsamples = 12\nvalue = [0, 0, 0, 0, 12, 0]"] ;
384 -> 385 ;
386 [label="gini = 0.0\nsamples = 33\nvalue = [0, 0, 33, 0, 0, 0]"] ;
384 -> 386 ;
387 [label="X[4] <= -9.5\ngini = 0.241\nsamples = 51\nvalue = [0, 0, 6, 0, 44, 1]"] ;
383 -> 387 ;
388 [label="X[0] <= -15.5\ngini = 0.121\nsamples = 47\nvalue = [0, 0, 2, 0, 44, 1]"] ;
387 -> 388 ;
389 [label="gini = 0.0\nsamples = 41\nvalue = [0, 0, 0, 0, 41, 0]"] ;
388 -> 389 ;
390 [label="gini = 0.611\nsamples = 6\nvalue = [0, 0, 2, 0, 3, 1]"] ;
388 -> 390 ;
391 [label="gini = 0.0\nsamples = 4\nvalue = [0, 0, 4, 0, 0, 0]"] ;
387 -> 391 ;
392 [label="X[5] <= -5.5\ngini = 0.769\nsamples = 44\nvalue = [13, 1, 3, 13, 8, 6]"] ;
382 -> 392 ;
393 [label="X[6] <= -12.5\ngini = 0.133\nsamples = 14\nvalue = [13, 0, 0, 0, 0, 1]"] ;
392 -> 393 ;
394 [label="gini = 0.0\nsamples = 1\nvalue = [0, 0, 0, 0, 0, 1]"] ;
393 -> 394 ;
395 [label="gini = 0.0\nsamples = 13\nvalue = [13, 0, 0, 0, 0, 0]"] ;
393 -> 395 ;
396 [label="X[3] <= 4.5\ngini = 0.702\nsamples = 30\nvalue = [0, 1, 3, 13, 8, 5]"] ;
392 -> 396 ;
397 [label="X[0] <= -12.5\ngini = 0.255\nsamples = 14\nvalue = [0, 0, 1, 12, 1, 0]"] ;
396 -> 397 ;
398 [label="gini = 0.142\nsamples = 13\nvalue = [0, 0, 0, 12, 1, 0]"] ;
397 -> 398 ;
399 [label="gini = 0.0\nsamples = 1\nvalue = [0, 0, 1, 0, 0, 0]"] ;
397 -> 399 ;
400 [label="X[5] <= 0.5\ngini = 0.688\nsamples = 16\nvalue = [0, 1, 2, 1, 7, 5]"] ;
396 -> 400 ;
401 [label="gini = 0.46\nsamples = 10\nvalue = [0, 0, 2, 1, 7, 0]"] ;
400 -> 401 ;
402 [label="gini = 0.278\nsamples = 6\nvalue = [0, 1, 0, 0, 0, 5]"] ;
400 -> 402 ;
403 [label="X[0] <= -52.5\ngini = 0.666\nsamples = 6326\nvalue = [820, 136, 3046, 308, 1802, 214]"] ;
217 -> 403 ;
404 [label="X[3] <= 2.5\ngini = 0.392\nsamples = 1153\nvalue = [51, 2, 884, 59, 142, 15]"] ;
403 -> 404 ;
405 [label="X[1] <= 60.5\ngini = 0.19\nsamples = 770\nvalue = [11, 2, 692, 25, 27, 13]"] ;
404 -> 405 ;
406 [label="X[2] <= 1.0\ngini = 0.67\nsamples = 137\nvalue = [11, 2, 71, 25, 15, 13]"] ;
405 -> 406 ;
407 [label="X[6] <= 1.5\ngini = 0.443\nsamples = 86\nvalue = [0, 2, 62, 7, 15, 0]"] ;
406 -> 407 ;
408 [label="X[6] <= -2.5\ngini = 0.351\nsamples = 78\nvalue = [0, 2, 62, 7, 7, 0]"] ;
407 -> 408 ;
409 [label="X[2] <= -1.5\ngini = 0.626\nsamples = 21\nvalue = [0, 0, 10, 7, 4, 0]"] ;
408 -> 409 ;
410 [label="gini = 0.592\nsamples = 13\nvalue = [0, 0, 2, 7, 4, 0]"] ;
409 -> 410 ;
411 [label="gini = 0.0\nsamples = 8\nvalue = [0, 0, 8, 0, 0, 0]"] ;
409 -> 411 ;
412 [label="X[0] <= -54.0\ngini = 0.164\nsamples = 57\nvalue = [0, 2, 52, 0, 3, 0]"] ;
408 -> 412 ;
413 [label="gini = 0.103\nsamples = 55\nvalue = [0, 0, 52, 0, 3, 0]"] ;
412 -> 413 ;
414 [label="gini = 0.0\nsamples = 2\nvalue = [0, 2, 0, 0, 0, 0]"] ;
412 -> 414 ;
415 [label="gini = 0.0\nsamples = 8\nvalue = [0, 0, 0, 0, 8, 0]"] ;
407 -> 415 ;
416 [label="X[1] <= 59.5\ngini = 0.733\nsamples = 51\nvalue = [11, 0, 9, 18, 0, 13]"] ;
406 -> 416 ;
417 [label="X[0] <= -56.0\ngini = 0.664\nsamples = 35\nvalue = [11, 0, 0, 11, 0, 13]"] ;
416 -> 417 ;
418 [label="X[6] <= 0.5\ngini = 0.595\nsamples = 26\nvalue = [11, 0, 0, 3, 0, 12]"] ;
417 -> 418 ;
419 [label="gini = 0.52\nsamples = 14\nvalue = [2, 0, 0, 3, 0, 9]"] ;
418 -> 419 ;
420 [label="gini = 0.375\nsamples = 12\nvalue = [9, 0, 0, 0, 0, 3]"] ;
418 -> 420 ;
421 [label="X[5] <= -8.5\ngini = 0.198\nsamples = 9\nvalue = [0, 0, 0, 8, 0, 1]"] ;
417 -> 421 ;
422 [label="gini = 0.0\nsamples = 1\nvalue = [0, 0, 0, 0, 0, 1]"] ;
421 -> 422 ;
423 [label="gini = 0.0\nsamples = 8\nvalue = [0, 0, 0, 8, 0, 0]"] ;
421 -> 423 ;
424 [label="X[4] <= -2.5\ngini = 0.492\nsamples = 16\nvalue = [0, 0, 9, 7, 0, 0]"] ;
416 -> 424 ;
425 [label="X[0] <= -54.5\ngini = 0.18\nsamples = 10\nvalue = [0, 0, 9, 1, 0, 0]"] ;
424 -> 425 ;
426 [label="gini = 0.0\nsamples = 9\nvalue = [0, 0, 9, 0, 0, 0]"] ;
425 -> 426 ;
427 [label="gini = 0.0\nsamples = 1\nvalue = [0, 0, 0, 1, 0, 0]"] ;
425 -> 427 ;
428 [label="gini = 0.0\nsamples = 6\nvalue = [0, 0, 0, 6, 0, 0]"] ;
424 -> 428 ;
429 [label="X[1] <= 64.0\ngini = 0.037\nsamples = 633\nvalue = [0, 0, 621, 0, 12, 0]"] ;
405 -> 429 ;
430 [label="X[5] <= -7.5\ngini = 0.006\nsamples = 623\nvalue = [0, 0, 621, 0, 2, 0]"] ;
429 -> 430 ;
431 [label="X[6] <= -11.5\ngini = 0.48\nsamples = 5\nvalue = [0, 0, 3, 0, 2, 0]"] ;
430 -> 431 ;
432 [label="gini = 0.0\nsamples = 2\nvalue = [0, 0, 0, 0, 2, 0]"] ;
431 -> 432 ;
433 [label="gini = 0.0\nsamples = 3\nvalue = [0, 0, 3, 0, 0, 0]"] ;
431 -> 433 ;
434 [label="gini = 0.0\nsamples = 618\nvalue = [0, 0, 618, 0, 0, 0]"] ;
430 -> 434 ;
435 [label="gini = 0.0\nsamples = 10\nvalue = [0, 0, 0, 0, 10, 0]"] ;
429 -> 435 ;
436 [label="X[4] <= -6.5\ngini = 0.64\nsamples = 383\nvalue = [40, 0, 192, 34, 115, 2]"] ;
404 -> 436 ;
437 [label="X[1] <= 62.5\ngini = 0.542\nsamples = 212\nvalue = [38, 0, 135, 28, 11, 0]"] ;
436 -> 437 ;
438 [label="X[6] <= 1.5\ngini = 0.389\nsamples = 179\nvalue = [36, 0, 135, 1, 7, 0]"] ;
437 -> 438 ;
439 [label="X[0] <= -71.5\ngini = 0.252\nsamples = 156\nvalue = [14, 0, 134, 1, 7, 0]"] ;
438 -> 439 ;
440 [label="gini = 0.0\nsamples = 13\nvalue = [13, 0, 0, 0, 0, 0]"] ;
439 -> 440 ;
441 [label="X[3] <= 5.5\ngini = 0.119\nsamples = 143\nvalue = [1, 0, 134, 1, 7, 0]"] ;
439 -> 441 ;
442 [label="gini = 0.107\nsamples = 142\nvalue = [0, 0, 134, 1, 7, 0]"] ;
441 -> 442 ;
443 [label="gini = 0.0\nsamples = 1\nvalue = [1, 0, 0, 0, 0, 0]"] ;
441 -> 443 ;
444 [label="X[0] <= -54.5\ngini = 0.083\nsamples = 23\nvalue = [22, 0, 1, 0, 0, 0]"] ;
438 -> 444 ;
445 [label="gini = 0.0\nsamples = 22\nvalue = [22, 0, 0, 0, 0, 0]"] ;
444 -> 445 ;
446 [label="gini = 0.0\nsamples = 1\nvalue = [0, 0, 1, 0, 0, 0]"] ;
444 -> 446 ;
447 [label="X[2] <= -1.0\ngini = 0.312\nsamples = 33\nvalue = [2, 0, 0, 27, 4, 0]"] ;
437 -> 447 ;
448 [label="gini = 0.0\nsamples = 27\nvalue = [0, 0, 0, 27, 0, 0]"] ;
447 -> 448 ;
449 [label="X[1] <= 64.0\ngini = 0.444\nsamples = 6\nvalue = [2, 0, 0, 0, 4, 0]"] ;
447 -> 449 ;
450 [label="gini = 0.0\nsamples = 4\nvalue = [0, 0, 0, 0, 4, 0]"] ;
449 -> 450 ;
451 [label="gini = 0.0\nsamples = 2\nvalue = [2, 0, 0, 0, 0, 0]"] ;
449 -> 451 ;
452 [label="X[0] <= -73.5\ngini = 0.517\nsamples = 171\nvalue = [2, 0, 57, 6, 104, 2]"] ;
436 -> 452 ;
453 [label="X[0] <= -74.5\ngini = 0.416\nsamples = 61\nvalue = [0, 0, 43, 0, 18, 0]"] ;
452 -> 453 ;
454 [label="gini = 0.0\nsamples = 18\nvalue = [0, 0, 0, 0, 18, 0]"] ;
453 -> 454 ;
455 [label="gini = 0.0\nsamples = 43\nvalue = [0, 0, 43, 0, 0, 0]"] ;
453 -> 455 ;
456 [label="X[1] <= 54.5\ngini = 0.369\nsamples = 110\nvalue = [2, 0, 14, 6, 86, 2]"] ;
452 -> 456 ;
457 [label="gini = 0.0\nsamples = 9\nvalue = [0, 0, 9, 0, 0, 0]"] ;
456 -> 457 ;
458 [label="X[2] <= 5.0\ngini = 0.268\nsamples = 101\nvalue = [2, 0, 5, 6, 86, 2]"] ;
456 -> 458 ;
459 [label="X[5] <= -7.5\ngini = 0.13\nsamples = 87\nvalue = [0, 0, 5, 1, 81, 0]"] ;
458 -> 459 ;
460 [label="gini = 0.494\nsamples = 9\nvalue = [0, 0, 5, 0, 4, 0]"] ;
459 -> 460 ;
461 [label="gini = 0.025\nsamples = 78\nvalue = [0, 0, 0, 1, 77, 0]"] ;
459 -> 461 ;
462 [label="X[1] <= 58.5\ngini = 0.704\nsamples = 14\nvalue = [2, 0, 0, 5, 5, 2]"] ;
458 -> 462 ;
463 [label="gini = 0.0\nsamples = 5\nvalue = [0, 0, 0, 5, 0, 0]"] ;
462 -> 463 ;
464 [label="gini = 0.593\nsamples = 9\nvalue = [2, 0, 0, 0, 5, 2]"] ;
462 -> 464 ;
465 [label="X[1] <= 63.5\ngini = 0.696\nsamples = 5173\nvalue = [769, 134, 2162, 249, 1660, 199]"] ;
403 -> 465 ;
466 [label="X[0] <= -32.5\ngini = 0.658\nsamples = 2392\nvalue = [87, 94, 852, 144, 1085, 130]"] ;
465 -> 466 ;
467 [label="X[4] <= -11.5\ngini = 0.513\nsamples = 1074\nvalue = [4, 23, 318, 36, 677, 16]"] ;
466 -> 467 ;
468 [label="X[5] <= -1.5\ngini = 0.365\nsamples = 133\nvalue = [0, 0, 101, 0, 32, 0]"] ;
467 -> 468 ;
469 [label="X[3] <= 3.0\ngini = 0.343\nsamples = 41\nvalue = [0, 0, 9, 0, 32, 0]"] ;
468 -> 469 ;
470 [label="X[2] <= -1.0\ngini = 0.5\nsamples = 18\nvalue = [0, 0, 9, 0, 9, 0]"] ;
469 -> 470 ;
471 [label="gini = 0.198\nsamples = 9\nvalue = [0, 0, 1, 0, 8, 0]"] ;
470 -> 471 ;
472 [label="gini = 0.198\nsamples = 9\nvalue = [0, 0, 8, 0, 1, 0]"] ;
470 -> 472 ;
473 [label="gini = 0.0\nsamples = 23\nvalue = [0, 0, 0, 0, 23, 0]"] ;
469 -> 473 ;
474 [label="gini = 0.0\nsamples = 92\nvalue = [0, 0, 92, 0, 0, 0]"] ;
468 -> 474 ;
475 [label="X[2] <= 1.0\ngini = 0.475\nsamples = 941\nvalue = [4, 23, 217, 36, 645, 16]"] ;
467 -> 475 ;
476 [label="X[6] <= 2.5\ngini = 0.507\nsamples = 253\nvalue = [0, 0, 120, 0, 131, 2]"] ;
475 -> 476 ;
477 [label="X[0] <= -48.5\ngini = 0.467\nsamples = 136\nvalue = [0, 0, 88, 0, 46, 2]"] ;
476 -> 477 ;
478 [label="gini = 0.26\nsamples = 26\nvalue = [0, 0, 4, 0, 22, 0]"] ;
477 -> 478 ;
479 [label="gini = 0.369\nsamples = 110\nvalue = [0, 0, 84, 0, 24, 2]"] ;
477 -> 479 ;
480 [label="X[2] <= -3.5\ngini = 0.397\nsamples = 117\nvalue = [0, 0, 32, 0, 85, 0]"] ;
476 -> 480 ;
481 [label="gini = 0.204\nsamples = 26\nvalue = [0, 0, 23, 0, 3, 0]"] ;
480 -> 481 ;
482 [label="gini = 0.178\nsamples = 91\nvalue = [0, 0, 9, 0, 82, 0]"] ;
480 -> 482 ;
483 [label="X[2] <= 2.5\ngini = 0.418\nsamples = 688\nvalue = [4, 23, 97, 36, 514, 14]"] ;
475 -> 483 ;
484 [label="X[5] <= 2.5\ngini = 0.238\nsamples = 458\nvalue = [0, 4, 45, 12, 397, 0]"] ;
483 -> 484 ;
485 [label="gini = 0.193\nsamples = 440\nvalue = [0, 4, 30, 12, 394, 0]"] ;
484 -> 485 ;
486 [label="gini = 0.278\nsamples = 18\nvalue = [0, 0, 15, 0, 3, 0]"] ;
484 -> 486 ;
487 [label="X[4] <= -4.5\ngini = 0.668\nsamples = 230\nvalue = [4, 19, 52, 24, 117, 14]"] ;
483 -> 487 ;
488 [label="gini = 0.756\nsamples = 150\nvalue = [0, 19, 50, 24, 43, 14]"] ;
487 -> 488 ;
489 [label="gini = 0.141\nsamples = 80\nvalue = [4, 0, 2, 0, 74, 0]"] ;
487 -> 489 ;
490 [label="X[3] <= 3.5\ngini = 0.719\nsamples = 1318\nvalue = [83, 71, 534, 108, 408, 114]"] ;
466 -> 490 ;
491 [label="X[2] <= -3.5\ngini = 0.825\nsamples = 590\nvalue = [68, 71, 125, 101, 111, 114]"] ;
490 -> 491 ;
492 [label="X[1] <= 57.5\ngini = 0.52\nsamples = 86\nvalue = [1, 1, 3, 57, 13, 11]"] ;
491 -> 492 ;
493 [label="X[5] <= -8.5\ngini = 0.414\nsamples = 16\nvalue = [0, 1, 2, 0, 12, 1]"] ;
492 -> 493 ;
494 [label="gini = 0.444\nsamples = 3\nvalue = [0, 0, 2, 0, 0, 1]"] ;
493 -> 494 ;
495 [label="gini = 0.142\nsamples = 13\nvalue = [0, 1, 0, 0, 12, 0]"] ;
493 -> 495 ;
496 [label="X[4] <= -1.5\ngini = 0.316\nsamples = 70\nvalue = [1, 0, 1, 57, 1, 10]"] ;
492 -> 496 ;
497 [label="gini = 0.124\nsamples = 61\nvalue = [0, 0, 1, 57, 0, 3]"] ;
496 -> 497 ;
498 [label="gini = 0.37\nsamples = 9\nvalue = [1, 0, 0, 0, 1, 7]"] ;
496 -> 498 ;
499 [label="X[4] <= -11.5\ngini = 0.817\nsamples = 504\nvalue = [67, 70, 122, 44, 98, 103]"] ;
491 -> 499 ;
500 [label="X[2] <= 3.0\ngini = 0.523\nsamples = 79\nvalue = [8, 5, 8, 2, 53, 3]"] ;
499 -> 500 ;
501 [label="gini = 0.437\nsamples = 72\nvalue = [6, 1, 8, 1, 53, 3]"] ;
500 -> 501 ;
502 [label="gini = 0.571\nsamples = 7\nvalue = [2, 4, 0, 1, 0, 0]"] ;
500 -> 502 ;
503 [label="X[0] <= -30.5\ngini = 0.809\nsamples = 425\nvalue = [59, 65, 114, 42, 45, 100]"] ;
499 -> 503 ;
504 [label="gini = 0.2\nsamples = 46\nvalue = [1, 3, 41, 0, 1, 0]"] ;
503 -> 504 ;
505 [label="gini = 0.817\nsamples = 379\nvalue = [58, 62, 73, 42, 44, 100]"] ;
503 -> 505 ;
506 [label="X[2] <= -2.5\ngini = 0.517\nsamples = 728\nvalue = [15, 0, 409, 7, 297, 0]"] ;
490 -> 506 ;
507 [label="X[6] <= 11.0\ngini = 0.471\nsamples = 364\nvalue = [0, 0, 131, 3, 230, 0]"] ;
506 -> 507 ;
508 [label="X[4] <= -4.5\ngini = 0.415\nsamples = 320\nvalue = [0, 0, 89, 3, 228, 0]"] ;
507 -> 508 ;
509 [label="gini = 0.35\nsamples = 292\nvalue = [0, 0, 62, 3, 227, 0]"] ;
508 -> 509 ;
510 [label="gini = 0.069\nsamples = 28\nvalue = [0, 0, 27, 0, 1, 0]"] ;
508 -> 510 ;
511 [label="X[5] <= 1.5\ngini = 0.087\nsamples = 44\nvalue = [0, 0, 42, 0, 2, 0]"] ;
507 -> 511 ;
512 [label="gini = 0.0\nsamples = 2\nvalue = [0, 0, 0, 0, 2, 0]"] ;
511 -> 512 ;
513 [label="gini = 0.0\nsamples = 42\nvalue = [0, 0, 42, 0, 0, 0]"] ;
511 -> 513 ;
514 [label="X[1] <= 61.5\ngini = 0.381\nsamples = 364\nvalue = [15, 0, 278, 4, 67, 0]"] ;
506 -> 514 ;
515 [label="X[2] <= 4.5\ngini = 0.109\nsamples = 230\nvalue = [3, 0, 217, 4, 6, 0]"] ;
514 -> 515 ;
516 [label="gini = 0.044\nsamples = 222\nvalue = [0, 0, 217, 2, 3, 0]"] ;
515 -> 516 ;
517 [label="gini = 0.656\nsamples = 8\nvalue = [3, 0, 0, 2, 3, 0]"] ;
515 -> 517 ;
518 [label="X[0] <= -21.5\ngini = 0.578\nsamples = 134\nvalue = [12, 0, 61, 0, 61, 0]"] ;
514 -> 518 ;
519 [label="gini = 0.376\nsamples = 78\nvalue = [5, 0, 60, 0, 13, 0]"] ;
518 -> 519 ;
520 [label="gini = 0.249\nsamples = 56\nvalue = [7, 0, 1, 0, 48, 0]"] ;
518 -> 520 ;
521 [label="X[1] <= 65.5\ngini = 0.673\nsamples = 2781\nvalue = [682, 40, 1310, 105, 575, 69]"] ;
465 -> 521 ;
522 [label="X[2] <= 1.0\ngini = 0.633\nsamples = 2011\nvalue = [650, 13, 1001, 87, 222, 38]"] ;
521 -> 522 ;
523 [label="X[4] <= -2.5\ngini = 0.507\nsamples = 623\nvalue = [46, 4, 413, 7, 136, 17]"] ;
522 -> 523 ;
524 [label="X[6] <= 8.5\ngini = 0.192\nsamples = 388\nvalue = [21, 1, 348, 4, 12, 2]"] ;
523 -> 524 ;
525 [label="X[3] <= 0.0\ngini = 0.114\nsamples = 370\nvalue = [6, 1, 348, 1, 12, 2]"] ;
524 -> 525 ;
526 [label="gini = 0.0\nsamples = 2\nvalue = [0, 0, 0, 0, 0, 2]"] ;
525 -> 526 ;
527 [label="gini = 0.104\nsamples = 368\nvalue = [6, 1, 348, 1, 12, 0]"] ;
525 -> 527 ;
528 [label="X[6] <= 12.5\ngini = 0.278\nsamples = 18\nvalue = [15, 0, 0, 3, 0, 0]"] ;
524 -> 528 ;
529 [label="gini = 0.0\nsamples = 15\nvalue = [15, 0, 0, 0, 0, 0]"] ;
528 -> 529 ;
530 [label="gini = 0.0\nsamples = 3\nvalue = [0, 0, 0, 3, 0, 0]"] ;
528 -> 530 ;
531 [label="X[5] <= -3.5\ngini = 0.629\nsamples = 235\nvalue = [25, 3, 65, 3, 124, 15]"] ;
523 -> 531 ;
532 [label="X[0] <= -15.5\ngini = 0.469\nsamples = 83\nvalue = [25, 0, 55, 0, 3, 0]"] ;
531 -> 532 ;
533 [label="gini = 0.0\nsamples = 24\nvalue = [24, 0, 0, 0, 0, 0]"] ;
532 -> 533 ;
534 [label="gini = 0.128\nsamples = 59\nvalue = [1, 0, 55, 0, 3, 0]"] ;
532 -> 534 ;
535 [label="X[0] <= -12.5\ngini = 0.351\nsamples = 152\nvalue = [0, 3, 10, 3, 121, 15]"] ;
531 -> 535 ;
536 [label="gini = 0.718\nsamples = 50\nvalue = [0, 3, 10, 3, 19, 15]"] ;
535 -> 536 ;
537 [label="gini = 0.0\nsamples = 102\nvalue = [0, 0, 0, 0, 102, 0]"] ;
535 -> 537 ;
538 [label="X[0] <= -33.5\ngini = 0.624\nsamples = 1388\nvalue = [604, 9, 588, 80, 86, 21]"] ;
522 -> 538 ;
539 [label="X[0] <= -44.0\ngini = 0.52\nsamples = 947\nvalue = [342, 0, 558, 0, 47, 0]"] ;
538 -> 539 ;
540 [label="X[6] <= -2.5\ngini = 0.287\nsamples = 115\nvalue = [95, 0, 0, 0, 20, 0]"] ;
539 -> 540 ;
541 [label="gini = 0.313\nsamples = 103\nvalue = [83, 0, 0, 0, 20, 0]"] ;
540 -> 541 ;
542 [label="gini = 0.0\nsamples = 12\nvalue = [12, 0, 0, 0, 0, 0]"] ;
540 -> 542 ;
543 [label="X[1] <= 64.5\ngini = 0.461\nsamples = 832\nvalue = [247, 0, 558, 0, 27, 0]"] ;
539 -> 543 ;
544 [label="gini = 0.14\nsamples = 356\nvalue = [27, 0, 329, 0, 0, 0]"] ;
543 -> 544 ;
545 [label="gini = 0.552\nsamples = 476\nvalue = [220, 0, 229, 0, 27, 0]"] ;
543 -> 545 ;
546 [label="X[4] <= -3.5\ngini = 0.599\nsamples = 441\nvalue = [262, 9, 30, 80, 39, 21]"] ;
538 -> 546 ;
547 [label="X[4] <= -8.5\ngini = 0.474\nsamples = 362\nvalue = [257, 9, 28, 9, 38, 21]"] ;
546 -> 547 ;
548 [label="gini = 0.327\nsamples = 306\nvalue = [249, 7, 16, 6, 26, 2]"] ;
547 -> 548 ;
549 [label="gini = 0.768\nsamples = 56\nvalue = [8, 2, 12, 3, 12, 19]"] ;
547 -> 549 ;
550 [label="X[2] <= 3.0\ngini = 0.187\nsamples = 79\nvalue = [5, 0, 2, 71, 1, 0]"] ;
546 -> 550 ;
551 [label="gini = 0.0\nsamples = 71\nvalue = [0, 0, 0, 71, 0, 0]"] ;
550 -> 551 ;
552 [label="gini = 0.531\nsamples = 8\nvalue = [5, 0, 2, 0, 1, 0]"] ;
550 -> 552 ;
553 [label="X[5] <= -3.5\ngini = 0.624\nsamples = 770\nvalue = [32, 27, 309, 18, 353, 31]"] ;
521 -> 553 ;
554 [label="X[5] <= -5.5\ngini = 0.352\nsamples = 422\nvalue = [20, 17, 41, 0, 336, 8]"] ;
553 -> 554 ;
555 [label="X[4] <= -3.0\ngini = 0.59\nsamples = 68\nvalue = [20, 0, 38, 0, 6, 4]"] ;
554 -> 555 ;
556 [label="X[0] <= -33.0\ngini = 0.622\nsamples = 38\nvalue = [20, 0, 11, 0, 3, 4]"] ;
555 -> 556 ;
557 [label="gini = 0.337\nsamples = 14\nvalue = [0, 0, 11, 0, 3, 0]"] ;
556 -> 557 ;
558 [label="gini = 0.278\nsamples = 24\nvalue = [20, 0, 0, 0, 0, 4]"] ;
556 -> 558 ;
559 [label="X[0] <= -22.0\ngini = 0.18\nsamples = 30\nvalue = [0, 0, 27, 0, 3, 0]"] ;
555 -> 559 ;
560 [label="gini = 0.0\nsamples = 3\nvalue = [0, 0, 0, 0, 3, 0]"] ;
559 -> 560 ;
561 [label="gini = 0.0\nsamples = 27\nvalue = [0, 0, 27, 0, 0, 0]"] ;
559 -> 561 ;
562 [label="X[6] <= -5.5\ngini = 0.128\nsamples = 354\nvalue = [0, 17, 3, 0, 330, 4]"] ;
554 -> 562 ;
563 [label="X[3] <= 3.0\ngini = 0.408\nsamples = 7\nvalue = [0, 5, 2, 0, 0, 0]"] ;
562 -> 563 ;
564 [label="gini = 0.0\nsamples = 2\nvalue = [0, 0, 2, 0, 0, 0]"] ;
563 -> 564 ;
565 [label="gini = 0.0\nsamples = 5\nvalue = [0, 5, 0, 0, 0, 0]"] ;
563 -> 565 ;
566 [label="X[4] <= -11.5\ngini = 0.094\nsamples = 347\nvalue = [0, 12, 1, 0, 330, 4]"] ;
562 -> 566 ;
567 [label="gini = 0.471\nsamples = 32\nvalue = [0, 10, 1, 0, 21, 0]"] ;
566 -> 567 ;
568 [label="gini = 0.038\nsamples = 315\nvalue = [0, 2, 0, 0, 309, 4]"] ;
566 -> 568 ;
569 [label="X[4] <= -11.5\ngini = 0.395\nsamples = 348\nvalue = [12, 10, 268, 18, 17, 23]"] ;
553 -> 569 ;
570 [label="X[0] <= -21.5\ngini = 0.293\nsamples = 28\nvalue = [0, 0, 5, 0, 0, 23]"] ;
569 -> 570 ;
571 [label="gini = 0.0\nsamples = 4\nvalue = [0, 0, 4, 0, 0, 0]"] ;
570 -> 571 ;
572 [label="X[2] <= 1.0\ngini = 0.08\nsamples = 24\nvalue = [0, 0, 1, 0, 0, 23]"] ;
570 -> 572 ;
573 [label="gini = 0.444\nsamples = 3\nvalue = [0, 0, 1, 0, 0, 2]"] ;
572 -> 573 ;
574 [label="gini = 0.0\nsamples = 21\nvalue = [0, 0, 0, 0, 0, 21]"] ;
572 -> 574 ;
575 [label="X[0] <= -26.5\ngini = 0.316\nsamples = 320\nvalue = [12, 10, 263, 18, 17, 0]"] ;
569 -> 575 ;
576 [label="X[5] <= -1.5\ngini = 0.496\nsamples = 22\nvalue = [0, 10, 0, 0, 12, 0]"] ;
575 -> 576 ;
577 [label="gini = 0.0\nsamples = 10\nvalue = [0, 10, 0, 0, 0, 0]"] ;
576 -> 577 ;
578 [label="gini = 0.0\nsamples = 12\nvalue = [0, 0, 0, 0, 12, 0]"] ;
576 -> 578 ;
579 [label="X[0] <= -13.5\ngini = 0.216\nsamples = 298\nvalue = [12, 0, 263, 18, 5, 0]"] ;
575 -> 579 ;
580 [label="gini = 0.111\nsamples = 275\nvalue = [12, 0, 259, 1, 3, 0]"] ;
579 -> 580 ;
581 [label="gini = 0.416\nsamples = 23\nvalue = [0, 0, 4, 17, 2, 0]"] ;
579 -> 581 ;
582 [label="X[2] <= -1.5\ngini = 0.182\nsamples = 16472\nvalue = [177, 199, 14871, 157, 875, 193]"] ;
216 -> 582 ;
583 [label="X[0] <= -17.5\ngini = 0.064\nsamples = 14877\nvalue = [41, 122, 14394, 50, 253, 17]"] ;
582 -> 583 ;
584 [label="X[1] <= 71.5\ngini = 0.616\nsamples = 567\nvalue = [19, 95, 328, 43, 65, 17]"] ;
583 -> 584 ;
585 [label="X[2] <= -3.5\ngini = 0.422\nsamples = 339\nvalue = [3, 13, 251, 7, 56, 9]"] ;
584 -> 585 ;
586 [label="X[1] <= 69.5\ngini = 0.536\nsamples = 40\nvalue = [3, 2, 2, 0, 26, 7]"] ;
585 -> 586 ;
587 [label="X[5] <= -3.5\ngini = 0.24\nsamples = 30\nvalue = [0, 2, 2, 0, 26, 0]"] ;
586 -> 587 ;
588 [label="X[5] <= -6.0\ngini = 0.444\nsamples = 3\nvalue = [0, 2, 1, 0, 0, 0]"] ;
587 -> 588 ;
589 [label="gini = 0.0\nsamples = 2\nvalue = [0, 2, 0, 0, 0, 0]"] ;
588 -> 589 ;
590 [label="gini = 0.0\nsamples = 1\nvalue = [0, 0, 1, 0, 0, 0]"] ;
588 -> 590 ;
591 [label="X[4] <= -8.5\ngini = 0.071\nsamples = 27\nvalue = [0, 0, 1, 0, 26, 0]"] ;
587 -> 591 ;
592 [label="gini = 0.0\nsamples = 1\nvalue = [0, 0, 1, 0, 0, 0]"] ;
591 -> 592 ;
593 [label="gini = 0.0\nsamples = 26\nvalue = [0, 0, 0, 0, 26, 0]"] ;
591 -> 593 ;
594 [label="X[1] <= 70.5\ngini = 0.42\nsamples = 10\nvalue = [3, 0, 0, 0, 0, 7]"] ;
586 -> 594 ;
595 [label="gini = 0.0\nsamples = 3\nvalue = [3, 0, 0, 0, 0, 0]"] ;
594 -> 595 ;
596 [label="gini = 0.0\nsamples = 7\nvalue = [0, 0, 0, 0, 0, 7]"] ;
594 -> 596 ;
597 [label="X[0] <= -36.5\ngini = 0.294\nsamples = 299\nvalue = [0, 11, 249, 7, 30, 2]"] ;
585 -> 597 ;
598 [label="X[3] <= 2.5\ngini = 0.605\nsamples = 55\nvalue = [0, 8, 17, 1, 29, 0]"] ;
597 -> 598 ;
599 [label="X[0] <= -56.0\ngini = 0.353\nsamples = 35\nvalue = [0, 8, 0, 0, 27, 0]"] ;
598 -> 599 ;
600 [label="gini = 0.0\nsamples = 8\nvalue = [0, 8, 0, 0, 0, 0]"] ;
599 -> 600 ;
601 [label="gini = 0.0\nsamples = 27\nvalue = [0, 0, 0, 0, 27, 0]"] ;
599 -> 601 ;
602 [label="X[0] <= -42.0\ngini = 0.265\nsamples = 20\nvalue = [0, 0, 17, 1, 2, 0]"] ;
598 -> 602 ;
603 [label="gini = 0.0\nsamples = 17\nvalue = [0, 0, 17, 0, 0, 0]"] ;
602 -> 603 ;
604 [label="X[6] <= 5.0\ngini = 0.444\nsamples = 3\nvalue = [0, 0, 0, 1, 2, 0]"] ;
602 -> 604 ;
605 [label="gini = 0.0\nsamples = 2\nvalue = [0, 0, 0, 0, 2, 0]"] ;
604 -> 605 ;
606 [label="gini = 0.0\nsamples = 1\nvalue = [0, 0, 0, 1, 0, 0]"] ;
604 -> 606 ;
607 [label="X[3] <= 3.5\ngini = 0.095\nsamples = 244\nvalue = [0, 3, 232, 6, 1, 2]"] ;
597 -> 607 ;
608 [label="X[4] <= -3.0\ngini = 0.034\nsamples = 233\nvalue = [0, 3, 229, 0, 1, 0]"] ;
607 -> 608 ;
609 [label="X[0] <= -21.5\ngini = 0.026\nsamples = 232\nvalue = [0, 3, 229, 0, 0, 0]"] ;
608 -> 609 ;
610 [label="gini = 0.0\nsamples = 125\nvalue = [0, 0, 125, 0, 0, 0]"] ;
609 -> 610 ;
611 [label="gini = 0.055\nsamples = 107\nvalue = [0, 3, 104, 0, 0, 0]"] ;
609 -> 611 ;
612 [label="gini = 0.0\nsamples = 1\nvalue = [0, 0, 0, 0, 1, 0]"] ;
608 -> 612 ;
613 [label="X[6] <= 2.0\ngini = 0.595\nsamples = 11\nvalue = [0, 0, 3, 6, 0, 2]"] ;
607 -> 613 ;
614 [label="X[1] <= 69.0\ngini = 0.48\nsamples = 5\nvalue = [0, 0, 3, 0, 0, 2]"] ;
613 -> 614 ;
615 [label="gini = 0.444\nsamples = 3\nvalue = [0, 0, 1, 0, 0, 2]"] ;
614 -> 615 ;
616 [label="gini = 0.0\nsamples = 2\nvalue = [0, 0, 2, 0, 0, 0]"] ;
614 -> 616 ;
617 [label="gini = 0.0\nsamples = 6\nvalue = [0, 0, 0, 6, 0, 0]"] ;
613 -> 617 ;
618 [label="X[5] <= -0.5\ngini = 0.724\nsamples = 228\nvalue = [16, 82, 77, 36, 9, 8]"] ;
584 -> 618 ;
619 [label="X[1] <= 72.5\ngini = 0.726\nsamples = 169\nvalue = [15, 29, 73, 36, 8, 8]"] ;
618 -> 619 ;
620 [label="X[6] <= -4.5\ngini = 0.257\nsamples = 33\nvalue = [0, 28, 5, 0, 0, 0]"] ;
619 -> 620 ;
621 [label="gini = 0.0\nsamples = 5\nvalue = [0, 0, 5, 0, 0, 0]"] ;
620 -> 621 ;
622 [label="gini = 0.0\nsamples = 28\nvalue = [0, 28, 0, 0, 0, 0]"] ;
620 -> 622 ;
623 [label="X[2] <= -3.5\ngini = 0.661\nsamples = 136\nvalue = [15, 1, 68, 36, 8, 8]"] ;
619 -> 623 ;
624 [label="X[6] <= -10.5\ngini = 0.448\nsamples = 74\nvalue = [5, 1, 54, 3, 3, 8]"] ;
623 -> 624 ;
625 [label="X[3] <= 5.0\ngini = 0.582\nsamples = 14\nvalue = [0, 0, 3, 0, 3, 8]"] ;
624 -> 625 ;
626 [label="gini = 0.5\nsamples = 6\nvalue = [0, 0, 3, 0, 3, 0]"] ;
625 -> 626 ;
627 [label="gini = 0.0\nsamples = 8\nvalue = [0, 0, 0, 0, 0, 8]"] ;
625 -> 627 ;
628 [label="X[2] <= -4.5\ngini = 0.268\nsamples = 60\nvalue = [5, 1, 51, 3, 0, 0]"] ;
624 -> 628 ;
629 [label="gini = 0.58\nsamples = 10\nvalue = [5, 1, 4, 0, 0, 0]"] ;
628 -> 629 ;
630 [label="gini = 0.113\nsamples = 50\nvalue = [0, 0, 47, 3, 0, 0]"] ;
628 -> 630 ;
631 [label="X[4] <= -10.0\ngini = 0.633\nsamples = 62\nvalue = [10, 0, 14, 33, 5, 0]"] ;
623 -> 631 ;
632 [label="X[5] <= -2.5\ngini = 0.153\nsamples = 12\nvalue = [0, 0, 11, 0, 1, 0]"] ;
631 -> 632 ;
633 [label="gini = 0.0\nsamples = 1\nvalue = [0, 0, 0, 0, 1, 0]"] ;
632 -> 633 ;
634 [label="gini = 0.0\nsamples = 11\nvalue = [0, 0, 11, 0, 0, 0]"] ;
632 -> 634 ;
635 [label="X[4] <= -4.5\ngini = 0.514\nsamples = 50\nvalue = [10, 0, 3, 33, 4, 0]"] ;
631 -> 635 ;
636 [label="gini = 0.276\nsamples = 39\nvalue = [2, 0, 2, 33, 2, 0]"] ;
635 -> 636 ;
637 [label="gini = 0.43\nsamples = 11\nvalue = [8, 0, 1, 0, 2, 0]"] ;
635 -> 637 ;
638 [label="X[6] <= 14.5\ngini = 0.188\nsamples = 59\nvalue = [1, 53, 4, 0, 1, 0]"] ;
618 -> 638 ;
639 [label="X[4] <= -11.0\ngini = 0.103\nsamples = 56\nvalue = [1, 53, 1, 0, 1, 0]"] ;
638 -> 639 ;
640 [label="gini = 0.0\nsamples = 1\nvalue = [0, 0, 1, 0, 0, 0]"] ;
639 -> 640 ;
641 [label="X[5] <= 3.5\ngini = 0.071\nsamples = 55\nvalue = [1, 53, 0, 0, 1, 0]"] ;
639 -> 641 ;
642 [label="X[2] <= -4.5\ngini = 0.036\nsamples = 54\nvalue = [0, 53, 0, 0, 1, 0]"] ;
641 -> 642 ;
643 [label="gini = 0.198\nsamples = 9\nvalue = [0, 8, 0, 0, 1, 0]"] ;
642 -> 643 ;
644 [label="gini = 0.0\nsamples = 45\nvalue = [0, 45, 0, 0, 0, 0]"] ;
642 -> 644 ;
645 [label="gini = 0.0\nsamples = 1\nvalue = [1, 0, 0, 0, 0, 0]"] ;
641 -> 645 ;
646 [label="gini = 0.0\nsamples = 3\nvalue = [0, 0, 3, 0, 0, 0]"] ;
638 -> 646 ;
647 [label="X[3] <= 3.5\ngini = 0.034\nsamples = 14310\nvalue = [22, 27, 14066, 7, 188, 0]"] ;
583 -> 647 ;
648 [label="X[3] <= 2.5\ngini = 0.026\nsamples = 14246\nvalue = [7, 12, 14056, 7, 164, 0]"] ;
647 -> 648 ;
649 [label="X[6] <= 11.5\ngini = 0.013\nsamples = 13574\nvalue = [7, 4, 13487, 7, 69, 0]"] ;
648 -> 649 ;
650 [label="X[1] <= 76.5\ngini = 0.012\nsamples = 13567\nvalue = [7, 4, 13487, 0, 69, 0]"] ;
649 -> 650 ;
651 [label="X[4] <= -1.5\ngini = 0.011\nsamples = 13562\nvalue = [7, 0, 13486, 0, 69, 0]"] ;
650 -> 651 ;
652 [label="X[1] <= 72.5\ngini = 0.003\nsamples = 12499\nvalue = [7, 0, 12479, 0, 13, 0]"] ;
651 -> 652 ;
653 [label="gini = 0.002\nsamples = 12413\nvalue = [5, 0, 12400, 0, 8, 0]"] ;
652 -> 653 ;
654 [label="gini = 0.152\nsamples = 86\nvalue = [2, 0, 79, 0, 5, 0]"] ;
652 -> 654 ;
655 [label="X[0] <= -13.5\ngini = 0.1\nsamples = 1063\nvalue = [0, 0, 1007, 0, 56, 0]"] ;
651 -> 655 ;
656 [label="gini = 0.0\nsamples = 792\nvalue = [0, 0, 792, 0, 0, 0]"] ;
655 -> 656 ;
657 [label="gini = 0.328\nsamples = 271\nvalue = [0, 0, 215, 0, 56, 0]"] ;
655 -> 657 ;
658 [label="X[5] <= -5.0\ngini = 0.32\nsamples = 5\nvalue = [0, 4, 1, 0, 0, 0]"] ;
650 -> 658 ;
659 [label="gini = 0.0\nsamples = 4\nvalue = [0, 4, 0, 0, 0, 0]"] ;
658 -> 659 ;
660 [label="gini = 0.0\nsamples = 1\nvalue = [0, 0, 1, 0, 0, 0]"] ;
658 -> 660 ;
661 [label="gini = 0.0\nsamples = 7\nvalue = [0, 0, 0, 7, 0, 0]"] ;
649 -> 661 ;
662 [label="X[0] <= -12.5\ngini = 0.263\nsamples = 672\nvalue = [0, 8, 569, 0, 95, 0]"] ;
648 -> 662 ;
663 [label="X[1] <= 74.5\ngini = 0.143\nsamples = 103\nvalue = [0, 8, 0, 0, 95, 0]"] ;
662 -> 663 ;
664 [label="gini = 0.0\nsamples = 95\nvalue = [0, 0, 0, 0, 95, 0]"] ;
663 -> 664 ;
665 [label="gini = 0.0\nsamples = 8\nvalue = [0, 8, 0, 0, 0, 0]"] ;
663 -> 665 ;
666 [label="gini = 0.0\nsamples = 569\nvalue = [0, 0, 569, 0, 0, 0]"] ;
662 -> 666 ;
667 [label="X[3] <= 5.5\ngini = 0.725\nsamples = 64\nvalue = [15, 15, 10, 0, 24, 0]"] ;
647 -> 667 ;
668 [label="X[4] <= -5.5\ngini = 0.48\nsamples = 25\nvalue = [0, 15, 10, 0, 0, 0]"] ;
667 -> 668 ;
669 [label="X[2] <= -4.5\ngini = 0.165\nsamples = 11\nvalue = [0, 1, 10, 0, 0, 0]"] ;
668 -> 669 ;
670 [label="gini = 0.0\nsamples = 1\nvalue = [0, 1, 0, 0, 0, 0]"] ;
669 -> 670 ;
671 [label="gini = 0.0\nsamples = 10\nvalue = [0, 0, 10, 0, 0, 0]"] ;
669 -> 671 ;
672 [label="gini = 0.0\nsamples = 14\nvalue = [0, 14, 0, 0, 0, 0]"] ;
668 -> 672 ;
673 [label="X[5] <= -4.0\ngini = 0.473\nsamples = 39\nvalue = [15, 0, 0, 0, 24, 0]"] ;
667 -> 673 ;
674 [label="gini = 0.0\nsamples = 24\nvalue = [0, 0, 0, 0, 24, 0]"] ;
673 -> 674 ;
675 [label="gini = 0.0\nsamples = 15\nvalue = [15, 0, 0, 0, 0, 0]"] ;
673 -> 675 ;
676 [label="X[6] <= -4.5\ngini = 0.732\nsamples = 1595\nvalue = [136, 77, 477, 107, 622, 176]"] ;
582 -> 676 ;
677 [label="X[1] <= 72.0\ngini = 0.41\nsamples = 255\nvalue = [6, 24, 15, 16, 193, 1]"] ;
676 -> 677 ;
678 [label="X[1] <= 69.5\ngini = 0.169\nsamples = 211\nvalue = [5, 1, 9, 3, 192, 1]"] ;
677 -> 678 ;
679 [label="X[0] <= -27.0\ngini = 0.626\nsamples = 21\nvalue = [0, 1, 9, 1, 9, 1]"] ;
678 -> 679 ;
680 [label="X[0] <= -53.0\ngini = 0.219\nsamples = 8\nvalue = [0, 0, 0, 1, 7, 0]"] ;
679 -> 680 ;
681 [label="gini = 0.0\nsamples = 1\nvalue = [0, 0, 0, 1, 0, 0]"] ;
680 -> 681 ;
682 [label="gini = 0.0\nsamples = 7\nvalue = [0, 0, 0, 0, 7, 0]"] ;
680 -> 682 ;
683 [label="X[6] <= -6.0\ngini = 0.485\nsamples = 13\nvalue = [0, 1, 9, 0, 2, 1]"] ;
679 -> 683 ;
684 [label="X[2] <= 3.0\ngini = 0.314\nsamples = 11\nvalue = [0, 1, 9, 0, 0, 1]"] ;
683 -> 684 ;
685 [label="gini = 0.0\nsamples = 1\nvalue = [0, 1, 0, 0, 0, 0]"] ;
684 -> 685 ;
686 [label="X[5] <= -6.5\ngini = 0.18\nsamples = 10\nvalue = [0, 0, 9, 0, 0, 1]"] ;
684 -> 686 ;
687 [label="gini = 0.0\nsamples = 1\nvalue = [0, 0, 0, 0, 0, 1]"] ;
686 -> 687 ;
688 [label="gini = 0.0\nsamples = 9\nvalue = [0, 0, 9, 0, 0, 0]"] ;
686 -> 688 ;
689 [label="gini = 0.0\nsamples = 2\nvalue = [0, 0, 0, 0, 2, 0]"] ;
683 -> 689 ;
690 [label="X[4] <= -3.0\ngini = 0.072\nsamples = 190\nvalue = [5, 0, 0, 2, 183, 0]"] ;
678 -> 690 ;
691 [label="X[4] <= -9.5\ngini = 0.021\nsamples = 185\nvalue = [0, 0, 0, 2, 183, 0]"] ;
690 -> 691 ;
692 [label="gini = 0.0\nsamples = 1\nvalue = [0, 0, 0, 1, 0, 0]"] ;
691 -> 692 ;
693 [label="X[6] <= -10.5\ngini = 0.011\nsamples = 184\nvalue = [0, 0, 0, 1, 183, 0]"] ;
691 -> 693 ;
694 [label="X[3] <= 36.0\ngini = 0.08\nsamples = 24\nvalue = [0, 0, 0, 1, 23, 0]"] ;
693 -> 694 ;
695 [label="gini = 0.0\nsamples = 1\nvalue = [0, 0, 0, 1, 0, 0]"] ;
694 -> 695 ;
696 [label="gini = 0.0\nsamples = 23\nvalue = [0, 0, 0, 0, 23, 0]"] ;
694 -> 696 ;
697 [label="gini = 0.0\nsamples = 160\nvalue = [0, 0, 0, 0, 160, 0]"] ;
693 -> 697 ;
698 [label="gini = 0.0\nsamples = 5\nvalue = [5, 0, 0, 0, 0, 0]"] ;
690 -> 698 ;
699 [label="X[0] <= -39.0\ngini = 0.62\nsamples = 44\nvalue = [1, 23, 6, 13, 1, 0]"] ;
677 -> 699 ;
700 [label="X[2] <= 0.5\ngini = 0.204\nsamples = 26\nvalue = [0, 23, 0, 3, 0, 0]"] ;
699 -> 700 ;
701 [label="gini = 0.0\nsamples = 2\nvalue = [0, 0, 0, 2, 0, 0]"] ;
700 -> 701 ;
702 [label="X[1] <= 80.0\ngini = 0.08\nsamples = 24\nvalue = [0, 23, 0, 1, 0, 0]"] ;
700 -> 702 ;
703 [label="gini = 0.0\nsamples = 23\nvalue = [0, 23, 0, 0, 0, 0]"] ;
702 -> 703 ;
704 [label="gini = 0.0\nsamples = 1\nvalue = [0, 0, 0, 1, 0, 0]"] ;
702 -> 704 ;
705 [label="X[0] <= -32.0\ngini = 0.574\nsamples = 18\nvalue = [1, 0, 6, 10, 1, 0]"] ;
699 -> 705 ;
706 [label="gini = 0.0\nsamples = 10\nvalue = [0, 0, 0, 10, 0, 0]"] ;
705 -> 706 ;
707 [label="X[1] <= 73.5\ngini = 0.406\nsamples = 8\nvalue = [1, 0, 6, 0, 1, 0]"] ;
705 -> 707 ;
708 [label="gini = 0.0\nsamples = 6\nvalue = [0, 0, 6, 0, 0, 0]"] ;
707 -> 708 ;
709 [label="X[2] <= 3.5\ngini = 0.5\nsamples = 2\nvalue = [1, 0, 0, 0, 1, 0]"] ;
707 -> 709 ;
710 [label="gini = 0.0\nsamples = 1\nvalue = [1, 0, 0, 0, 0, 0]"] ;
709 -> 710 ;
711 [label="gini = 0.0\nsamples = 1\nvalue = [0, 0, 0, 0, 1, 0]"] ;
709 -> 711 ;
712 [label="X[0] <= -26.5\ngini = 0.746\nsamples = 1340\nvalue = [130, 53, 462, 91, 429, 175]"] ;
676 -> 712 ;
713 [label="X[3] <= 2.5\ngini = 0.589\nsamples = 381\nvalue = [30, 22, 29, 59, 232, 9]"] ;
712 -> 713 ;
714 [label="X[2] <= 3.0\ngini = 0.061\nsamples = 223\nvalue = [0, 0, 4, 0, 216, 3]"] ;
713 -> 714 ;
715 [label="X[6] <= 2.5\ngini = 0.49\nsamples = 7\nvalue = [0, 0, 4, 0, 0, 3]"] ;
714 -> 715 ;
716 [label="gini = 0.0\nsamples = 3\nvalue = [0, 0, 0, 0, 0, 3]"] ;
715 -> 716 ;
717 [label="gini = 0.0\nsamples = 4\nvalue = [0, 0, 4, 0, 0, 0]"] ;
715 -> 717 ;
718 [label="gini = 0.0\nsamples = 216\nvalue = [0, 0, 0, 0, 216, 0]"] ;
714 -> 718 ;
719 [label="X[5] <= -1.5\ngini = 0.768\nsamples = 158\nvalue = [30, 22, 25, 59, 16, 6]"] ;
713 -> 719 ;
720 [label="X[1] <= 73.0\ngini = 0.481\nsamples = 62\nvalue = [0, 0, 3, 43, 10, 6]"] ;
719 -> 720 ;
721 [label="X[1] <= 70.5\ngini = 0.705\nsamples = 24\nvalue = [0, 0, 3, 6, 10, 5]"] ;
720 -> 721 ;
722 [label="X[0] <= -60.0\ngini = 0.554\nsamples = 17\nvalue = [0, 0, 2, 5, 10, 0]"] ;
721 -> 722 ;
723 [label="gini = 0.0\nsamples = 2\nvalue = [0, 0, 2, 0, 0, 0]"] ;
722 -> 723 ;
724 [label="gini = 0.444\nsamples = 15\nvalue = [0, 0, 0, 5, 10, 0]"] ;
722 -> 724 ;
725 [label="gini = 0.449\nsamples = 7\nvalue = [0, 0, 1, 1, 0, 5]"] ;
721 -> 725 ;
726 [label="X[4] <= -2.0\ngini = 0.051\nsamples = 38\nvalue = [0, 0, 0, 37, 0, 1]"] ;
720 -> 726 ;
727 [label="gini = 0.0\nsamples = 37\nvalue = [0, 0, 0, 37, 0, 0]"] ;
726 -> 727 ;
728 [label="gini = 0.0\nsamples = 1\nvalue = [0, 0, 0, 0, 0, 1]"] ;
726 -> 728 ;
729 [label="X[2] <= 3.5\ngini = 0.766\nsamples = 96\nvalue = [30, 22, 22, 16, 6, 0]"] ;
719 -> 729 ;
730 [label="X[1] <= 70.5\ngini = 0.714\nsamples = 53\nvalue = [1, 10, 21, 15, 6, 0]"] ;
729 -> 730 ;
731 [label="X[0] <= -36.5\ngini = 0.411\nsamples = 28\nvalue = [1, 0, 21, 2, 4, 0]"] ;
730 -> 731 ;
732 [label="gini = 0.226\nsamples = 24\nvalue = [1, 0, 21, 2, 0, 0]"] ;
731 -> 732 ;
733 [label="gini = 0.0\nsamples = 4\nvalue = [0, 0, 0, 0, 4, 0]"] ;
731 -> 733 ;
734 [label="X[1] <= 75.0\ngini = 0.563\nsamples = 25\nvalue = [0, 10, 0, 13, 2, 0]"] ;
730 -> 734 ;
735 [label="gini = 0.231\nsamples = 15\nvalue = [0, 0, 0, 13, 2, 0]"] ;
734 -> 735 ;
736 [label="gini = 0.0\nsamples = 10\nvalue = [0, 10, 0, 0, 0, 0]"] ;
734 -> 736 ;
737 [label="X[4] <= -6.0\ngini = 0.466\nsamples = 43\nvalue = [29, 12, 1, 1, 0, 0]"] ;
729 -> 737 ;
738 [label="X[0] <= -41.5\ngini = 0.111\nsamples = 17\nvalue = [16, 0, 1, 0, 0, 0]"] ;
737 -> 738 ;
739 [label="gini = 0.0\nsamples = 1\nvalue = [0, 0, 1, 0, 0, 0]"] ;
738 -> 739 ;
740 [label="gini = 0.0\nsamples = 16\nvalue = [16, 0, 0, 0, 0, 0]"] ;
738 -> 740 ;
741 [label="X[0] <= -41.5\ngini = 0.536\nsamples = 26\nvalue = [13, 12, 0, 1, 0, 0]"] ;
737 -> 741 ;
742 [label="gini = 0.0\nsamples = 1\nvalue = [0, 0, 0, 1, 0, 0]"] ;
741 -> 742 ;
743 [label="gini = 0.499\nsamples = 25\nvalue = [13, 12, 0, 0, 0, 0]"] ;
741 -> 743 ;
744 [label="X[3] <= 2.5\ngini = 0.711\nsamples = 959\nvalue = [100, 31, 433, 32, 197, 166]"] ;
712 -> 744 ;
745 [label="X[6] <= -1.5\ngini = 0.464\nsamples = 456\nvalue = [41, 0, 326, 8, 48, 33]"] ;
744 -> 745 ;
746 [label="X[4] <= -6.5\ngini = 0.147\nsamples = 25\nvalue = [0, 0, 0, 2, 23, 0]"] ;
745 -> 746 ;
747 [label="gini = 0.0\nsamples = 2\nvalue = [0, 0, 0, 2, 0, 0]"] ;
746 -> 747 ;
748 [label="gini = 0.0\nsamples = 23\nvalue = [0, 0, 0, 0, 23, 0]"] ;
746 -> 748 ;
749 [label="X[4] <= -11.5\ngini = 0.409\nsamples = 431\nvalue = [41, 0, 326, 6, 25, 33]"] ;
745 -> 749 ;
750 [label="X[2] <= 3.0\ngini = 0.572\nsamples = 48\nvalue = [9, 0, 11, 0, 0, 28]"] ;
749 -> 750 ;
751 [label="gini = 0.0\nsamples = 28\nvalue = [0, 0, 0, 0, 0, 28]"] ;
750 -> 751 ;
752 [label="X[0] <= -13.5\ngini = 0.495\nsamples = 20\nvalue = [9, 0, 11, 0, 0, 0]"] ;
750 -> 752 ;
753 [label="gini = 0.0\nsamples = 11\nvalue = [0, 0, 11, 0, 0, 0]"] ;
752 -> 753 ;
754 [label="gini = 0.0\nsamples = 9\nvalue = [9, 0, 0, 0, 0, 0]"] ;
752 -> 754 ;
755 [label="X[4] <= -2.5\ngini = 0.312\nsamples = 383\nvalue = [32, 0, 315, 6, 25, 5]"] ;
749 -> 755 ;
756 [label="X[0] <= -14.0\ngini = 0.238\nsamples = 358\nvalue = [25, 0, 311, 0, 17, 5]"] ;
755 -> 756 ;
757 [label="gini = 0.2\nsamples = 349\nvalue = [25, 0, 311, 0, 12, 1]"] ;
756 -> 757 ;
758 [label="gini = 0.494\nsamples = 9\nvalue = [0, 0, 0, 0, 5, 4]"] ;
756 -> 758 ;
759 [label="X[5] <= -3.0\ngini = 0.736\nsamples = 25\nvalue = [7, 0, 4, 6, 8, 0]"] ;
755 -> 759 ;
760 [label="gini = 0.651\nsamples = 17\nvalue = [7, 0, 4, 6, 0, 0]"] ;
759 -> 760 ;
761 [label="gini = 0.0\nsamples = 8\nvalue = [0, 0, 0, 0, 8, 0]"] ;
759 -> 761 ;
762 [label="X[1] <= 67.5\ngini = 0.777\nsamples = 503\nvalue = [59, 31, 107, 24, 149, 133]"] ;
744 -> 762 ;
763 [label="X[3] <= 5.5\ngini = 0.231\nsamples = 120\nvalue = [0, 16, 0, 0, 104, 0]"] ;
762 -> 763 ;
764 [label="X[2] <= 1.0\ngini = 0.019\nsamples = 105\nvalue = [0, 1, 0, 0, 104, 0]"] ;
763 -> 764 ;
765 [label="gini = 0.0\nsamples = 1\nvalue = [0, 1, 0, 0, 0, 0]"] ;
764 -> 765 ;
766 [label="gini = 0.0\nsamples = 104\nvalue = [0, 0, 0, 0, 104, 0]"] ;
764 -> 766 ;
767 [label="gini = 0.0\nsamples = 15\nvalue = [0, 15, 0, 0, 0, 0]"] ;
763 -> 767 ;
768 [label="X[6] <= -3.0\ngini = 0.758\nsamples = 383\nvalue = [59, 15, 107, 24, 45, 133]"] ;
762 -> 768 ;
769 [label="gini = 0.0\nsamples = 43\nvalue = [0, 0, 0, 0, 0, 43]"] ;
768 -> 769 ;
770 [label="X[5] <= 4.5\ngini = 0.776\nsamples = 340\nvalue = [59, 15, 107, 24, 45, 90]"] ;
768 -> 770 ;
771 [label="X[3] <= 39.0\ngini = 0.763\nsamples = 258\nvalue = [59, 13, 97, 24, 37, 28]"] ;
770 -> 771 ;
772 [label="gini = 0.749\nsamples = 229\nvalue = [32, 13, 97, 24, 35, 28]"] ;
771 -> 772 ;
773 [label="gini = 0.128\nsamples = 29\nvalue = [27, 0, 0, 0, 2, 0]"] ;
771 -> 773 ;
774 [label="X[0] <= -17.5\ngini = 0.403\nsamples = 82\nvalue = [0, 2, 10, 0, 8, 62]"] ;
770 -> 774 ;
775 [label="gini = 0.0\nsamples = 62\nvalue = [0, 0, 0, 0, 0, 62]"] ;
774 -> 775 ;
776 [label="gini = 0.58\nsamples = 20\nvalue = [0, 2, 10, 0, 8, 0]"] ;
774 -> 776 ;
777 [label="X[1] <= 68.5\ngini = 0.755\nsamples = 37506\nvalue = [4333, 2141, 8455, 2825, 14690, 5062]"] ;
215 -> 777 ;
778 [label="X[1] <= 53.5\ngini = 0.82\nsamples = 19286\nvalue = [4140, 2080, 3732, 2192, 2815, 4327]"] ;
777 -> 778 ;
779 [label="X[3] <= 3.5\ngini = 0.8\nsamples = 12150\nvalue = [3704, 1847, 1480, 1152, 1292, 2675]"] ;
778 -> 779 ;
780 [label="X[3] <= -3.5\ngini = 0.783\nsamples = 10816\nvalue = [3606, 1780, 1249, 938, 751, 2492]"] ;
779 -> 780 ;
781 [label="X[2] <= -50.5\ngini = 0.819\nsamples = 3923\nvalue = [790, 499, 743, 667, 317, 907]"] ;
780 -> 781 ;
782 [label="X[3] <= -56.5\ngini = 0.663\nsamples = 475\nvalue = [78, 15, 251, 58, 17, 56]"] ;
781 -> 782 ;
783 [label="X[0] <= -81.5\ngini = 0.669\nsamples = 156\nvalue = [77, 5, 15, 5, 13, 41]"] ;
782 -> 783 ;
784 [label="X[3] <= -65.0\ngini = 0.376\nsamples = 99\nvalue = [77, 2, 1, 0, 11, 8]"] ;
783 -> 784 ;
785 [label="X[2] <= -81.0\ngini = 0.595\nsamples = 20\nvalue = [0, 2, 1, 0, 11, 6]"] ;
784 -> 785 ;
786 [label="gini = 0.245\nsamples = 7\nvalue = [0, 1, 0, 0, 0, 6]"] ;
785 -> 786 ;
787 [label="gini = 0.272\nsamples = 13\nvalue = [0, 1, 1, 0, 11, 0]"] ;
785 -> 787 ;
788 [label="X[5] <= 5.0\ngini = 0.049\nsamples = 79\nvalue = [77, 0, 0, 0, 0, 2]"] ;
784 -> 788 ;
789 [label="gini = 0.0\nsamples = 77\nvalue = [77, 0, 0, 0, 0, 0]"] ;
788 -> 789 ;
790 [label="gini = 0.0\nsamples = 2\nvalue = [0, 0, 0, 0, 0, 2]"] ;
788 -> 790 ;
791 [label="X[3] <= -75.0\ngini = 0.593\nsamples = 57\nvalue = [0, 3, 14, 5, 2, 33]"] ;
783 -> 791 ;
792 [label="X[5] <= -4.0\ngini = 0.421\nsamples = 19\nvalue = [0, 3, 14, 0, 2, 0]"] ;
791 -> 792 ;
793 [label="gini = 0.0\nsamples = 2\nvalue = [0, 0, 0, 0, 2, 0]"] ;
792 -> 793 ;
794 [label="gini = 0.291\nsamples = 17\nvalue = [0, 3, 14, 0, 0, 0]"] ;
792 -> 794 ;
795 [label="X[4] <= 0.5\ngini = 0.229\nsamples = 38\nvalue = [0, 0, 0, 5, 0, 33]"] ;
791 -> 795 ;
796 [label="gini = 0.0\nsamples = 5\nvalue = [0, 0, 0, 5, 0, 0]"] ;
795 -> 796 ;
797 [label="gini = 0.0\nsamples = 33\nvalue = [0, 0, 0, 0, 0, 33]"] ;
795 -> 797 ;
798 [label="X[3] <= -55.5\ngini = 0.422\nsamples = 319\nvalue = [1, 10, 236, 53, 4, 15]"] ;
782 -> 798 ;
799 [label="X[0] <= -75.0\ngini = 0.122\nsamples = 200\nvalue = [0, 0, 187, 1, 0, 12]"] ;
798 -> 799 ;
800 [label="X[2] <= -76.5\ngini = 0.011\nsamples = 187\nvalue = [0, 0, 186, 0, 0, 1]"] ;
799 -> 800 ;
801 [label="gini = 0.0\nsamples = 186\nvalue = [0, 0, 186, 0, 0, 0]"] ;
800 -> 801 ;
802 [label="gini = 0.0\nsamples = 1\nvalue = [0, 0, 0, 0, 0, 1]"] ;
800 -> 802 ;
803 [label="X[4] <= 2.5\ngini = 0.272\nsamples = 13\nvalue = [0, 0, 1, 1, 0, 11]"] ;
799 -> 803 ;
804 [label="gini = 0.0\nsamples = 1\nvalue = [0, 0, 1, 0, 0, 0]"] ;
803 -> 804 ;
805 [label="gini = 0.153\nsamples = 12\nvalue = [0, 0, 0, 1, 0, 11]"] ;
803 -> 805 ;
806 [label="X[3] <= -50.5\ngini = 0.631\nsamples = 119\nvalue = [1, 10, 49, 52, 4, 3]"] ;
798 -> 806 ;
807 [label="X[0] <= -67.5\ngini = 0.229\nsamples = 53\nvalue = [0, 7, 0, 46, 0, 0]"] ;
806 -> 807 ;
808 [label="gini = 0.042\nsamples = 47\nvalue = [0, 1, 0, 46, 0, 0]"] ;
807 -> 808 ;
809 [label="gini = 0.0\nsamples = 6\nvalue = [0, 6, 0, 0, 0, 0]"] ;
807 -> 809 ;
810 [label="X[3] <= -39.0\ngini = 0.433\nsamples = 66\nvalue = [1, 3, 49, 6, 4, 3]"] ;
806 -> 810 ;
811 [label="gini = 0.079\nsamples = 49\nvalue = [0, 0, 47, 1, 1, 0]"] ;
810 -> 811 ;
812 [label="gini = 0.803\nsamples = 17\nvalue = [1, 3, 2, 5, 3, 3]"] ;
810 -> 812 ;
813 [label="X[4] <= 0.5\ngini = 0.818\nsamples = 3448\nvalue = [712, 484, 492, 609, 300, 851]"] ;
781 -> 813 ;
814 [label="X[0] <= -42.5\ngini = 0.812\nsamples = 1608\nvalue = [383, 356, 236, 232, 92, 309]"] ;
813 -> 814 ;
815 [label="X[1] <= 27.5\ngini = 0.773\nsamples = 809\nvalue = [201, 230, 28, 150, 22, 178]"] ;
814 -> 815 ;
816 [label="X[1] <= 10.5\ngini = 0.771\nsamples = 746\nvalue = [145, 228, 27, 150, 21, 175]"] ;
815 -> 816 ;
817 [label="gini = 0.766\nsamples = 427\nvalue = [84, 68, 23, 100, 9, 143]"] ;
816 -> 817 ;
818 [label="gini = 0.676\nsamples = 319\nvalue = [61, 160, 4, 50, 12, 32]"] ;
816 -> 818 ;
819 [label="X[0] <= -57.5\ngini = 0.206\nsamples = 63\nvalue = [56, 2, 1, 0, 1, 3]"] ;
815 -> 819 ;
820 [label="gini = 0.667\nsamples = 3\nvalue = [0, 0, 1, 0, 1, 1]"] ;
819 -> 820 ;
821 [label="gini = 0.127\nsamples = 60\nvalue = [56, 2, 0, 0, 0, 2]"] ;
819 -> 821 ;
822 [label="X[1] <= 10.5\ngini = 0.81\nsamples = 799\nvalue = [182, 126, 208, 82, 70, 131]"] ;
814 -> 822 ;
823 [label="X[3] <= -4.5\ngini = 0.618\nsamples = 169\nvalue = [9, 21, 97, 28, 0, 14]"] ;
822 -> 823 ;
824 [label="gini = 0.759\nsamples = 63\nvalue = [6, 10, 11, 23, 0, 13]"] ;
823 -> 824 ;
825 [label="gini = 0.328\nsamples = 106\nvalue = [3, 11, 86, 5, 0, 1]"] ;
823 -> 825 ;
826 [label="X[2] <= -3.5\ngini = 0.812\nsamples = 630\nvalue = [173, 105, 111, 54, 70, 117]"] ;
822 -> 826 ;
827 [label="gini = 0.772\nsamples = 313\nvalue = [74, 84, 89, 19, 9, 38]"] ;
826 -> 827 ;
828 [label="gini = 0.782\nsamples = 317\nvalue = [99, 21, 22, 35, 61, 79]"] ;
826 -> 828 ;
829 [label="X[2] <= -41.5\ngini = 0.802\nsamples = 1840\nvalue = [329, 128, 256, 377, 208, 542]"] ;
813 -> 829 ;
830 [label="X[0] <= -65.5\ngini = 0.346\nsamples = 66\nvalue = [4, 2, 1, 4, 53, 2]"] ;
829 -> 830 ;
831 [label="gini = 0.0\nsamples = 51\nvalue = [0, 0, 0, 0, 51, 0]"] ;
830 -> 831 ;
832 [label="X[0] <= -64.5\ngini = 0.8\nsamples = 15\nvalue = [4, 2, 1, 4, 2, 2]"] ;
830 -> 832 ;
833 [label="gini = 0.0\nsamples = 4\nvalue = [4, 0, 0, 0, 0, 0]"] ;
832 -> 833 ;
834 [label="gini = 0.76\nsamples = 11\nvalue = [0, 2, 1, 4, 2, 2]"] ;
832 -> 834 ;
835 [label="X[0] <= -18.5\ngini = 0.796\nsamples = 1774\nvalue = [325, 126, 255, 373, 155, 540]"] ;
829 -> 835 ;
836 [label="X[1] <= 10.5\ngini = 0.788\nsamples = 1387\nvalue = [297, 104, 198, 228, 105, 455]"] ;
835 -> 836 ;
837 [label="gini = 0.746\nsamples = 540\nvalue = [52, 29, 88, 100, 46, 225]"] ;
836 -> 837 ;
838 [label="gini = 0.79\nsamples = 847\nvalue = [245, 75, 110, 128, 59, 230]"] ;
836 -> 838 ;
839 [label="X[5] <= 13.0\ngini = 0.765\nsamples = 387\nvalue = [28, 22, 57, 145, 50, 85]"] ;
835 -> 839 ;
840 [label="gini = 0.749\nsamples = 363\nvalue = [27, 22, 35, 145, 50, 84]"] ;
839 -> 840 ;
841 [label="gini = 0.156\nsamples = 24\nvalue = [1, 0, 22, 0, 0, 1]"] ;
839 -> 841 ;
842 [label="X[1] <= 34.5\ngini = 0.735\nsamples = 6893\nvalue = [2816, 1281, 506, 271, 434, 1585]"] ;
780 -> 842 ;
843 [label="X[0] <= -73.5\ngini = 0.701\nsamples = 4988\nvalue = [2396, 859, 444, 149, 366, 774]"] ;
842 -> 843 ;
844 [label="X[5] <= 6.5\ngini = 0.812\nsamples = 722\nvalue = [114, 112, 113, 58, 121, 204]"] ;
843 -> 844 ;
845 [label="X[2] <= 3.5\ngini = 0.791\nsamples = 581\nvalue = [113, 109, 63, 58, 48, 190]"] ;
844 -> 845 ;
846 [label="X[1] <= 19.5\ngini = 0.78\nsamples = 508\nvalue = [112, 58, 56, 57, 45, 180]"] ;
845 -> 846 ;
847 [label="gini = 0.76\nsamples = 392\nvalue = [99, 41, 56, 10, 44, 142]"] ;
846 -> 847 ;
848 [label="gini = 0.694\nsamples = 116\nvalue = [13, 17, 0, 47, 1, 38]"] ;
846 -> 848 ;
849 [label="X[1] <= 15.5\ngini = 0.482\nsamples = 73\nvalue = [1, 51, 7, 1, 3, 10]"] ;
845 -> 849 ;
850 [label="gini = 0.542\nsamples = 12\nvalue = [1, 0, 7, 0, 0, 4]"] ;
849 -> 850 ;
851 [label="gini = 0.289\nsamples = 61\nvalue = [0, 51, 0, 1, 3, 6]"] ;
849 -> 851 ;
852 [label="X[0] <= -83.5\ngini = 0.596\nsamples = 141\nvalue = [1, 3, 50, 0, 73, 14]"] ;
844 -> 852 ;
853 [label="X[6] <= 8.5\ngini = 0.554\nsamples = 133\nvalue = [1, 1, 50, 0, 73, 8]"] ;
852 -> 853 ;
854 [label="gini = 0.484\nsamples = 80\nvalue = [1, 1, 19, 0, 54, 5]"] ;
853 -> 854 ;
855 [label="gini = 0.526\nsamples = 53\nvalue = [0, 0, 31, 0, 19, 3]"] ;
853 -> 855 ;
856 [label="X[6] <= 8.5\ngini = 0.375\nsamples = 8\nvalue = [0, 2, 0, 0, 0, 6]"] ;
852 -> 856 ;
857 [label="gini = 0.0\nsamples = 6\nvalue = [0, 0, 0, 0, 0, 6]"] ;
856 -> 857 ;
858 [label="gini = 0.0\nsamples = 2\nvalue = [0, 2, 0, 0, 0, 0]"] ;
856 -> 858 ;
859 [label="X[3] <= -1.5\ngini = 0.656\nsamples = 4266\nvalue = [2282, 747, 331, 91, 245, 570]"] ;
843 -> 859 ;
860 [label="X[1] <= 25.5\ngini = 0.748\nsamples = 1214\nvalue = [447, 210, 124, 39, 68, 326]"] ;
859 -> 860 ;
861 [label="X[1] <= 12.5\ngini = 0.698\nsamples = 915\nvalue = [412, 82, 97, 32, 39, 253]"] ;
860 -> 861 ;
862 [label="gini = 0.693\nsamples = 336\nvalue = [62, 27, 75, 9, 7, 156]"] ;
861 -> 862 ;
863 [label="gini = 0.591\nsamples = 579\nvalue = [350, 55, 22, 23, 32, 97]"] ;
861 -> 863 ;
864 [label="X[2] <= -1.0\ngini = 0.725\nsamples = 299\nvalue = [35, 128, 27, 7, 29, 73]"] ;
860 -> 864 ;
865 [label="gini = 0.618\nsamples = 211\nvalue = [24, 123, 16, 2, 22, 24]"] ;
864 -> 865 ;
866 [label="gini = 0.646\nsamples = 88\nvalue = [11, 5, 11, 5, 7, 49]"] ;
864 -> 866 ;
867 [label="X[1] <= 23.5\ngini = 0.593\nsamples = 3052\nvalue = [1835, 537, 207, 52, 177, 244]"] ;
859 -> 867 ;
868 [label="X[1] <= 5.5\ngini = 0.651\nsamples = 2444\nvalue = [1301, 527, 204, 39, 173, 200]"] ;
867 -> 868 ;
869 [label="gini = 0.584\nsamples = 1917\nvalue = [1134, 440, 158, 1, 147, 37]"] ;
868 -> 869 ;
870 [label="gini = 0.761\nsamples = 527\nvalue = [167, 87, 46, 38, 26, 163]"] ;
868 -> 870 ;
871 [label="X[2] <= 3.5\ngini = 0.223\nsamples = 608\nvalue = [534, 10, 3, 13, 4, 44]"] ;
867 -> 871 ;
872 [label="gini = 0.709\nsamples = 103\nvalue = [34, 9, 3, 12, 4, 41]"] ;
871 -> 872 ;
873 [label="gini = 0.02\nsamples = 505\nvalue = [500, 1, 0, 1, 0, 3]"] ;
871 -> 873 ;
874 [label="X[0] <= -30.5\ngini = 0.715\nsamples = 1905\nvalue = [420, 422, 62, 122, 68, 811]"] ;
842 -> 874 ;
875 [label="X[2] <= 3.5\ngini = 0.632\nsamples = 1021\nvalue = [150, 139, 40, 85, 31, 576]"] ;
874 -> 875 ;
876 [label="X[0] <= -68.5\ngini = 0.547\nsamples = 649\nvalue = [110, 43, 20, 30, 28, 418]"] ;
875 -> 876 ;
877 [label="X[1] <= 51.0\ngini = 0.428\nsamples = 192\nvalue = [11, 0, 9, 13, 16, 143]"] ;
876 -> 877 ;
878 [label="gini = 0.277\nsamples = 169\nvalue = [11, 0, 2, 8, 5, 143]"] ;
877 -> 878 ;
879 [label="gini = 0.631\nsamples = 23\nvalue = [0, 0, 7, 5, 11, 0]"] ;
877 -> 879 ;
880 [label="X[0] <= -63.5\ngini = 0.579\nsamples = 457\nvalue = [99, 43, 11, 17, 12, 275]"] ;
876 -> 880 ;
881 [label="gini = 0.559\nsamples = 107\nvalue = [61, 0, 0, 10, 1, 35]"] ;
880 -> 881 ;
882 [label="gini = 0.501\nsamples = 350\nvalue = [38, 43, 11, 7, 11, 240]"] ;
880 -> 882 ;
883 [label="X[0] <= -37.5\ngini = 0.717\nsamples = 372\nvalue = [40, 96, 20, 55, 3, 158]"] ;
875 -> 883 ;
884 [label="X[1] <= 35.5\ngini = 0.678\nsamples = 259\nvalue = [29, 36, 14, 46, 3, 131]"] ;
883 -> 884 ;
885 [label="gini = 0.407\nsamples = 30\nvalue = [7, 22, 0, 0, 0, 1]"] ;
884 -> 885 ;
886 [label="gini = 0.621\nsamples = 229\nvalue = [22, 14, 14, 46, 3, 130]"] ;
884 -> 886 ;
887 [label="X[1] <= 50.0\ngini = 0.642\nsamples = 113\nvalue = [11, 60, 6, 9, 0, 27]"] ;
883 -> 887 ;
888 [label="gini = 0.614\nsamples = 108\nvalue = [11, 60, 6, 4, 0, 27]"] ;
887 -> 888 ;
889 [label="gini = 0.0\nsamples = 5\nvalue = [0, 0, 0, 5, 0, 0]"] ;
887 -> 889 ;
890 [label="X[0] <= -23.5\ngini = 0.729\nsamples = 884\nvalue = [270, 283, 22, 37, 37, 235]"] ;
874 -> 890 ;
891 [label="X[1] <= 44.5\ngini = 0.657\nsamples = 214\nvalue = [113, 28, 1, 13, 18, 41]"] ;
890 -> 891 ;
892 [label="X[1] <= 41.5\ngini = 0.565\nsamples = 49\nvalue = [2, 19, 0, 0, 2, 26]"] ;
891 -> 892 ;
893 [label="gini = 0.44\nsamples = 36\nvalue = [0, 10, 0, 0, 1, 25]"] ;
892 -> 893 ;
894 [label="gini = 0.485\nsamples = 13\nvalue = [2, 9, 0, 0, 1, 1]"] ;
892 -> 894 ;
895 [label="X[2] <= 2.5\ngini = 0.521\nsamples = 165\nvalue = [111, 9, 1, 13, 16, 15]"] ;
891 -> 895 ;
896 [label="gini = 0.76\nsamples = 83\nvalue = [31, 8, 1, 12, 16, 15]"] ;
895 -> 896 ;
897 [label="gini = 0.048\nsamples = 82\nvalue = [80, 1, 0, 1, 0, 0]"] ;
895 -> 897 ;
898 [label="X[2] <= 3.5\ngini = 0.713\nsamples = 670\nvalue = [157, 255, 21, 24, 19, 194]"] ;
890 -> 898 ;
899 [label="X[4] <= 9.5\ngini = 0.779\nsamples = 149\nvalue = [47, 12, 13, 20, 15, 42]"] ;
898 -> 899 ;
900 [label="gini = 0.762\nsamples = 113\nvalue = [45, 8, 10, 17, 14, 19]"] ;
899 -> 900 ;
901 [label="gini = 0.562\nsamples = 36\nvalue = [2, 4, 3, 3, 1, 23]"] ;
899 -> 901 ;
902 [label="X[0] <= -14.5\ngini = 0.652\nsamples = 521\nvalue = [110, 243, 8, 4, 4, 152]"] ;
898 -> 902 ;
903 [label="gini = 0.615\nsamples = 433\nvalue = [83, 233, 4, 4, 4, 105]"] ;
902 -> 903 ;
904 [label="gini = 0.606\nsamples = 88\nvalue = [27, 10, 4, 0, 0, 47]"] ;
902 -> 904 ;
905 [label="X[1] <= 30.5\ngini = 0.753\nsamples = 1334\nvalue = [98, 67, 231, 214, 541, 183]"] ;
779 -> 905 ;
906 [label="X[4] <= 1.5\ngini = 0.797\nsamples = 509\nvalue = [32, 44, 116, 72, 99, 146]"] ;
905 -> 906 ;
907 [label="X[6] <= 3.5\ngini = 0.74\nsamples = 250\nvalue = [11, 13, 24, 40, 63, 99]"] ;
906 -> 907 ;
908 [label="X[5] <= 0.5\ngini = 0.717\nsamples = 205\nvalue = [11, 10, 24, 39, 27, 94]"] ;
907 -> 908 ;
909 [label="X[0] <= -22.0\ngini = 0.695\nsamples = 189\nvalue = [11, 10, 24, 23, 27, 94]"] ;
908 -> 909 ;
910 [label="X[2] <= 3.5\ngini = 0.781\nsamples = 132\nvalue = [11, 10, 21, 19, 24, 47]"] ;
909 -> 910 ;
911 [label="gini = 0.819\nsamples = 106\nvalue = [11, 10, 21, 19, 23, 22]"] ;
910 -> 911 ;
912 [label="gini = 0.074\nsamples = 26\nvalue = [0, 0, 0, 0, 1, 25]"] ;
910 -> 912 ;
913 [label="X[1] <= 15.0\ngini = 0.31\nsamples = 57\nvalue = [0, 0, 3, 4, 3, 47]"] ;
909 -> 913 ;
914 [label="gini = 0.0\nsamples = 3\nvalue = [0, 0, 3, 0, 0, 0]"] ;
913 -> 914 ;
915 [label="gini = 0.234\nsamples = 54\nvalue = [0, 0, 0, 4, 3, 47]"] ;
913 -> 915 ;
916 [label="gini = 0.0\nsamples = 16\nvalue = [0, 0, 0, 16, 0, 0]"] ;
908 -> 916 ;
917 [label="X[5] <= -0.5\ngini = 0.343\nsamples = 45\nvalue = [0, 3, 0, 1, 36, 5]"] ;
907 -> 917 ;
918 [label="X[3] <= 12.0\ngini = 0.059\nsamples = 33\nvalue = [0, 0, 0, 0, 32, 1]"] ;
917 -> 918 ;
919 [label="gini = 0.0\nsamples = 32\nvalue = [0, 0, 0, 0, 32, 0]"] ;
918 -> 919 ;
920 [label="gini = 0.0\nsamples = 1\nvalue = [0, 0, 0, 0, 0, 1]"] ;
918 -> 920 ;
921 [label="X[0] <= -20.5\ngini = 0.708\nsamples = 12\nvalue = [0, 3, 0, 1, 4, 4]"] ;
917 -> 921 ;
922 [label="X[5] <= 2.5\ngini = 0.594\nsamples = 8\nvalue = [0, 3, 0, 1, 0, 4]"] ;
921 -> 922 ;
923 [label="gini = 0.56\nsamples = 5\nvalue = [0, 3, 0, 1, 0, 1]"] ;
922 -> 923 ;
924 [label="gini = 0.0\nsamples = 3\nvalue = [0, 0, 0, 0, 0, 3]"] ;
922 -> 924 ;
925 [label="gini = 0.0\nsamples = 4\nvalue = [0, 0, 0, 0, 4, 0]"] ;
921 -> 925 ;
926 [label="X[3] <= 5.5\ngini = 0.785\nsamples = 259\nvalue = [21, 31, 92, 32, 36, 47]"] ;
906 -> 926 ;
927 [label="X[3] <= 4.5\ngini = 0.683\nsamples = 163\nvalue = [5, 13, 83, 24, 23, 15]"] ;
926 -> 927 ;
928 [label="X[0] <= -14.5\ngini = 0.812\nsamples = 82\nvalue = [5, 13, 19, 15, 19, 11]"] ;
927 -> 928 ;
929 [label="X[6] <= -13.0\ngini = 0.793\nsamples = 71\nvalue = [5, 13, 19, 5, 19, 10]"] ;
928 -> 929 ;
930 [label="gini = 0.34\nsamples = 10\nvalue = [1, 1, 8, 0, 0, 0]"] ;
929 -> 930 ;
931 [label="gini = 0.794\nsamples = 61\nvalue = [4, 12, 11, 5, 19, 10]"] ;
929 -> 931 ;
932 [label="X[5] <= 5.0\ngini = 0.165\nsamples = 11\nvalue = [0, 0, 0, 10, 0, 1]"] ;
928 -> 932 ;
933 [label="gini = 0.0\nsamples = 10\nvalue = [0, 0, 0, 10, 0, 0]"] ;
932 -> 933 ;
934 [label="gini = 0.0\nsamples = 1\nvalue = [0, 0, 0, 0, 0, 1]"] ;
932 -> 934 ;
935 [label="X[1] <= 20.5\ngini = 0.358\nsamples = 81\nvalue = [0, 0, 64, 9, 4, 4]"] ;
927 -> 935 ;
936 [label="X[2] <= -3.5\ngini = 0.715\nsamples = 22\nvalue = [0, 0, 8, 7, 3, 4]"] ;
935 -> 936 ;
937 [label="gini = 0.594\nsamples = 8\nvalue = [0, 0, 1, 0, 3, 4]"] ;
936 -> 937 ;
938 [label="gini = 0.5\nsamples = 14\nvalue = [0, 0, 7, 7, 0, 0]"] ;
936 -> 938 ;
939 [label="X[4] <= 6.5\ngini = 0.098\nsamples = 59\nvalue = [0, 0, 56, 2, 1, 0]"] ;
935 -> 939 ;
940 [label="gini = 0.034\nsamples = 57\nvalue = [0, 0, 56, 0, 1, 0]"] ;
939 -> 940 ;
941 [label="gini = 0.0\nsamples = 2\nvalue = [0, 0, 0, 2, 0, 0]"] ;
939 -> 941 ;
942 [label="X[5] <= 1.5\ngini = 0.792\nsamples = 96\nvalue = [16, 18, 9, 8, 13, 32]"] ;
926 -> 942 ;
943 [label="X[2] <= 2.5\ngini = 0.73\nsamples = 50\nvalue = [16, 16, 1, 1, 12, 4]"] ;
942 -> 943 ;
944 [label="X[0] <= -37.5\ngini = 0.642\nsamples = 29\nvalue = [0, 13, 1, 1, 11, 3]"] ;
943 -> 944 ;
945 [label="gini = 0.32\nsamples = 16\nvalue = [0, 13, 1, 0, 0, 2]"] ;
944 -> 945 ;
946 [label="gini = 0.272\nsamples = 13\nvalue = [0, 0, 0, 1, 11, 1]"] ;
944 -> 946 ;
947 [label="X[6] <= 2.5\ngini = 0.395\nsamples = 21\nvalue = [16, 3, 0, 0, 1, 1]"] ;
943 -> 947 ;
948 [label="gini = 0.204\nsamples = 18\nvalue = [16, 0, 0, 0, 1, 1]"] ;
947 -> 948 ;
949 [label="gini = 0.0\nsamples = 3\nvalue = [0, 3, 0, 0, 0, 0]"] ;
947 -> 949 ;
950 [label="X[0] <= -13.5\ngini = 0.574\nsamples = 46\nvalue = [0, 2, 8, 7, 1, 28]"] ;
942 -> 950 ;
951 [label="X[1] <= 25.5\ngini = 0.439\nsamples = 39\nvalue = [0, 2, 8, 0, 1, 28]"] ;
950 -> 951 ;
952 [label="gini = 0.336\nsamples = 35\nvalue = [0, 2, 5, 0, 0, 28]"] ;
951 -> 952 ;
953 [label="gini = 0.375\nsamples = 4\nvalue = [0, 0, 3, 0, 1, 0]"] ;
951 -> 953 ;
954 [label="gini = 0.0\nsamples = 7\nvalue = [0, 0, 0, 7, 0, 0]"] ;
950 -> 954 ;
955 [label="X[2] <= -2.5\ngini = 0.655\nsamples = 825\nvalue = [66, 23, 115, 142, 442, 37]"] ;
905 -> 955 ;
956 [label="X[1] <= 47.5\ngini = 0.395\nsamples = 373\nvalue = [18, 2, 47, 21, 285, 0]"] ;
955 -> 956 ;
957 [label="X[1] <= 45.5\ngini = 0.569\nsamples = 198\nvalue = [12, 2, 44, 20, 120, 0]"] ;
956 -> 957 ;
958 [label="X[6] <= -8.0\ngini = 0.502\nsamples = 176\nvalue = [12, 2, 22, 20, 120, 0]"] ;
957 -> 958 ;
959 [label="X[2] <= -5.5\ngini = 0.408\nsamples = 14\nvalue = [10, 0, 4, 0, 0, 0]"] ;
958 -> 959 ;
960 [label="gini = 0.0\nsamples = 4\nvalue = [0, 0, 4, 0, 0, 0]"] ;
959 -> 960 ;
961 [label="gini = 0.0\nsamples = 10\nvalue = [10, 0, 0, 0, 0, 0]"] ;
959 -> 961 ;
962 [label="X[3] <= 4.5\ngini = 0.423\nsamples = 162\nvalue = [2, 2, 18, 20, 120, 0]"] ;
958 -> 962 ;
963 [label="gini = 0.71\nsamples = 46\nvalue = [2, 2, 11, 14, 17, 0]"] ;
962 -> 963 ;
964 [label="gini = 0.205\nsamples = 116\nvalue = [0, 0, 7, 6, 103, 0]"] ;
962 -> 964 ;
965 [label="gini = 0.0\nsamples = 22\nvalue = [0, 0, 22, 0, 0, 0]"] ;
957 -> 965 ;
966 [label="X[1] <= 52.5\ngini = 0.11\nsamples = 175\nvalue = [6, 0, 3, 1, 165, 0]"] ;
956 -> 966 ;
967 [label="X[1] <= 49.5\ngini = 0.099\nsamples = 174\nvalue = [6, 0, 2, 1, 165, 0]"] ;
966 -> 967 ;
968 [label="X[5] <= 1.0\ngini = 0.328\nsamples = 47\nvalue = [6, 0, 2, 1, 38, 0]"] ;
967 -> 968 ;
969 [label="gini = 0.0\nsamples = 2\nvalue = [0, 0, 2, 0, 0, 0]"] ;
968 -> 969 ;
970 [label="gini = 0.269\nsamples = 45\nvalue = [6, 0, 0, 1, 38, 0]"] ;
968 -> 970 ;
971 [label="gini = 0.0\nsamples = 127\nvalue = [0, 0, 0, 0, 127, 0]"] ;
967 -> 971 ;
972 [label="gini = 0.0\nsamples = 1\nvalue = [0, 0, 1, 0, 0, 0]"] ;
966 -> 972 ;
973 [label="X[0] <= -32.5\ngini = 0.765\nsamples = 452\nvalue = [48, 21, 68, 121, 157, 37]"] ;
955 -> 973 ;
974 [label="X[5] <= 2.5\ngini = 0.585\nsamples = 199\nvalue = [2, 3, 8, 53, 115, 18]"] ;
973 -> 974 ;
975 [label="X[0] <= -78.5\ngini = 0.404\nsamples = 129\nvalue = [2, 3, 4, 6, 98, 16]"] ;
974 -> 975 ;
976 [label="X[2] <= 2.5\ngini = 0.653\nsamples = 25\nvalue = [0, 2, 1, 2, 8, 12]"] ;
975 -> 976 ;
977 [label="gini = 0.692\nsamples = 17\nvalue = [0, 2, 1, 2, 8, 4]"] ;
976 -> 977 ;
978 [label="gini = 0.0\nsamples = 8\nvalue = [0, 0, 0, 0, 0, 8]"] ;
976 -> 978 ;
979 [label="X[2] <= 32.0\ngini = 0.247\nsamples = 104\nvalue = [2, 1, 3, 4, 90, 4]"] ;
975 -> 979 ;
980 [label="gini = 0.187\nsamples = 100\nvalue = [2, 0, 3, 2, 90, 3]"] ;
979 -> 980 ;
981 [label="gini = 0.625\nsamples = 4\nvalue = [0, 1, 0, 2, 0, 1]"] ;
979 -> 981 ;
982 [label="X[1] <= 37.0\ngini = 0.486\nsamples = 70\nvalue = [0, 0, 4, 47, 17, 2]"] ;
974 -> 982 ;
983 [label="X[5] <= 7.0\ngini = 0.245\nsamples = 7\nvalue = [0, 0, 0, 0, 6, 1]"] ;
982 -> 983 ;
984 [label="gini = 0.0\nsamples = 6\nvalue = [0, 0, 0, 0, 6, 0]"] ;
983 -> 984 ;
985 [label="gini = 0.0\nsamples = 1\nvalue = [0, 0, 0, 0, 0, 1]"] ;
983 -> 985 ;
986 [label="X[6] <= 8.5\ngini = 0.409\nsamples = 63\nvalue = [0, 0, 4, 47, 11, 1]"] ;
982 -> 986 ;
987 [label="gini = 0.27\nsamples = 53\nvalue = [0, 0, 3, 45, 4, 1]"] ;
986 -> 987 ;
988 [label="gini = 0.46\nsamples = 10\nvalue = [0, 0, 1, 2, 7, 0]"] ;
986 -> 988 ;
989 [label="X[0] <= -28.5\ngini = 0.8\nsamples = 253\nvalue = [46, 18, 60, 68, 42, 19]"] ;
973 -> 989 ;
990 [label="X[4] <= 2.0\ngini = 0.437\nsamples = 44\nvalue = [32, 4, 0, 7, 1, 0]"] ;
989 -> 990 ;
991 [label="X[3] <= 42.0\ngini = 0.346\nsamples = 9\nvalue = [0, 2, 0, 7, 0, 0]"] ;
990 -> 991 ;
992 [label="gini = 0.0\nsamples = 7\nvalue = [0, 0, 0, 7, 0, 0]"] ;
991 -> 992 ;
993 [label="gini = 0.0\nsamples = 2\nvalue = [0, 2, 0, 0, 0, 0]"] ;
991 -> 993 ;
994 [label="X[1] <= 31.5\ngini = 0.16\nsamples = 35\nvalue = [32, 2, 0, 0, 1, 0]"] ;
990 -> 994 ;
995 [label="gini = 0.0\nsamples = 2\nvalue = [0, 2, 0, 0, 0, 0]"] ;
994 -> 995 ;
996 [label="gini = 0.059\nsamples = 33\nvalue = [32, 0, 0, 0, 1, 0]"] ;
994 -> 996 ;
997 [label="X[2] <= 63.0\ngini = 0.777\nsamples = 209\nvalue = [14, 14, 60, 61, 41, 19]"] ;
989 -> 997 ;
998 [label="X[1] <= 49.5\ngini = 0.78\nsamples = 189\nvalue = [14, 14, 42, 61, 41, 17]"] ;
997 -> 998 ;
999 [label="gini = 0.726\nsamples = 132\nvalue = [11, 5, 13, 58, 29, 16]"] ;
998 -> 999 ;
1000 [label="gini = 0.666\nsamples = 57\nvalue = [3, 9, 29, 3, 12, 1]"] ;
998 -> 1000 ;
1001 [label="X[1] <= 36.0\ngini = 0.18\nsamples = 20\nvalue = [0, 0, 18, 0, 0, 2]"] ;
997 -> 1001 ;
1002 [label="gini = 0.0\nsamples = 2\nvalue = [0, 0, 0, 0, 0, 2]"] ;
1001 -> 1002 ;
1003 [label="gini = 0.0\nsamples = 18\nvalue = [0, 0, 18, 0, 0, 0]"] ;
1001 -> 1003 ;
1004 [label="X[2] <= -0.5\ngini = 0.775\nsamples = 7136\nvalue = [436, 233, 2252, 1040, 1523, 1652]"] ;
778 -> 1004 ;
1005 [label="X[1] <= 66.5\ngini = 0.561\nsamples = 2705\nvalue = [48, 150, 1691, 141, 536, 139]"] ;
1004 -> 1005 ;
1006 [label="X[6] <= 3.5\ngini = 0.746\nsamples = 1315\nvalue = [47, 145, 445, 114, 433, 131]"] ;
1005 -> 1006 ;
1007 [label="X[3] <= 0.0\ngini = 0.684\nsamples = 857\nvalue = [46, 81, 409, 38, 228, 55]"] ;
1006 -> 1007 ;
1008 [label="X[4] <= 0.5\ngini = 0.781\nsamples = 147\nvalue = [23, 15, 0, 33, 36, 40]"] ;
1007 -> 1008 ;
1009 [label="X[3] <= -4.5\ngini = 0.463\nsamples = 52\nvalue = [1, 0, 0, 15, 1, 35]"] ;
1008 -> 1009 ;
1010 [label="X[2] <= -4.0\ngini = 0.285\nsamples = 42\nvalue = [0, 0, 0, 6, 1, 35]"] ;
1009 -> 1010 ;
1011 [label="gini = 0.539\nsamples = 16\nvalue = [0, 0, 0, 6, 1, 9]"] ;
1010 -> 1011 ;
1012 [label="gini = 0.0\nsamples = 26\nvalue = [0, 0, 0, 0, 0, 26]"] ;
1010 -> 1012 ;
1013 [label="X[0] <= -31.5\ngini = 0.18\nsamples = 10\nvalue = [1, 0, 0, 9, 0, 0]"] ;
1009 -> 1013 ;
1014 [label="gini = 0.0\nsamples = 1\nvalue = [1, 0, 0, 0, 0, 0]"] ;
1013 -> 1014 ;
1015 [label="gini = 0.0\nsamples = 9\nvalue = [0, 0, 0, 9, 0, 0]"] ;
1013 -> 1015 ;
1016 [label="X[0] <= -21.5\ngini = 0.747\nsamples = 95\nvalue = [22, 15, 0, 18, 35, 5]"] ;
1008 -> 1016 ;
1017 [label="X[2] <= -3.5\ngini = 0.516\nsamples = 46\nvalue = [5, 5, 0, 2, 31, 3]"] ;
1016 -> 1017 ;
1018 [label="gini = 0.245\nsamples = 36\nvalue = [4, 0, 0, 1, 31, 0]"] ;
1017 -> 1018 ;
1019 [label="gini = 0.64\nsamples = 10\nvalue = [1, 5, 0, 1, 0, 3]"] ;
1017 -> 1019 ;
1020 [label="X[0] <= -17.0\ngini = 0.723\nsamples = 49\nvalue = [17, 10, 0, 16, 4, 2]"] ;
1016 -> 1020 ;
1021 [label="gini = 0.656\nsamples = 30\nvalue = [14, 10, 0, 1, 3, 2]"] ;
1020 -> 1021 ;
1022 [label="gini = 0.349\nsamples = 19\nvalue = [3, 0, 0, 15, 1, 0]"] ;
1020 -> 1022 ;
1023 [label="X[1] <= 59.5\ngini = 0.585\nsamples = 710\nvalue = [23, 66, 409, 5, 192, 15]"] ;
1007 -> 1023 ;
1024 [label="X[0] <= -19.5\ngini = 0.449\nsamples = 372\nvalue = [18, 65, 267, 0, 20, 2]"] ;
1023 -> 1024 ;
1025 [label="X[0] <= -36.5\ngini = 0.227\nsamples = 291\nvalue = [5, 12, 255, 0, 17, 2]"] ;
1024 -> 1025 ;
1026 [label="gini = 0.598\nsamples = 48\nvalue = [2, 2, 25, 0, 17, 2]"] ;
1025 -> 1026 ;
1027 [label="gini = 0.102\nsamples = 243\nvalue = [3, 10, 230, 0, 0, 0]"] ;
1025 -> 1027 ;
1028 [label="X[6] <= -11.0\ngini = 0.523\nsamples = 81\nvalue = [13, 53, 12, 0, 3, 0]"] ;
1024 -> 1028 ;
1029 [label="gini = 0.533\nsamples = 17\nvalue = [11, 2, 1, 0, 3, 0]"] ;
1028 -> 1029 ;
1030 [label="gini = 0.334\nsamples = 64\nvalue = [2, 51, 11, 0, 0, 0]"] ;
1028 -> 1030 ;
1031 [label="X[1] <= 61.5\ngini = 0.563\nsamples = 338\nvalue = [5, 1, 142, 5, 172, 13]"] ;
1023 -> 1031 ;
1032 [label="X[5] <= -0.5\ngini = 0.099\nsamples = 96\nvalue = [0, 0, 5, 0, 91, 0]"] ;
1031 -> 1032 ;
1033 [label="gini = 0.415\nsamples = 17\nvalue = [0, 0, 5, 0, 12, 0]"] ;
1032 -> 1033 ;
1034 [label="gini = 0.0\nsamples = 79\nvalue = [0, 0, 0, 0, 79, 0]"] ;
1032 -> 1034 ;
1035 [label="X[1] <= 65.5\ngini = 0.564\nsamples = 242\nvalue = [5, 1, 137, 5, 81, 13]"] ;
1031 -> 1035 ;
1036 [label="gini = 0.312\nsamples = 166\nvalue = [5, 0, 136, 5, 20, 0]"] ;
1035 -> 1036 ;
1037 [label="gini = 0.326\nsamples = 76\nvalue = [0, 1, 1, 0, 61, 13]"] ;
1035 -> 1037 ;
1038 [label="X[0] <= -14.5\ngini = 0.719\nsamples = 458\nvalue = [1, 64, 36, 76, 205, 76]"] ;
1006 -> 1038 ;
1039 [label="X[2] <= -4.5\ngini = 0.556\nsamples = 313\nvalue = [1, 11, 28, 70, 194, 9]"] ;
1038 -> 1039 ;
1040 [label="X[6] <= 10.5\ngini = 0.229\nsamples = 40\nvalue = [0, 2, 2, 35, 1, 0]"] ;
1039 -> 1040 ;
1041 [label="X[6] <= 7.5\ngini = 0.735\nsamples = 7\nvalue = [0, 2, 2, 2, 1, 0]"] ;
1040 -> 1041 ;
1042 [label="gini = 0.0\nsamples = 2\nvalue = [0, 0, 0, 2, 0, 0]"] ;
1041 -> 1042 ;
1043 [label="gini = 0.64\nsamples = 5\nvalue = [0, 2, 2, 0, 1, 0]"] ;
1041 -> 1043 ;
1044 [label="gini = 0.0\nsamples = 33\nvalue = [0, 0, 0, 33, 0, 0]"] ;
1040 -> 1044 ;
1045 [label="X[5] <= 6.5\ngini = 0.473\nsamples = 273\nvalue = [1, 9, 26, 35, 193, 9]"] ;
1039 -> 1045 ;
1046 [label="X[1] <= 63.5\ngini = 0.724\nsamples = 103\nvalue = [1, 6, 22, 35, 34, 5]"] ;
1045 -> 1046 ;
1047 [label="gini = 0.626\nsamples = 59\nvalue = [1, 6, 17, 0, 31, 4]"] ;
1046 -> 1047 ;
1048 [label="gini = 0.349\nsamples = 44\nvalue = [0, 0, 5, 35, 3, 1]"] ;
1046 -> 1048 ;
1049 [label="X[1] <= 65.5\ngini = 0.124\nsamples = 170\nvalue = [0, 3, 4, 0, 159, 4]"] ;
1045 -> 1049 ;
1050 [label="gini = 0.048\nsamples = 163\nvalue = [0, 3, 1, 0, 159, 0]"] ;
1049 -> 1050 ;
1051 [label="gini = 0.49\nsamples = 7\nvalue = [0, 0, 3, 0, 0, 4]"] ;
1049 -> 1051 ;
1052 [label="X[3] <= -3.0\ngini = 0.642\nsamples = 145\nvalue = [0, 53, 8, 6, 11, 67]"] ;
1038 -> 1052 ;
1053 [label="X[1] <= 65.5\ngini = 0.482\nsamples = 76\nvalue = [0, 53, 8, 6, 9, 0]"] ;
1052 -> 1053 ;
1054 [label="X[3] <= -4.5\ngini = 0.682\nsamples = 22\nvalue = [0, 1, 6, 6, 9, 0]"] ;
1053 -> 1054 ;
1055 [label="gini = 0.568\nsamples = 13\nvalue = [0, 1, 6, 6, 0, 0]"] ;
1054 -> 1055 ;
1056 [label="gini = 0.0\nsamples = 9\nvalue = [0, 0, 0, 0, 9, 0]"] ;
1054 -> 1056 ;
1057 [label="X[3] <= -4.5\ngini = 0.071\nsamples = 54\nvalue = [0, 52, 2, 0, 0, 0]"] ;
1053 -> 1057 ;
1058 [label="gini = 0.0\nsamples = 52\nvalue = [0, 52, 0, 0, 0, 0]"] ;
1057 -> 1058 ;
1059 [label="gini = 0.0\nsamples = 2\nvalue = [0, 0, 2, 0, 0, 0]"] ;
1057 -> 1059 ;
1060 [label="X[6] <= 4.5\ngini = 0.056\nsamples = 69\nvalue = [0, 0, 0, 0, 2, 67]"] ;
1052 -> 1060 ;
1061 [label="gini = 0.48\nsamples = 5\nvalue = [0, 0, 0, 0, 2, 3]"] ;
1060 -> 1061 ;
1062 [label="gini = 0.0\nsamples = 64\nvalue = [0, 0, 0, 0, 0, 64]"] ;
1060 -> 1062 ;
1063 [label="X[2] <= -3.5\ngini = 0.191\nsamples = 1390\nvalue = [1, 5, 1246, 27, 103, 8]"] ;
1005 -> 1063 ;
1064 [label="X[0] <= -26.0\ngini = 0.036\nsamples = 1268\nvalue = [1, 0, 1245, 0, 17, 5]"] ;
1063 -> 1064 ;
1065 [label="X[2] <= -4.5\ngini = 0.278\nsamples = 6\nvalue = [1, 0, 0, 0, 0, 5]"] ;
1064 -> 1065 ;
1066 [label="gini = 0.0\nsamples = 5\nvalue = [0, 0, 0, 0, 0, 5]"] ;
1065 -> 1066 ;
1067 [label="gini = 0.0\nsamples = 1\nvalue = [1, 0, 0, 0, 0, 0]"] ;
1065 -> 1067 ;
1068 [label="X[1] <= 67.5\ngini = 0.027\nsamples = 1262\nvalue = [0, 0, 1245, 0, 17, 0]"] ;
1064 -> 1068 ;
1069 [label="X[0] <= -12.5\ngini = 0.011\nsamples = 1231\nvalue = [0, 0, 1224, 0, 7, 0]"] ;
1068 -> 1069 ;
1070 [label="X[4] <= 6.5\ngini = 0.002\nsamples = 1225\nvalue = [0, 0, 1224, 0, 1, 0]"] ;
1069 -> 1070 ;
1071 [label="gini = 0.0\nsamples = 1224\nvalue = [0, 0, 1224, 0, 0, 0]"] ;
1070 -> 1071 ;
1072 [label="gini = 0.0\nsamples = 1\nvalue = [0, 0, 0, 0, 1, 0]"] ;
1070 -> 1072 ;
1073 [label="gini = 0.0\nsamples = 6\nvalue = [0, 0, 0, 0, 6, 0]"] ;
1069 -> 1073 ;
1074 [label="X[3] <= -1.5\ngini = 0.437\nsamples = 31\nvalue = [0, 0, 21, 0, 10, 0]"] ;
1068 -> 1074 ;
1075 [label="gini = 0.0\nsamples = 21\nvalue = [0, 0, 21, 0, 0, 0]"] ;
1074 -> 1075 ;
1076 [label="gini = 0.0\nsamples = 10\nvalue = [0, 0, 0, 0, 10, 0]"] ;
1074 -> 1076 ;
