digraph Tree {
node [shape=box] ;
0 [label="X[0] <= -11.5\ngini = 0.797\nsamples = 160000\nvalue = [20791, 15123, 44849, 11286, 40248, 27703]"] ;
1 [label="X[1] <= 68.5\ngini = 0.68\nsamples = 76472\nvalue = [5659, 2749, 29573, 3220, 30413, 4858]"] ;
0 -> 1 [labeldistance=2.5, labelangle=45, headlabel="True"] ;
2 [label="X[0] <= -14.5\ngini = 0.678\nsamples = 39632\nvalue = [5200, 2153, 20563, 2084, 5420, 4212]"] ;
1 -> 2 ;
3 [label="X[1] <= 53.5\ngini = 0.8\nsamples = 24847\nvalue = [4739, 2024, 7111, 1808, 5253, 3912]"] ;
2 -> 3 ;
4 [label="X[3] <= 3.5\ngini = 0.802\nsamples = 12344\nvalue = [3603, 1636, 1986, 997, 1324, 2798]"] ;
3 -> 4 ;
5 [label="X[0] <= -80.5\ngini = 0.781\nsamples = 10751\nvalue = [3507, 1561, 1379, 896, 683, 2725]"] ;
4 -> 5 ;
6 [label="X[4] <= -0.5\ngini = 0.729\nsamples = 1638\nvalue = [214, 59, 439, 107, 146, 673]"] ;
5 -> 6 ;
7 [label="X[6] <= 3.5\ngini = 0.211\nsamples = 545\nvalue = [6, 5, 12, 21, 18, 483]"] ;
6 -> 7 ;
8 [label="X[2] <= -80.5\ngini = 0.158\nsamples = 527\nvalue = [6, 5, 12, 21, 0, 483]"] ;
7 -> 8 ;
9 [label="gini = 0.0\nsamples = 7\nvalue = [0, 0, 7, 0, 0, 0]"] ;
8 -> 9 ;
10 [label="X[3] <= -59.5\ngini = 0.135\nsamples = 520\nvalue = [6, 5, 5, 21, 0, 483]"] ;
8 -> 10 ;
11 [label="X[3] <= -64.5\ngini = 0.444\nsamples = 6\nvalue = [0, 0, 2, 4, 0, 0]"] ;
10 -> 11 ;
12 [label="gini = 0.0\nsamples = 2\nvalue = [0, 0, 2, 0, 0, 0]"] ;
11 -> 12 ;
13 [label="gini = 0.0\nsamples = 4\nvalue = [0, 0, 0, 4, 0, 0]"] ;
11 -> 13 ;
14 [label="X[5] <= -8.0\ngini = 0.116\nsamples = 514\nvalue = [6, 5, 3, 17, 0, 483]"] ;
10 -> 14 ;
15 [label="gini = 0.0\nsamples = 3\nvalue = [3, 0, 0, 0, 0, 0]"] ;
14 -> 15 ;
16 [label="X[5] <= -5.5\ngini = 0.105\nsamples = 511\nvalue = [3, 5, 3, 17, 0, 483]"] ;
14 -> 16 ;
17 [label="gini = 0.023\nsamples = 350\nvalue = [0, 0, 0, 4, 0, 346]"] ;
16 -> 17 ;
18 [label="gini = 0.268\nsamples = 161\nvalue = [3, 5, 3, 13, 0, 137]"] ;
16 -> 18 ;
19 [label="gini = 0.0\nsamples = 18\nvalue = [0, 0, 0, 0, 18, 0]"] ;
7 -> 19 ;
20 [label="X[6] <= 1.5\ngini = 0.759\nsamples = 1093\nvalue = [208, 54, 427, 86, 128, 190]"] ;
6 -> 20 ;
21 [label="X[3] <= -54.0\ngini = 0.802\nsamples = 742\nvalue = [187, 42, 170, 80, 96, 167]"] ;
20 -> 21 ;
22 [label="X[3] <= -56.5\ngini = 0.406\nsamples = 194\nvalue = [55, 0, 139, 0, 0, 0]"] ;
21 -> 22 ;
23 [label="gini = 0.0\nsamples = 55\nvalue = [55, 0, 0, 0, 0, 0]"] ;
22 -> 23 ;
24 [label="gini = 0.0\nsamples = 139\nvalue = [0, 0, 139, 0, 0, 0]"] ;
22 -> 24 ;
25 [label="X[2] <= -46.5\ngini = 0.788\nsamples = 548\nvalue = [132, 42, 31, 80, 96, 167]"] ;
21 -> 25 ;
26 [label="X[2] <= -77.5\ngini = 0.245\nsamples = 79\nvalue = [0, 2, 0, 68, 9, 0]"] ;
25 -> 26 ;
27 [label="gini = 0.0\nsamples = 9\nvalue = [0, 0, 0, 0, 9, 0]"] ;
26 -> 27 ;
28 [label="X[6] <= 0.5\ngini = 0.056\nsamples = 70\nvalue = [0, 2, 0, 68, 0, 0]"] ;
26 -> 28 ;
29 [label="gini = 0.0\nsamples = 66\nvalue = [0, 0, 0, 66, 0, 0]"] ;
28 -> 29 ;
30 [label="gini = 0.5\nsamples = 4\nvalue = [0, 2, 0, 2, 0, 0]"] ;
28 -> 30 ;
31 [label="X[6] <= -9.0\ngini = 0.747\nsamples = 469\nvalue = [132, 40, 31, 12, 87, 167]"] ;
25 -> 31 ;
32 [label="X[0] <= -84.0\ngini = 0.414\nsamples = 75\nvalue = [0, 0, 16, 0, 55, 4]"] ;
31 -> 32 ;
33 [label="gini = 0.349\nsamples = 71\nvalue = [0, 0, 16, 0, 55, 0]"] ;
32 -> 33 ;
34 [label="gini = 0.0\nsamples = 4\nvalue = [0, 0, 0, 0, 0, 4]"] ;
32 -> 34 ;
35 [label="X[6] <= 0.5\ngini = 0.697\nsamples = 394\nvalue = [132, 40, 15, 12, 32, 163]"] ;
31 -> 35 ;
36 [label="gini = 0.674\nsamples = 365\nvalue = [128, 39, 13, 12, 15, 158]"] ;
35 -> 36 ;
37 [label="gini = 0.602\nsamples = 29\nvalue = [4, 1, 2, 0, 17, 5]"] ;
35 -> 37 ;
38 [label="X[0] <= -83.5\ngini = 0.446\nsamples = 351\nvalue = [21, 12, 257, 6, 32, 23]"] ;
20 -> 38 ;
39 [label="X[1] <= 7.5\ngini = 0.348\nsamples = 321\nvalue = [17, 8, 257, 3, 25, 11]"] ;
38 -> 39 ;
40 [label="X[3] <= -56.5\ngini = 0.304\nsamples = 310\nvalue = [10, 8, 257, 3, 25, 7]"] ;
39 -> 40 ;
41 [label="X[6] <= 3.0\ngini = 0.531\nsamples = 8\nvalue = [5, 1, 0, 0, 0, 2]"] ;
40 -> 41 ;
42 [label="gini = 0.0\nsamples = 4\nvalue = [4, 0, 0, 0, 0, 0]"] ;
41 -> 42 ;
43 [label="gini = 0.625\nsamples = 4\nvalue = [1, 1, 0, 0, 0, 2]"] ;
41 -> 43 ;
44 [label="X[6] <= 9.5\ngini = 0.268\nsamples = 302\nvalue = [5, 7, 257, 3, 25, 5]"] ;
40 -> 44 ;
45 [label="gini = 0.222\nsamples = 266\nvalue = [5, 5, 234, 3, 14, 5]"] ;
44 -> 45 ;
46 [label="gini = 0.495\nsamples = 36\nvalue = [0, 2, 23, 0, 11, 0]"] ;
44 -> 46 ;
47 [label="X[3] <= 2.5\ngini = 0.463\nsamples = 11\nvalue = [7, 0, 0, 0, 0, 4]"] ;
39 -> 47 ;
48 [label="X[5] <= -1.5\ngini = 0.219\nsamples = 8\nvalue = [7, 0, 0, 0, 0, 1]"] ;
47 -> 48 ;
49 [label="gini = 0.0\nsamples = 1\nvalue = [0, 0, 0, 0, 0, 1]"] ;
48 -> 49 ;
50 [label="gini = 0.0\nsamples = 7\nvalue = [7, 0, 0, 0, 0, 0]"] ;
48 -> 50 ;
51 [label="gini = 0.0\nsamples = 3\nvalue = [0, 0, 0, 0, 0, 3]"] ;
47 -> 51 ;
52 [label="X[4] <= 4.5\ngini = 0.74\nsamples = 30\nvalue = [4, 4, 0, 3, 7, 12]"] ;
38 -> 52 ;
53 [label="X[3] <= 1.0\ngini = 0.777\nsamples = 22\nvalue = [3, 4, 0, 3, 7, 5]"] ;
52 -> 53 ;
54 [label="X[3] <= -1.0\ngini = 0.741\nsamples = 18\nvalue = [3, 4, 0, 3, 7, 1]"] ;
53 -> 54 ;
55 [label="gini = 0.7\nsamples = 10\nvalue = [2, 4, 0, 3, 0, 1]"] ;
54 -> 55 ;
56 [label="gini = 0.219\nsamples = 8\nvalue = [1, 0, 0, 0, 7, 0]"] ;
54 -> 56 ;
57 [label="gini = 0.0\nsamples = 4\nvalue = [0, 0, 0, 0, 0, 4]"] ;
53 -> 57 ;
58 [label="X[2] <= -2.5\ngini = 0.219\nsamples = 8\nvalue = [1, 0, 0, 0, 0, 7]"] ;
52 -> 58 ;
59 [label="gini = 0.0\nsamples = 7\nvalue = [0, 0, 0, 0, 0, 7]"] ;
58 -> 59 ;
60 [label="gini = 0.0\nsamples = 1\nvalue = [1, 0, 0, 0, 0, 0]"] ;
58 -> 60 ;
61 [label="X[1] <= 1.5\ngini = 0.77\nsamples = 9113\nvalue = [3293, 1502, 940, 789, 537, 2052]"] ;
5 -> 61 ;
62 [label="X[3] <= -0.5\ngini = 0.682\nsamples = 3144\nvalue = [1583, 585, 398, 138, 325, 115]"] ;
61 -> 62 ;
63 [label="X[5] <= 6.5\ngini = 0.813\nsamples = 579\nvalue = [113, 137, 116, 112, 44, 57]"] ;
62 -> 63 ;
64 [label="X[2] <= -2.5\ngini = 0.796\nsamples = 451\nvalue = [39, 118, 108, 106, 37, 43]"] ;
63 -> 64 ;
65 [label="X[3] <= -59.0\ngini = 0.784\nsamples = 307\nvalue = [32, 109, 36, 62, 37, 31]"] ;
64 -> 65 ;
66 [label="X[2] <= -11.5\ngini = 0.635\nsamples = 135\nvalue = [18, 75, 18, 3, 19, 2]"] ;
65 -> 66 ;
67 [label="gini = 0.546\nsamples = 115\nvalue = [4, 73, 17, 0, 19, 2]"] ;
66 -> 67 ;
68 [label="gini = 0.475\nsamples = 20\nvalue = [14, 2, 1, 3, 0, 0]"] ;
66 -> 68 ;
69 [label="X[2] <= -48.5\ngini = 0.786\nsamples = 172\nvalue = [14, 34, 18, 59, 18, 29]"] ;
65 -> 69 ;
70 [label="gini = 0.637\nsamples = 105\nvalue = [5, 18, 16, 58, 4, 4]"] ;
69 -> 70 ;
71 [label="gini = 0.741\nsamples = 67\nvalue = [9, 16, 2, 1, 14, 25]"] ;
69 -> 71 ;
72 [label="X[0] <= -38.0\ngini = 0.643\nsamples = 144\nvalue = [7, 9, 72, 44, 0, 12]"] ;
64 -> 72 ;
73 [label="X[3] <= -55.5\ngini = 0.256\nsamples = 41\nvalue = [5, 1, 35, 0, 0, 0]"] ;
72 -> 73 ;
74 [label="gini = 0.0\nsamples = 34\nvalue = [0, 0, 34, 0, 0, 0]"] ;
73 -> 74 ;
75 [label="gini = 0.449\nsamples = 7\nvalue = [5, 1, 1, 0, 0, 0]"] ;
73 -> 75 ;
76 [label="X[0] <= -16.0\ngini = 0.668\nsamples = 103\nvalue = [2, 8, 37, 44, 0, 12]"] ;
72 -> 76 ;
77 [label="gini = 0.666\nsamples = 92\nvalue = [2, 8, 26, 44, 0, 12]"] ;
76 -> 77 ;
78 [label="gini = 0.0\nsamples = 11\nvalue = [0, 0, 11, 0, 0, 0]"] ;
76 -> 78 ;
79 [label="X[4] <= -3.5\ngini = 0.623\nsamples = 128\nvalue = [74, 19, 8, 6, 7, 14]"] ;
63 -> 79 ;
80 [label="X[0] <= -49.0\ngini = 0.16\nsamples = 80\nvalue = [73, 7, 0, 0, 0, 0]"] ;
79 -> 80 ;
81 [label="gini = 0.0\nsamples = 7\nvalue = [0, 7, 0, 0, 0, 0]"] ;
80 -> 81 ;
82 [label="gini = 0.0\nsamples = 73\nvalue = [73, 0, 0, 0, 0, 0]"] ;
80 -> 82 ;
83 [label="X[5] <= 9.5\ngini = 0.787\nsamples = 48\nvalue = [1, 12, 8, 6, 7, 14]"] ;
79 -> 83 ;
84 [label="X[0] <= -48.5\ngini = 0.748\nsamples = 32\nvalue = [1, 11, 8, 6, 6, 0]"] ;
83 -> 84 ;
85 [label="gini = 0.664\nsamples = 16\nvalue = [0, 0, 5, 5, 6, 0]"] ;
84 -> 85 ;
86 [label="gini = 0.484\nsamples = 16\nvalue = [1, 11, 3, 1, 0, 0]"] ;
84 -> 86 ;
87 [label="X[6] <= 12.5\ngini = 0.227\nsamples = 16\nvalue = [0, 1, 0, 0, 1, 14]"] ;
83 -> 87 ;
88 [label="gini = 0.5\nsamples = 2\nvalue = [0, 1, 0, 0, 1, 0]"] ;
87 -> 88 ;
89 [label="gini = 0.0\nsamples = 14\nvalue = [0, 0, 0, 0, 0, 14]"] ;
87 -> 89 ;
90 [label="X[0] <= -78.5\ngini = 0.616\nsamples = 2565\nvalue = [1470, 448, 282, 26, 281, 58]"] ;
62 -> 90 ;
91 [label="X[6] <= 1.5\ngini = 0.292\nsamples = 415\nvalue = [347, 26, 1, 13, 3, 25]"] ;
90 -> 91 ;
92 [label="X[6] <= -4.5\ngini = 0.753\nsamples = 35\nvalue = [11, 4, 0, 11, 3, 6]"] ;
91 -> 92 ;
93 [label="X[5] <= -5.5\ngini = 0.49\nsamples = 7\nvalue = [4, 0, 0, 0, 3, 0]"] ;
92 -> 93 ;
94 [label="gini = 0.0\nsamples = 3\nvalue = [3, 0, 0, 0, 0, 0]"] ;
93 -> 94 ;
95 [label="gini = 0.375\nsamples = 4\nvalue = [1, 0, 0, 0, 3, 0]"] ;
93 -> 95 ;
96 [label="X[0] <= -79.5\ngini = 0.717\nsamples = 28\nvalue = [7, 4, 0, 11, 0, 6]"] ;
92 -> 96 ;
97 [label="gini = 0.688\nsamples = 25\nvalue = [7, 4, 0, 11, 0, 3]"] ;
96 -> 97 ;
98 [label="gini = 0.0\nsamples = 3\nvalue = [0, 0, 0, 0, 0, 3]"] ;
96 -> 98 ;
99 [label="X[5] <= -0.5\ngini = 0.212\nsamples = 380\nvalue = [336, 22, 1, 2, 0, 19]"] ;
91 -> 99 ;
100 [label="X[5] <= -2.5\ngini = 0.171\nsamples = 370\nvalue = [336, 18, 1, 0, 0, 15]"] ;
99 -> 100 ;
101 [label="gini = 0.0\nsamples = 1\nvalue = [0, 1, 0, 0, 0, 0]"] ;
100 -> 101 ;
102 [label="gini = 0.167\nsamples = 369\nvalue = [336, 17, 1, 0, 0, 15]"] ;
100 -> 102 ;
103 [label="X[5] <= 4.5\ngini = 0.64\nsamples = 10\nvalue = [0, 4, 0, 2, 0, 4]"] ;
99 -> 103 ;
104 [label="gini = 0.444\nsamples = 6\nvalue = [0, 0, 0, 2, 0, 4]"] ;
103 -> 104 ;
105 [label="gini = 0.0\nsamples = 4\nvalue = [0, 4, 0, 0, 0, 0]"] ;
103 -> 105 ;
106 [label="X[0] <= -38.5\ngini = 0.655\nsamples = 2150\nvalue = [1123, 422, 281, 13, 278, 33]"] ;
90 -> 106 ;
107 [label="X[0] <= -49.5\ngini = 0.764\nsamples = 663\nvalue = [180, 116, 142, 6, 192, 27]"] ;
106 -> 107 ;
108 [label="X[0] <= -71.5\ngini = 0.753\nsamples = 366\nvalue = [56, 67, 106, 0, 118, 19]"] ;
107 -> 108 ;
109 [label="gini = 0.703\nsamples = 56\nvalue = [13, 23, 14, 0, 0, 6]"] ;
108 -> 109 ;
110 [label="gini = 0.726\nsamples = 310\nvalue = [43, 44, 92, 0, 118, 13]"] ;
108 -> 110 ;
111 [label="X[0] <= -41.5\ngini = 0.721\nsamples = 297\nvalue = [124, 49, 36, 6, 74, 8]"] ;
107 -> 111 ;
112 [label="gini = 0.707\nsamples = 247\nvalue = [111, 49, 33, 6, 45, 3]"] ;
111 -> 112 ;
113 [label="gini = 0.582\nsamples = 50\nvalue = [13, 0, 3, 0, 29, 5]"] ;
111 -> 113 ;
114 [label="X[0] <= -24.5\ngini = 0.543\nsamples = 1487\nvalue = [943, 306, 139, 7, 86, 6]"] ;
106 -> 114 ;
115 [label="X[6] <= 1.5\ngini = 0.484\nsamples = 1028\nvalue = [718, 116, 99, 7, 83, 5]"] ;
114 -> 115 ;
116 [label="gini = 0.405\nsamples = 845\nvalue = [641, 91, 54, 5, 51, 3]"] ;
115 -> 116 ;
117 [label="gini = 0.713\nsamples = 183\nvalue = [77, 25, 45, 2, 32, 2]"] ;
115 -> 117 ;
118 [label="X[0] <= -22.5\ngini = 0.581\nsamples = 459\nvalue = [225, 190, 40, 0, 3, 1]"] ;
114 -> 118 ;
119 [label="gini = 0.357\nsamples = 238\nvalue = [54, 183, 0, 0, 1, 0]"] ;
118 -> 119 ;
120 [label="gini = 0.367\nsamples = 221\nvalue = [171, 7, 40, 0, 2, 1]"] ;
118 -> 120 ;
121 [label="X[2] <= 3.5\ngini = 0.768\nsamples = 5969\nvalue = [1710, 917, 542, 651, 212, 1937]"] ;
61 -> 121 ;
122 [label="X[2] <= -4.5\ngini = 0.763\nsamples = 4178\nvalue = [908, 505, 483, 509, 184, 1589]"] ;
121 -> 122 ;
123 [label="X[1] <= 2.5\ngini = 0.78\nsamples = 641\nvalue = [106, 97, 219, 101, 10, 108]"] ;
122 -> 123 ;
124 [label="X[0] <= -59.0\ngini = 0.025\nsamples = 78\nvalue = [0, 0, 77, 1, 0, 0]"] ;
123 -> 124 ;
125 [label="gini = 0.0\nsamples = 77\nvalue = [0, 0, 77, 0, 0, 0]"] ;
124 -> 125 ;
126 [label="gini = 0.0\nsamples = 1\nvalue = [0, 0, 0, 1, 0, 0]"] ;
124 -> 126 ;
127 [label="X[1] <= 3.5\ngini = 0.803\nsamples = 563\nvalue = [106, 97, 142, 100, 10, 108]"] ;
123 -> 127 ;
128 [label="X[4] <= 2.0\ngini = 0.646\nsamples = 120\nvalue = [0, 25, 1, 52, 0, 42]"] ;
127 -> 128 ;
129 [label="gini = 0.083\nsamples = 23\nvalue = [0, 22, 1, 0, 0, 0]"] ;
128 -> 129 ;
130 [label="gini = 0.524\nsamples = 97\nvalue = [0, 3, 0, 52, 0, 42]"] ;
128 -> 130 ;
131 [label="X[2] <= -5.5\ngini = 0.781\nsamples = 443\nvalue = [106, 72, 141, 48, 10, 66]"] ;
127 -> 131 ;
132 [label="gini = 0.164\nsamples = 80\nvalue = [0, 3, 73, 3, 1, 0]"] ;
131 -> 132 ;
133 [label="gini = 0.794\nsamples = 363\nvalue = [106, 69, 68, 45, 9, 66]"] ;
131 -> 133 ;
134 [label="X[2] <= -0.5\ngini = 0.739\nsamples = 3537\nvalue = [802, 408, 264, 408, 174, 1481]"] ;
122 -> 134 ;
135 [label="X[3] <= -4.5\ngini = 0.755\nsamples = 2366\nvalue = [639, 273, 250, 242, 90, 872]"] ;
134 -> 135 ;
136 [label="X[6] <= -0.5\ngini = 0.638\nsamples = 828\nvalue = [118, 23, 74, 137, 19, 457]"] ;
135 -> 136 ;
137 [label="gini = 0.492\nsamples = 473\nvalue = [38, 2, 30, 66, 10, 327]"] ;
136 -> 137 ;
138 [label="gini = 0.756\nsamples = 355\nvalue = [80, 21, 44, 71, 9, 130]"] ;
136 -> 138 ;
139 [label="X[1] <= 9.5\ngini = 0.766\nsamples = 1538\nvalue = [521, 250, 176, 105, 71, 415]"] ;
135 -> 139 ;
140 [label="gini = 0.574\nsamples = 150\nvalue = [31, 7, 90, 22, 0, 0]"] ;
139 -> 140 ;
141 [label="gini = 0.745\nsamples = 1388\nvalue = [490, 243, 86, 83, 71, 415]"] ;
139 -> 141 ;
142 [label="X[3] <= -3.5\ngini = 0.671\nsamples = 1171\nvalue = [163, 135, 14, 166, 84, 609]"] ;
134 -> 142 ;
143 [label="X[1] <= 24.5\ngini = 0.763\nsamples = 317\nvalue = [94, 32, 1, 99, 43, 48]"] ;
142 -> 143 ;
144 [label="gini = 0.563\nsamples = 150\nvalue = [90, 12, 0, 8, 1, 39]"] ;
143 -> 144 ;
145 [label="gini = 0.622\nsamples = 167\nvalue = [4, 20, 1, 91, 42, 9]"] ;
143 -> 145 ;
146 [label="X[3] <= -1.5\ngini = 0.539\nsamples = 854\nvalue = [69, 103, 13, 67, 41, 561]"] ;
142 -> 146 ;
147 [label="gini = 0.444\nsamples = 458\nvalue = [12, 80, 11, 9, 15, 331]"] ;
146 -> 147 ;
148 [label="gini = 0.613\nsamples = 396\nvalue = [57, 23, 2, 58, 26, 230]"] ;
146 -> 148 ;
149 [label="X[1] <= 34.5\ngini = 0.701\nsamples = 1791\nvalue = [802, 412, 59, 142, 28, 348]"] ;
121 -> 149 ;
150 [label="X[1] <= 22.5\ngini = 0.53\nsamples = 878\nvalue = [581, 113, 20, 76, 13, 75]"] ;
149 -> 150 ;
151 [label="X[3] <= 0.0\ngini = 0.705\nsamples = 242\nvalue = [31, 112, 3, 50, 13, 33]"] ;
150 -> 151 ;
152 [label="X[0] <= -26.5\ngini = 0.767\nsamples = 143\nvalue = [29, 30, 3, 50, 11, 20]"] ;
151 -> 152 ;
153 [label="gini = 0.726\nsamples = 114\nvalue = [4, 30, 3, 46, 11, 20]"] ;
152 -> 153 ;
154 [label="gini = 0.238\nsamples = 29\nvalue = [25, 0, 0, 4, 0, 0]"] ;
152 -> 154 ;
155 [label="X[1] <= 20.5\ngini = 0.296\nsamples = 99\nvalue = [2, 82, 0, 0, 2, 13]"] ;
151 -> 155 ;
156 [label="gini = 0.589\nsamples = 30\nvalue = [1, 14, 0, 0, 2, 13]"] ;
155 -> 156 ;
157 [label="gini = 0.029\nsamples = 69\nvalue = [1, 68, 0, 0, 0, 0]"] ;
155 -> 157 ;
158 [label="X[3] <= 0.0\ngini = 0.245\nsamples = 636\nvalue = [550, 1, 17, 26, 0, 42]"] ;
150 -> 158 ;
159 [label="X[0] <= -58.5\ngini = 0.736\nsamples = 101\nvalue = [27, 1, 16, 22, 0, 35]"] ;
158 -> 159 ;
160 [label="gini = 0.0\nsamples = 22\nvalue = [0, 0, 0, 22, 0, 0]"] ;
159 -> 160 ;
161 [label="gini = 0.646\nsamples = 79\nvalue = [27, 1, 16, 0, 0, 35]"] ;
159 -> 161 ;
162 [label="X[0] <= -75.0\ngini = 0.044\nsamples = 535\nvalue = [523, 0, 1, 4, 0, 7]"] ;
158 -> 162 ;
163 [label="gini = 0.0\nsamples = 2\nvalue = [0, 0, 0, 2, 0, 0]"] ;
162 -> 163 ;
164 [label="gini = 0.037\nsamples = 533\nvalue = [523, 0, 1, 2, 0, 7]"] ;
162 -> 164 ;
165 [label="X[0] <= -37.5\ngini = 0.737\nsamples = 913\nvalue = [221, 299, 39, 66, 15, 273]"] ;
149 -> 165 ;
166 [label="X[1] <= 37.5\ngini = 0.679\nsamples = 238\nvalue = [41, 31, 10, 32, 4, 120]"] ;
165 -> 166 ;
167 [label="X[1] <= 36.5\ngini = 0.666\nsamples = 85\nvalue = [37, 29, 0, 6, 0, 13]"] ;
166 -> 167 ;
168 [label="gini = 0.68\nsamples = 56\nvalue = [11, 26, 0, 6, 0, 13]"] ;
167 -> 168 ;
169 [label="gini = 0.185\nsamples = 29\nvalue = [26, 3, 0, 0, 0, 0]"] ;
167 -> 169 ;
170 [label="X[1] <= 50.5\ngini = 0.476\nsamples = 153\nvalue = [4, 2, 10, 26, 4, 107]"] ;
166 -> 170 ;
171 [label="gini = 0.323\nsamples = 120\nvalue = [4, 2, 10, 2, 4, 98]"] ;
170 -> 171 ;
172 [label="gini = 0.397\nsamples = 33\nvalue = [0, 0, 0, 24, 0, 9]"] ;
170 -> 172 ;
173 [label="X[1] <= 47.5\ngini = 0.715\nsamples = 675\nvalue = [180, 268, 29, 34, 11, 153]"] ;
165 -> 173 ;
174 [label="X[1] <= 44.5\ngini = 0.72\nsamples = 315\nvalue = [133, 78, 16, 25, 8, 55]"] ;
173 -> 174 ;
175 [label="gini = 0.74\nsamples = 199\nvalue = [26, 77, 12, 21, 8, 55]"] ;
174 -> 175 ;
176 [label="gini = 0.147\nsamples = 116\nvalue = [107, 1, 4, 4, 0, 0]"] ;
174 -> 176 ;
177 [label="X[0] <= -15.5\ngini = 0.628\nsamples = 360\nvalue = [47, 190, 13, 9, 3, 98]"] ;
173 -> 177 ;
178 [label="gini = 0.674\nsamples = 298\nvalue = [44, 131, 13, 9, 3, 98]"] ;
177 -> 178 ;
179 [label="gini = 0.092\nsamples = 62\nvalue = [3, 59, 0, 0, 0, 0]"] ;
177 -> 179 ;
180 [label="X[0] <= -34.5\ngini = 0.681\nsamples = 1593\nvalue = [96, 75, 607, 101, 641, 73]"] ;
4 -> 180 ;
181 [label="X[1] <= 42.5\ngini = 0.649\nsamples = 817\nvalue = [38, 50, 208, 40, 427, 54]"] ;
180 -> 181 ;
182 [label="X[1] <= 38.0\ngini = 0.718\nsamples = 555\nvalue = [33, 38, 194, 37, 208, 45]"] ;
181 -> 182 ;
183 [label="X[1] <= 21.5\ngini = 0.705\nsamples = 404\nvalue = [27, 36, 74, 30, 195, 42]"] ;
182 -> 183 ;
184 [label="X[2] <= -3.5\ngini = 0.792\nsamples = 108\nvalue = [24, 14, 28, 17, 1, 24]"] ;
183 -> 184 ;
185 [label="X[3] <= 6.5\ngini = 0.5\nsamples = 41\nvalue = [0, 2, 28, 6, 1, 4]"] ;
184 -> 185 ;
186 [label="X[5] <= -1.0\ngini = 0.715\nsamples = 22\nvalue = [0, 2, 9, 6, 1, 4]"] ;
185 -> 186 ;
187 [label="gini = 0.32\nsamples = 5\nvalue = [0, 0, 0, 4, 1, 0]"] ;
186 -> 187 ;
188 [label="gini = 0.637\nsamples = 17\nvalue = [0, 2, 9, 2, 0, 4]"] ;
186 -> 188 ;
189 [label="gini = 0.0\nsamples = 19\nvalue = [0, 0, 19, 0, 0, 0]"] ;
185 -> 189 ;
190 [label="X[6] <= 9.0\ngini = 0.724\nsamples = 67\nvalue = [24, 12, 0, 11, 0, 20]"] ;
184 -> 190 ;
191 [label="X[6] <= -1.5\ngini = 0.712\nsamples = 49\nvalue = [7, 11, 0, 11, 0, 20]"] ;
190 -> 191 ;
192 [label="gini = 0.198\nsamples = 9\nvalue = [0, 8, 0, 1, 0, 0]"] ;
191 -> 192 ;
193 [label="gini = 0.651\nsamples = 40\nvalue = [7, 3, 0, 10, 0, 20]"] ;
191 -> 193 ;
194 [label="X[3] <= 11.0\ngini = 0.105\nsamples = 18\nvalue = [17, 1, 0, 0, 0, 0]"] ;
190 -> 194 ;
195 [label="gini = 0.0\nsamples = 17\nvalue = [17, 0, 0, 0, 0, 0]"] ;
194 -> 195 ;
196 [label="gini = 0.0\nsamples = 1\nvalue = [0, 1, 0, 0, 0, 0]"] ;
194 -> 196 ;
197 [label="X[4] <= -3.5\ngini = 0.535\nsamples = 296\nvalue = [3, 22, 46, 13, 194, 18]"] ;
183 -> 197 ;
198 [label="X[1] <= 36.5\ngini = 0.641\nsamples = 157\nvalue = [0, 20, 41, 1, 81, 14]"] ;
197 -> 198 ;
199 [label="X[5] <= -0.5\ngini = 0.717\nsamples = 103\nvalue = [0, 20, 41, 1, 27, 14]"] ;
198 -> 199 ;
200 [label="gini = 0.641\nsamples = 84\nvalue = [0, 5, 41, 1, 27, 10]"] ;
199 -> 200 ;
201 [label="gini = 0.332\nsamples = 19\nvalue = [0, 15, 0, 0, 0, 4]"] ;
199 -> 201 ;
202 [label="gini = 0.0\nsamples = 54\nvalue = [0, 0, 0, 0, 54, 0]"] ;
198 -> 202 ;
203 [label="X[0] <= -73.0\ngini = 0.329\nsamples = 139\nvalue = [3, 2, 5, 12, 113, 4]"] ;
197 -> 203 ;
204 [label="X[1] <= 29.5\ngini = 0.773\nsamples = 15\nvalue = [1, 2, 1, 5, 2, 4]"] ;
203 -> 204 ;
205 [label="gini = 0.777\nsamples = 11\nvalue = [1, 2, 1, 1, 2, 4]"] ;
204 -> 205 ;
206 [label="gini = 0.0\nsamples = 4\nvalue = [0, 0, 0, 4, 0, 0]"] ;
204 -> 206 ;
207 [label="X[6] <= 8.5\ngini = 0.194\nsamples = 124\nvalue = [2, 0, 4, 7, 111, 0]"] ;
203 -> 207 ;
208 [label="gini = 0.114\nsamples = 118\nvalue = [1, 0, 4, 2, 111, 0]"] ;
207 -> 208 ;
209 [label="gini = 0.278\nsamples = 6\nvalue = [1, 0, 0, 5, 0, 0]"] ;
207 -> 209 ;
210 [label="X[2] <= 3.5\ngini = 0.357\nsamples = 151\nvalue = [6, 2, 120, 7, 13, 3]"] ;
182 -> 210 ;
211 [label="X[4] <= -4.0\ngini = 0.206\nsamples = 135\nvalue = [6, 1, 120, 5, 3, 0]"] ;
210 -> 211 ;
212 [label="X[6] <= 2.5\ngini = 0.568\nsamples = 9\nvalue = [5, 1, 0, 0, 3, 0]"] ;
211 -> 212 ;
213 [label="gini = 0.0\nsamples = 5\nvalue = [5, 0, 0, 0, 0, 0]"] ;
212 -> 213 ;
214 [label="X[0] <= -47.0\ngini = 0.375\nsamples = 4\nvalue = [0, 1, 0, 0, 3, 0]"] ;
212 -> 214 ;
215 [label="gini = 0.0\nsamples = 1\nvalue = [0, 1, 0, 0, 0, 0]"] ;
214 -> 215 ;
216 [label="gini = 0.0\nsamples = 3\nvalue = [0, 0, 0, 0, 3, 0]"] ;
214 -> 216 ;
217 [label="X[6] <= -5.0\ngini = 0.091\nsamples = 126\nvalue = [1, 0, 120, 5, 0, 0]"] ;
211 -> 217 ;
218 [label="gini = 0.0\nsamples = 4\nvalue = [0, 0, 0, 4, 0, 0]"] ;
217 -> 218 ;
219 [label="X[3] <= 39.5\ngini = 0.032\nsamples = 122\nvalue = [1, 0, 120, 1, 0, 0]"] ;
217 -> 219 ;
220 [label="gini = 0.016\nsamples = 121\nvalue = [0, 0, 120, 1, 0, 0]"] ;
219 -> 220 ;
221 [label="gini = 0.0\nsamples = 1\nvalue = [1, 0, 0, 0, 0, 0]"] ;
219 -> 221 ;
222 [label="X[5] <= 7.5\ngini = 0.555\nsamples = 16\nvalue = [0, 1, 0, 2, 10, 3]"] ;
210 -> 222 ;
223 [label="X[3] <= 41.5\ngini = 0.439\nsamples = 14\nvalue = [0, 1, 0, 0, 10, 3]"] ;
222 -> 223 ;
224 [label="X[4] <= -1.0\ngini = 0.165\nsamples = 11\nvalue = [0, 0, 0, 0, 10, 1]"] ;
223 -> 224 ;
225 [label="gini = 0.0\nsamples = 7\nvalue = [0, 0, 0, 0, 7, 0]"] ;
224 -> 225 ;
226 [label="gini = 0.375\nsamples = 4\nvalue = [0, 0, 0, 0, 3, 1]"] ;
224 -> 226 ;
227 [label="X[4] <= 2.0\ngini = 0.444\nsamples = 3\nvalue = [0, 1, 0, 0, 0, 2]"] ;
223 -> 227 ;
228 [label="gini = 0.0\nsamples = 2\nvalue = [0, 0, 0, 0, 0, 2]"] ;
227 -> 228 ;
229 [label="gini = 0.0\nsamples = 1\nvalue = [0, 1, 0, 0, 0, 0]"] ;
227 -> 229 ;
230 [label="gini = 0.0\nsamples = 2\nvalue = [0, 0, 0, 2, 0, 0]"] ;
222 -> 230 ;
231 [label="X[2] <= 2.5\ngini = 0.295\nsamples = 262\nvalue = [5, 12, 14, 3, 219, 9]"] ;
181 -> 231 ;
232 [label="X[3] <= 26.5\ngini = 0.13\nsamples = 235\nvalue = [5, 1, 9, 1, 219, 0]"] ;
231 -> 232 ;
233 [label="X[0] <= -36.5\ngini = 0.092\nsamples = 230\nvalue = [0, 1, 9, 1, 219, 0]"] ;
232 -> 233 ;
234 [label="X[1] <= 52.5\ngini = 0.044\nsamples = 223\nvalue = [0, 1, 3, 1, 218, 0]"] ;
233 -> 234 ;
235 [label="X[0] <= -60.5\ngini = 0.036\nsamples = 222\nvalue = [0, 1, 3, 0, 218, 0]"] ;
234 -> 235 ;
236 [label="gini = 0.219\nsamples = 8\nvalue = [0, 0, 1, 0, 7, 0]"] ;
235 -> 236 ;
237 [label="gini = 0.028\nsamples = 214\nvalue = [0, 1, 2, 0, 211, 0]"] ;
235 -> 237 ;
238 [label="gini = 0.0\nsamples = 1\nvalue = [0, 0, 0, 1, 0, 0]"] ;
234 -> 238 ;
239 [label="X[4] <= -11.5\ngini = 0.245\nsamples = 7\nvalue = [0, 0, 6, 0, 1, 0]"] ;
233 -> 239 ;
240 [label="gini = 0.0\nsamples = 1\nvalue = [0, 0, 0, 0, 1, 0]"] ;
239 -> 240 ;
241 [label="gini = 0.0\nsamples = 6\nvalue = [0, 0, 6, 0, 0, 0]"] ;
239 -> 241 ;
242 [label="gini = 0.0\nsamples = 5\nvalue = [5, 0, 0, 0, 0, 0]"] ;
232 -> 242 ;
243 [label="X[1] <= 50.5\ngini = 0.683\nsamples = 27\nvalue = [0, 11, 5, 2, 0, 9]"] ;
231 -> 243 ;
244 [label="X[1] <= 47.5\ngini = 0.616\nsamples = 17\nvalue = [0, 1, 5, 2, 0, 9]"] ;
243 -> 244 ;
245 [label="X[0] <= -75.0\ngini = 0.531\nsamples = 8\nvalue = [0, 1, 5, 2, 0, 0]"] ;
244 -> 245 ;
246 [label="gini = 0.0\nsamples = 2\nvalue = [0, 0, 0, 2, 0, 0]"] ;
245 -> 246 ;
247 [label="X[2] <= 42.5\ngini = 0.278\nsamples = 6\nvalue = [0, 1, 5, 0, 0, 0]"] ;
245 -> 247 ;
248 [label="gini = 0.0\nsamples = 5\nvalue = [0, 0, 5, 0, 0, 0]"] ;
247 -> 248 ;
249 [label="gini = 0.0\nsamples = 1\nvalue = [0, 1, 0, 0, 0, 0]"] ;
247 -> 249 ;
250 [label="gini = 0.0\nsamples = 9\nvalue = [0, 0, 0, 0, 0, 9]"] ;
244 -> 250 ;
251 [label="gini = 0.0\nsamples = 10\nvalue = [0, 10, 0, 0, 0, 0]"] ;
243 -> 251 ;
252 [label="X[1] <= 45.5\ngini = 0.646\nsamples = 776\nvalue = [58, 25, 399, 61, 214, 19]"] ;
180 -> 252 ;
253 [label="X[1] <= 36.5\ngini = 0.725\nsamples = 420\nvalue = [39, 25, 118, 51, 172, 15]"] ;
252 -> 253 ;
254 [label="X[1] <= 34.5\ngini = 0.759\nsamples = 275\nvalue = [28, 21, 104, 46, 62, 14]"] ;
253 -> 254 ;
255 [label="X[3] <= 5.5\ngini = 0.785\nsamples = 182\nvalue = [28, 21, 15, 46, 58, 14]"] ;
254 -> 255 ;
256 [label="X[6] <= 1.5\ngini = 0.459\nsamples = 62\nvalue = [2, 15, 1, 43, 1, 0]"] ;
255 -> 256 ;
257 [label="X[4] <= 1.0\ngini = 0.198\nsamples = 47\nvalue = [2, 1, 1, 42, 1, 0]"] ;
256 -> 257 ;
258 [label="gini = 0.0\nsamples = 37\nvalue = [0, 0, 0, 37, 0, 0]"] ;
257 -> 258 ;
259 [label="gini = 0.68\nsamples = 10\nvalue = [2, 1, 1, 5, 1, 0]"] ;
257 -> 259 ;
260 [label="X[2] <= -3.5\ngini = 0.124\nsamples = 15\nvalue = [0, 14, 0, 1, 0, 0]"] ;
256 -> 260 ;
261 [label="gini = 0.0\nsamples = 1\nvalue = [0, 0, 0, 1, 0, 0]"] ;
260 -> 261 ;
262 [label="gini = 0.0\nsamples = 14\nvalue = [0, 14, 0, 0, 0, 0]"] ;
260 -> 262 ;
263 [label="X[2] <= 53.0\ngini = 0.697\nsamples = 120\nvalue = [26, 6, 14, 3, 57, 14]"] ;
255 -> 263 ;
264 [label="X[5] <= -5.5\ngini = 0.591\nsamples = 95\nvalue = [1, 6, 14, 3, 57, 14]"] ;
263 -> 264 ;
265 [label="gini = 0.0\nsamples = 40\nvalue = [0, 0, 0, 0, 40, 0]"] ;
264 -> 265 ;
266 [label="gini = 0.76\nsamples = 55\nvalue = [1, 6, 14, 3, 17, 14]"] ;
264 -> 266 ;
267 [label="gini = 0.0\nsamples = 25\nvalue = [25, 0, 0, 0, 0, 0]"] ;
263 -> 267 ;
268 [label="X[2] <= -3.0\ngini = 0.082\nsamples = 93\nvalue = [0, 0, 89, 0, 4, 0]"] ;
254 -> 268 ;
269 [label="X[0] <= -29.0\ngini = 0.022\nsamples = 90\nvalue = [0, 0, 89, 0, 1, 0]"] ;
268 -> 269 ;
270 [label="gini = 0.0\nsamples = 1\nvalue = [0, 0, 0, 0, 1, 0]"] ;
269 -> 270 ;
271 [label="gini = 0.0\nsamples = 89\nvalue = [0, 0, 89, 0, 0, 0]"] ;
269 -> 271 ;
272 [label="gini = 0.0\nsamples = 3\nvalue = [0, 0, 0, 0, 3, 0]"] ;
268 -> 272 ;
273 [label="X[3] <= 24.0\ngini = 0.407\nsamples = 145\nvalue = [11, 4, 14, 5, 110, 1]"] ;
253 -> 273 ;
274 [label="X[4] <= -11.5\ngini = 0.284\nsamples = 131\nvalue = [0, 3, 12, 5, 110, 1]"] ;
273 -> 274 ;
275 [label="X[1] <= 42.0\ngini = 0.444\nsamples = 3\nvalue = [0, 2, 1, 0, 0, 0]"] ;
274 -> 275 ;
276 [label="gini = 0.0\nsamples = 2\nvalue = [0, 2, 0, 0, 0, 0]"] ;
275 -> 276 ;
277 [label="gini = 0.0\nsamples = 1\nvalue = [0, 0, 1, 0, 0, 0]"] ;
275 -> 277 ;
278 [label="X[5] <= 0.5\ngini = 0.252\nsamples = 128\nvalue = [0, 1, 11, 5, 110, 1]"] ;
274 -> 278 ;
279 [label="X[0] <= -28.5\ngini = 0.405\nsamples = 73\nvalue = [0, 1, 11, 5, 55, 1]"] ;
278 -> 279 ;
280 [label="gini = 0.46\nsamples = 10\nvalue = [0, 0, 7, 0, 2, 1]"] ;
279 -> 280 ;
281 [label="gini = 0.282\nsamples = 63\nvalue = [0, 1, 4, 5, 53, 0]"] ;
279 -> 281 ;
282 [label="gini = 0.0\nsamples = 55\nvalue = [0, 0, 0, 0, 55, 0]"] ;
278 -> 282 ;
283 [label="X[5] <= -1.5\ngini = 0.357\nsamples = 14\nvalue = [11, 1, 2, 0, 0, 0]"] ;
273 -> 283 ;
284 [label="gini = 0.0\nsamples = 2\nvalue = [0, 0, 2, 0, 0, 0]"] ;
283 -> 284 ;
285 [label="X[1] <= 41.5\ngini = 0.153\nsamples = 12\nvalue = [11, 1, 0, 0, 0, 0]"] ;
283 -> 285 ;
286 [label="gini = 0.0\nsamples = 11\nvalue = [11, 0, 0, 0, 0, 0]"] ;
285 -> 286 ;
287 [label="gini = 0.0\nsamples = 1\nvalue = [0, 1, 0, 0, 0, 0]"] ;
285 -> 287 ;
288 [label="X[1] <= 51.5\ngini = 0.359\nsamples = 356\nvalue = [19, 0, 281, 10, 42, 4]"] ;
252 -> 288 ;
289 [label="X[3] <= 7.0\ngini = 0.212\nsamples = 310\nvalue = [0, 0, 274, 8, 24, 4]"] ;
288 -> 289 ;
290 [label="X[4] <= -11.5\ngini = 0.07\nsamples = 279\nvalue = [0, 0, 269, 0, 6, 4]"] ;
289 -> 290 ;
291 [label="X[3] <= 5.0\ngini = 0.444\nsamples = 6\nvalue = [0, 0, 0, 0, 2, 4]"] ;
290 -> 291 ;
292 [label="gini = 0.0\nsamples = 4\nvalue = [0, 0, 0, 0, 0, 4]"] ;
291 -> 292 ;
293 [label="gini = 0.0\nsamples = 2\nvalue = [0, 0, 0, 0, 2, 0]"] ;
291 -> 293 ;
294 [label="X[2] <= 0.0\ngini = 0.029\nsamples = 273\nvalue = [0, 0, 269, 0, 4, 0]"] ;
290 -> 294 ;
295 [label="X[6] <= -1.5\ngini = 0.015\nsamples = 268\nvalue = [0, 0, 266, 0, 2, 0]"] ;
294 -> 295 ;
296 [label="gini = 0.053\nsamples = 73\nvalue = [0, 0, 71, 0, 2, 0]"] ;
295 -> 296 ;
297 [label="gini = 0.0\nsamples = 195\nvalue = [0, 0, 195, 0, 0, 0]"] ;
295 -> 297 ;
298 [label="X[6] <= -8.0\ngini = 0.48\nsamples = 5\nvalue = [0, 0, 3, 0, 2, 0]"] ;
294 -> 298 ;
299 [label="gini = 0.0\nsamples = 2\nvalue = [0, 0, 2, 0, 0, 0]"] ;
298 -> 299 ;
300 [label="gini = 0.444\nsamples = 3\nvalue = [0, 0, 1, 0, 2, 0]"] ;
298 -> 300 ;
301 [label="X[2] <= 1.5\ngini = 0.57\nsamples = 31\nvalue = [0, 0, 5, 8, 18, 0]"] ;
289 -> 301 ;
302 [label="X[4] <= -3.0\ngini = 0.34\nsamples = 23\nvalue = [0, 0, 5, 0, 18, 0]"] ;
301 -> 302 ;
303 [label="gini = 0.0\nsamples = 18\nvalue = [0, 0, 0, 0, 18, 0]"] ;
302 -> 303 ;
304 [label="gini = 0.0\nsamples = 5\nvalue = [0, 0, 5, 0, 0, 0]"] ;
302 -> 304 ;
305 [label="gini = 0.0\nsamples = 8\nvalue = [0, 0, 0, 8, 0, 0]"] ;
301 -> 305 ;
306 [label="X[4] <= -5.5\ngini = 0.651\nsamples = 46\nvalue = [19, 0, 7, 2, 18, 0]"] ;
288 -> 306 ;
307 [label="gini = 0.0\nsamples = 18\nvalue = [0, 0, 0, 0, 18, 0]"] ;
306 -> 307 ;
308 [label="X[1] <= 52.5\ngini = 0.472\nsamples = 28\nvalue = [19, 0, 7, 2, 0, 0]"] ;
306 -> 308 ;
309 [label="X[5] <= -5.0\ngini = 0.346\nsamples = 9\nvalue = [0, 0, 7, 2, 0, 0]"] ;
308 -> 309 ;
310 [label="gini = 0.0\nsamples = 2\nvalue = [0, 0, 0, 2, 0, 0]"] ;
309 -> 310 ;
311 [label="gini = 0.0\nsamples = 7\nvalue = [0, 0, 7, 0, 0, 0]"] ;
309 -> 311 ;
312 [label="gini = 0.0\nsamples = 19\nvalue = [19, 0, 0, 0, 0, 0]"] ;
308 -> 312 ;
313 [label="X[0] <= -17.5\ngini = 0.712\nsamples = 12503\nvalue = [1136, 388, 5125, 811, 3929, 1114]"] ;
3 -> 313 ;
314 [label="X[1] <= 66.5\ngini = 0.66\nsamples = 10386\nvalue = [931, 361, 4558, 483, 3824, 229]"] ;
313 -> 314 ;
315 [label="X[4] <= 2.5\ngini = 0.662\nsamples = 8841\nvalue = [931, 306, 4243, 455, 2688, 218]"] ;
314 -> 315 ;
316 [label="X[2] <= 0.5\ngini = 0.63\nsamples = 6812\nvalue = [752, 206, 3674, 331, 1712, 137]"] ;
315 -> 316 ;
317 [label="X[0] <= -41.5\ngini = 0.509\nsamples = 3568\nvalue = [78, 100, 2247, 25, 1091, 27]"] ;
316 -> 317 ;
318 [label="X[1] <= 57.5\ngini = 0.334\nsamples = 500\nvalue = [2, 16, 66, 0, 402, 14]"] ;
317 -> 318 ;
319 [label="X[3] <= 4.5\ngini = 0.626\nsamples = 65\nvalue = [2, 0, 34, 0, 15, 14]"] ;
318 -> 319 ;
320 [label="X[2] <= -1.0\ngini = 0.556\nsamples = 56\nvalue = [2, 0, 34, 0, 6, 14]"] ;
319 -> 320 ;
321 [label="gini = 0.413\nsamples = 48\nvalue = [0, 0, 34, 0, 0, 14]"] ;
320 -> 321 ;
322 [label="gini = 0.375\nsamples = 8\nvalue = [2, 0, 0, 0, 6, 0]"] ;
320 -> 322 ;
323 [label="gini = 0.0\nsamples = 9\nvalue = [0, 0, 0, 0, 9, 0]"] ;
319 -> 323 ;
324 [label="X[0] <= -80.0\ngini = 0.202\nsamples = 435\nvalue = [0, 16, 32, 0, 387, 0]"] ;
318 -> 324 ;
325 [label="gini = 0.0\nsamples = 9\nvalue = [0, 0, 9, 0, 0, 0]"] ;
324 -> 325 ;
326 [label="X[1] <= 64.5\ngini = 0.17\nsamples = 426\nvalue = [0, 16, 23, 0, 387, 0]"] ;
324 -> 326 ;
327 [label="gini = 0.137\nsamples = 414\nvalue = [0, 9, 21, 0, 384, 0]"] ;
326 -> 327 ;
328 [label="gini = 0.569\nsamples = 12\nvalue = [0, 7, 2, 0, 3, 0]"] ;
326 -> 328 ;
329 [label="X[1] <= 62.5\ngini = 0.443\nsamples = 3068\nvalue = [76, 84, 2181, 25, 689, 13]"] ;
317 -> 329 ;
330 [label="X[1] <= 59.5\ngini = 0.603\nsamples = 1134\nvalue = [44, 75, 547, 7, 451, 10]"] ;
329 -> 330 ;
331 [label="X[0] <= -29.5\ngini = 0.453\nsamples = 616\nvalue = [28, 59, 445, 3, 73, 8]"] ;
330 -> 331 ;
332 [label="gini = 0.299\nsamples = 496\nvalue = [5, 16, 410, 1, 64, 0]"] ;
331 -> 332 ;
333 [label="gini = 0.739\nsamples = 120\nvalue = [23, 43, 35, 2, 9, 8]"] ;
331 -> 333 ;
334 [label="X[0] <= -24.5\ngini = 0.427\nsamples = 518\nvalue = [16, 16, 102, 4, 378, 2]"] ;
330 -> 334 ;
335 [label="gini = 0.149\nsamples = 320\nvalue = [0, 0, 26, 0, 294, 0]"] ;
334 -> 335 ;
336 [label="gini = 0.659\nsamples = 198\nvalue = [16, 16, 76, 4, 84, 2]"] ;
334 -> 336 ;
337 [label="X[3] <= 3.0\ngini = 0.271\nsamples = 1934\nvalue = [32, 9, 1634, 18, 238, 3]"] ;
329 -> 337 ;
338 [label="X[5] <= -6.5\ngini = 0.212\nsamples = 1852\nvalue = [32, 9, 1634, 1, 175, 1]"] ;
337 -> 338 ;
339 [label="gini = 0.5\nsamples = 487\nvalue = [18, 0, 299, 0, 170, 0]"] ;
338 -> 339 ;
340 [label="gini = 0.043\nsamples = 1365\nvalue = [14, 9, 1335, 1, 5, 1]"] ;
338 -> 340 ;
341 [label="X[1] <= 65.5\ngini = 0.366\nsamples = 82\nvalue = [0, 0, 0, 17, 63, 2]"] ;
337 -> 341 ;
342 [label="gini = 0.0\nsamples = 63\nvalue = [0, 0, 0, 0, 63, 0]"] ;
341 -> 342 ;
343 [label="gini = 0.188\nsamples = 19\nvalue = [0, 0, 0, 17, 0, 2]"] ;
341 -> 343 ;
344 [label="X[2] <= 2.5\ngini = 0.716\nsamples = 3244\nvalue = [674, 106, 1427, 306, 621, 110]"] ;
316 -> 344 ;
345 [label="X[5] <= -5.5\ngini = 0.75\nsamples = 884\nvalue = [242, 7, 58, 241, 265, 71]"] ;
344 -> 345 ;
346 [label="X[6] <= -2.5\ngini = 0.143\nsamples = 239\nvalue = [221, 7, 0, 4, 5, 2]"] ;
345 -> 346 ;
347 [label="X[0] <= -63.0\ngini = 0.728\nsamples = 18\nvalue = [1, 7, 0, 3, 5, 2]"] ;
346 -> 347 ;
348 [label="gini = 0.0\nsamples = 4\nvalue = [0, 0, 0, 0, 4, 0]"] ;
347 -> 348 ;
349 [label="gini = 0.673\nsamples = 14\nvalue = [1, 7, 0, 3, 1, 2]"] ;
347 -> 349 ;
350 [label="X[6] <= -1.0\ngini = 0.009\nsamples = 221\nvalue = [220, 0, 0, 1, 0, 0]"] ;
346 -> 350 ;
351 [label="gini = 0.0\nsamples = 220\nvalue = [220, 0, 0, 0, 0, 0]"] ;
350 -> 351 ;
352 [label="gini = 0.0\nsamples = 1\nvalue = [0, 0, 0, 1, 0, 0]"] ;
350 -> 352 ;
353 [label="X[6] <= -4.0\ngini = 0.682\nsamples = 645\nvalue = [21, 0, 58, 237, 260, 69]"] ;
345 -> 353 ;
354 [label="X[0] <= -27.5\ngini = 0.023\nsamples = 169\nvalue = [2, 0, 0, 0, 167, 0]"] ;
353 -> 354 ;
355 [label="gini = 0.0\nsamples = 167\nvalue = [0, 0, 0, 0, 167, 0]"] ;
354 -> 355 ;
356 [label="gini = 0.0\nsamples = 2\nvalue = [2, 0, 0, 0, 0, 0]"] ;
354 -> 356 ;
357 [label="X[4] <= -2.5\ngini = 0.676\nsamples = 476\nvalue = [19, 0, 58, 237, 93, 69]"] ;
353 -> 357 ;
358 [label="gini = 0.55\nsamples = 104\nvalue = [6, 0, 45, 0, 53, 0]"] ;
357 -> 358 ;
359 [label="gini = 0.546\nsamples = 372\nvalue = [13, 0, 13, 237, 40, 69]"] ;
357 -> 359 ;
360 [label="X[0] <= -52.5\ngini = 0.604\nsamples = 2360\nvalue = [432, 99, 1369, 65, 356, 39]"] ;
344 -> 360 ;
361 [label="X[1] <= 59.5\ngini = 0.341\nsamples = 907\nvalue = [82, 0, 727, 12, 81, 5]"] ;
360 -> 361 ;
362 [label="X[1] <= 54.5\ngini = 0.272\nsamples = 97\nvalue = [82, 0, 0, 10, 0, 5]"] ;
361 -> 362 ;
363 [label="gini = 0.0\nsamples = 10\nvalue = [0, 0, 0, 10, 0, 0]"] ;
362 -> 363 ;
364 [label="gini = 0.108\nsamples = 87\nvalue = [82, 0, 0, 0, 0, 5]"] ;
362 -> 364 ;
365 [label="X[5] <= -0.5\ngini = 0.184\nsamples = 810\nvalue = [0, 0, 727, 2, 81, 0]"] ;
361 -> 365 ;
366 [label="gini = 0.031\nsamples = 631\nvalue = [0, 0, 621, 2, 8, 0]"] ;
365 -> 366 ;
367 [label="gini = 0.483\nsamples = 179\nvalue = [0, 0, 106, 0, 73, 0]"] ;
365 -> 367 ;
368 [label="X[0] <= -45.5\ngini = 0.704\nsamples = 1453\nvalue = [350, 99, 642, 53, 275, 34]"] ;
360 -> 368 ;
369 [label="X[5] <= -2.5\ngini = 0.315\nsamples = 161\nvalue = [0, 4, 14, 11, 132, 0]"] ;
368 -> 369 ;
370 [label="gini = 0.158\nsamples = 139\nvalue = [0, 0, 12, 0, 127, 0]"] ;
369 -> 370 ;
371 [label="gini = 0.657\nsamples = 22\nvalue = [0, 4, 2, 11, 5, 0]"] ;
369 -> 371 ;
372 [label="X[0] <= -44.5\ngini = 0.671\nsamples = 1292\nvalue = [350, 95, 628, 42, 143, 34]"] ;
368 -> 372 ;
373 [label="gini = 0.053\nsamples = 149\nvalue = [145, 1, 1, 0, 0, 2]"] ;
372 -> 373 ;
374 [label="gini = 0.642\nsamples = 1143\nvalue = [205, 94, 627, 42, 143, 32]"] ;
372 -> 374 ;
375 [label="X[1] <= 60.5\ngini = 0.674\nsamples = 2029\nvalue = [179, 100, 569, 124, 976, 81]"] ;
315 -> 375 ;
376 [label="X[6] <= -15.5\ngini = 0.689\nsamples = 698\nvalue = [50, 77, 357, 55, 88, 71]"] ;
375 -> 376 ;
377 [label="gini = 0.0\nsamples = 128\nvalue = [0, 0, 128, 0, 0, 0]"] ;
376 -> 377 ;
378 [label="X[2] <= 1.0\ngini = 0.764\nsamples = 570\nvalue = [50, 77, 229, 55, 88, 71]"] ;
376 -> 378 ;
379 [label="X[1] <= 56.5\ngini = 0.582\nsamples = 362\nvalue = [19, 72, 217, 0, 45, 9]"] ;
378 -> 379 ;
380 [label="X[5] <= 3.0\ngini = 0.664\nsamples = 162\nvalue = [19, 69, 60, 0, 6, 8]"] ;
379 -> 380 ;
381 [label="gini = 0.592\nsamples = 115\nvalue = [19, 69, 13, 0, 6, 8]"] ;
380 -> 381 ;
382 [label="gini = 0.0\nsamples = 47\nvalue = [0, 0, 47, 0, 0, 0]"] ;
380 -> 382 ;
383 [label="X[0] <= -46.5\ngini = 0.346\nsamples = 200\nvalue = [0, 3, 157, 0, 39, 1]"] ;
379 -> 383 ;
384 [label="gini = 0.08\nsamples = 24\nvalue = [0, 0, 0, 0, 23, 1]"] ;
383 -> 384 ;
385 [label="gini = 0.196\nsamples = 176\nvalue = [0, 3, 157, 0, 16, 0]"] ;
383 -> 385 ;
386 [label="X[3] <= -4.5\ngini = 0.772\nsamples = 208\nvalue = [31, 5, 12, 55, 43, 62]"] ;
378 -> 386 ;
387 [label="X[3] <= -7.0\ngini = 0.069\nsamples = 28\nvalue = [0, 0, 0, 1, 27, 0]"] ;
386 -> 387 ;
388 [label="gini = 0.0\nsamples = 1\nvalue = [0, 0, 0, 1, 0, 0]"] ;
387 -> 388 ;
389 [label="gini = 0.0\nsamples = 27\nvalue = [0, 0, 0, 0, 27, 0]"] ;
387 -> 389 ;
390 [label="X[0] <= -68.5\ngini = 0.749\nsamples = 180\nvalue = [31, 5, 12, 54, 16, 62]"] ;
386 -> 390 ;
391 [label="gini = 0.297\nsamples = 35\nvalue = [4, 0, 0, 29, 2, 0]"] ;
390 -> 391 ;
392 [label="gini = 0.735\nsamples = 145\nvalue = [27, 5, 12, 25, 14, 62]"] ;
390 -> 392 ;
393 [label="X[2] <= 3.0\ngini = 0.517\nsamples = 1331\nvalue = [129, 23, 212, 69, 888, 10]"] ;
375 -> 393 ;
394 [label="X[1] <= 62.5\ngini = 0.386\nsamples = 1129\nvalue = [16, 23, 155, 67, 868, 0]"] ;
393 -> 394 ;
395 [label="X[4] <= 8.0\ngini = 0.17\nsamples = 654\nvalue = [9, 23, 15, 12, 595, 0]"] ;
394 -> 395 ;
396 [label="X[0] <= -23.0\ngini = 0.039\nsamples = 598\nvalue = [1, 0, 0, 11, 586, 0]"] ;
395 -> 396 ;
397 [label="gini = 0.0\nsamples = 540\nvalue = [0, 0, 0, 0, 540, 0]"] ;
396 -> 397 ;
398 [label="gini = 0.335\nsamples = 58\nvalue = [1, 0, 0, 11, 46, 0]"] ;
396 -> 398 ;
399 [label="X[3] <= -6.0\ngini = 0.713\nsamples = 56\nvalue = [8, 23, 15, 1, 9, 0]"] ;
395 -> 399 ;
400 [label="gini = 0.0\nsamples = 23\nvalue = [0, 23, 0, 0, 0, 0]"] ;
399 -> 400 ;
401 [label="gini = 0.659\nsamples = 33\nvalue = [8, 0, 15, 1, 9, 0]"] ;
399 -> 401 ;
402 [label="X[1] <= 64.5\ngini = 0.569\nsamples = 475\nvalue = [7, 0, 140, 55, 273, 0]"] ;
394 -> 402 ;
403 [label="X[0] <= -46.0\ngini = 0.619\nsamples = 200\nvalue = [5, 0, 106, 48, 41, 0]"] ;
402 -> 403 ;
404 [label="gini = 0.0\nsamples = 45\nvalue = [0, 0, 0, 45, 0, 0]"] ;
403 -> 404 ;
405 [label="gini = 0.461\nsamples = 155\nvalue = [5, 0, 106, 3, 41, 0]"] ;
403 -> 405 ;
406 [label="X[5] <= 10.5\ngini = 0.272\nsamples = 275\nvalue = [2, 0, 34, 7, 232, 0]"] ;
402 -> 406 ;
407 [label="gini = 0.072\nsamples = 241\nvalue = [2, 0, 0, 7, 232, 0]"] ;
406 -> 407 ;
408 [label="gini = 0.0\nsamples = 34\nvalue = [0, 0, 34, 0, 0, 0]"] ;
406 -> 408 ;
409 [label="X[1] <= 62.5\ngini = 0.595\nsamples = 202\nvalue = [113, 0, 57, 2, 20, 10]"] ;
393 -> 409 ;
410 [label="X[4] <= 8.5\ngini = 0.258\nsamples = 63\nvalue = [4, 0, 54, 2, 3, 0]"] ;
409 -> 410 ;
411 [label="X[1] <= 61.5\ngini = 0.036\nsamples = 55\nvalue = [0, 0, 54, 1, 0, 0]"] ;
410 -> 411 ;
412 [label="gini = 0.5\nsamples = 2\nvalue = [0, 0, 1, 1, 0, 0]"] ;
411 -> 412 ;
413 [label="gini = 0.0\nsamples = 53\nvalue = [0, 0, 53, 0, 0, 0]"] ;
411 -> 413 ;
414 [label="X[0] <= -21.5\ngini = 0.594\nsamples = 8\nvalue = [4, 0, 0, 1, 3, 0]"] ;
410 -> 414 ;
415 [label="gini = 0.0\nsamples = 4\nvalue = [4, 0, 0, 0, 0, 0]"] ;
414 -> 415 ;
416 [label="gini = 0.375\nsamples = 4\nvalue = [0, 0, 0, 1, 3, 0]"] ;
414 -> 416 ;
417 [label="X[5] <= 5.0\ngini = 0.364\nsamples = 139\nvalue = [109, 0, 3, 0, 17, 10]"] ;
409 -> 417 ;
418 [label="X[6] <= -7.0\ngini = 0.1\nsamples = 115\nvalue = [109, 0, 3, 0, 3, 0]"] ;
417 -> 418 ;
419 [label="gini = 0.375\nsamples = 4\nvalue = [1, 0, 3, 0, 0, 0]"] ;
418 -> 419 ;
420 [label="gini = 0.053\nsamples = 111\nvalue = [108, 0, 0, 0, 3, 0]"] ;
418 -> 420 ;
421 [label="X[4] <= 8.5\ngini = 0.486\nsamples = 24\nvalue = [0, 0, 0, 0, 14, 10]"] ;
417 -> 421 ;
422 [label="gini = 0.0\nsamples = 10\nvalue = [0, 0, 0, 0, 0, 10]"] ;
421 -> 422 ;
423 [label="gini = 0.0\nsamples = 14\nvalue = [0, 0, 0, 0, 14, 0]"] ;
421 -> 423 ;
424 [label="X[4] <= -9.5\ngini = 0.416\nsamples = 1545\nvalue = [0, 55, 315, 28, 1136, 11]"] ;
314 -> 424 ;
425 [label="X[0] <= -25.5\ngini = 0.477\nsamples = 506\nvalue = [0, 5, 315, 0, 186, 0]"] ;
424 -> 425 ;
426 [label="X[0] <= -50.5\ngini = 0.061\nsamples = 192\nvalue = [0, 0, 6, 0, 186, 0]"] ;
425 -> 426 ;
427 [label="gini = 0.0\nsamples = 4\nvalue = [0, 0, 4, 0, 0, 0]"] ;
426 -> 427 ;
428 [label="X[1] <= 67.5\ngini = 0.021\nsamples = 188\nvalue = [0, 0, 2, 0, 186, 0]"] ;
426 -> 428 ;
429 [label="gini = 0.0\nsamples = 186\nvalue = [0, 0, 0, 0, 186, 0]"] ;
428 -> 429 ;
430 [label="gini = 0.0\nsamples = 2\nvalue = [0, 0, 2, 0, 0, 0]"] ;
428 -> 430 ;
431 [label="X[5] <= -3.5\ngini = 0.031\nsamples = 314\nvalue = [0, 5, 309, 0, 0, 0]"] ;
425 -> 431 ;
432 [label="gini = 0.0\nsamples = 5\nvalue = [0, 5, 0, 0, 0, 0]"] ;
431 -> 432 ;
433 [label="gini = 0.0\nsamples = 309\nvalue = [0, 0, 309, 0, 0, 0]"] ;
431 -> 433 ;
434 [label="X[3] <= 4.5\ngini = 0.161\nsamples = 1039\nvalue = [0, 50, 0, 28, 950, 11]"] ;
424 -> 434 ;
435 [label="X[4] <= 12.5\ngini = 0.098\nsamples = 1001\nvalue = [0, 14, 0, 26, 950, 11]"] ;
434 -> 435 ;
436 [label="X[4] <= 9.0\ngini = 0.051\nsamples = 967\nvalue = [0, 14, 0, 0, 942, 11]"] ;
435 -> 436 ;
437 [label="X[6] <= -14.5\ngini = 0.017\nsamples = 912\nvalue = [0, 0, 0, 0, 904, 8]"] ;
436 -> 437 ;
438 [label="X[4] <= 0.5\ngini = 0.278\nsamples = 6\nvalue = [0, 0, 0, 0, 1, 5]"] ;
437 -> 438 ;
439 [label="gini = 0.0\nsamples = 5\nvalue = [0, 0, 0, 0, 0, 5]"] ;
438 -> 439 ;
440 [label="gini = 0.0\nsamples = 1\nvalue = [0, 0, 0, 0, 1, 0]"] ;
438 -> 440 ;
441 [label="X[0] <= -33.0\ngini = 0.007\nsamples = 906\nvalue = [0, 0, 0, 0, 903, 3]"] ;
437 -> 441 ;
442 [label="gini = 0.058\nsamples = 100\nvalue = [0, 0, 0, 0, 97, 3]"] ;
441 -> 442 ;
443 [label="gini = 0.0\nsamples = 806\nvalue = [0, 0, 0, 0, 806, 0]"] ;
441 -> 443 ;
444 [label="X[6] <= -6.5\ngini = 0.455\nsamples = 55\nvalue = [0, 14, 0, 0, 38, 3]"] ;
436 -> 444 ;
445 [label="gini = 0.0\nsamples = 14\nvalue = [0, 14, 0, 0, 0, 0]"] ;
444 -> 445 ;
446 [label="X[3] <= 0.0\ngini = 0.136\nsamples = 41\nvalue = [0, 0, 0, 0, 38, 3]"] ;
444 -> 446 ;
447 [label="gini = 0.0\nsamples = 2\nvalue = [0, 0, 0, 0, 0, 2]"] ;
446 -> 447 ;
448 [label="gini = 0.05\nsamples = 39\nvalue = [0, 0, 0, 0, 38, 1]"] ;
446 -> 448 ;
449 [label="X[0] <= -27.5\ngini = 0.36\nsamples = 34\nvalue = [0, 0, 0, 26, 8, 0]"] ;
435 -> 449 ;
450 [label="gini = 0.0\nsamples = 26\nvalue = [0, 0, 0, 26, 0, 0]"] ;
449 -> 450 ;
451 [label="gini = 0.0\nsamples = 8\nvalue = [0, 0, 0, 0, 8, 0]"] ;
449 -> 451 ;
452 [label="X[6] <= -13.0\ngini = 0.1\nsamples = 38\nvalue = [0, 36, 0, 2, 0, 0]"] ;
434 -> 452 ;
453 [label="gini = 0.0\nsamples = 2\nvalue = [0, 0, 0, 2, 0, 0]"] ;
452 -> 453 ;
454 [label="gini = 0.0\nsamples = 36\nvalue = [0, 36, 0, 0, 0, 0]"] ;
452 -> 454 ;
455 [label="X[2] <= -3.5\ngini = 0.718\nsamples = 2117\nvalue = [205, 27, 567, 328, 105, 885]"] ;
313 -> 455 ;
456 [label="X[4] <= -2.0\ngini = 0.127\nsamples = 303\nvalue = [3, 1, 283, 8, 4, 4]"] ;
455 -> 456 ;
457 [label="X[1] <= 59.0\ngini = 0.463\nsamples = 11\nvalue = [0, 0, 0, 7, 4, 0]"] ;
456 -> 457 ;
458 [label="gini = 0.0\nsamples = 4\nvalue = [0, 0, 0, 0, 4, 0]"] ;
457 -> 458 ;
459 [label="gini = 0.0\nsamples = 7\nvalue = [0, 0, 0, 7, 0, 0]"] ;
457 -> 459 ;
460 [label="X[3] <= -5.5\ngini = 0.06\nsamples = 292\nvalue = [3, 1, 283, 1, 0, 4]"] ;
456 -> 460 ;
461 [label="X[5] <= -0.5\ngini = 0.56\nsamples = 5\nvalue = [3, 1, 0, 1, 0, 0]"] ;
460 -> 461 ;
462 [label="X[1] <= 59.5\ngini = 0.375\nsamples = 4\nvalue = [3, 1, 0, 0, 0, 0]"] ;
461 -> 462 ;
463 [label="gini = 0.0\nsamples = 1\nvalue = [1, 0, 0, 0, 0, 0]"] ;
462 -> 463 ;
464 [label="gini = 0.444\nsamples = 3\nvalue = [2, 1, 0, 0, 0, 0]"] ;
462 -> 464 ;
465 [label="gini = 0.0\nsamples = 1\nvalue = [0, 0, 0, 1, 0, 0]"] ;
461 -> 465 ;
466 [label="X[5] <= 5.0\ngini = 0.027\nsamples = 287\nvalue = [0, 0, 283, 0, 0, 4]"] ;
460 -> 466 ;
467 [label="gini = 0.0\nsamples = 274\nvalue = [0, 0, 274, 0, 0, 0]"] ;
466 -> 467 ;
468 [label="X[1] <= 67.0\ngini = 0.426\nsamples = 13\nvalue = [0, 0, 9, 0, 0, 4]"] ;
466 -> 468 ;
469 [label="gini = 0.444\nsamples = 6\nvalue = [0, 0, 2, 0, 0, 4]"] ;
468 -> 469 ;
470 [label="gini = 0.0\nsamples = 7\nvalue = [0, 0, 7, 0, 0, 0]"] ;
468 -> 470 ;
471 [label="X[5] <= 1.5\ngini = 0.693\nsamples = 1814\nvalue = [202, 26, 284, 320, 101, 881]"] ;
455 -> 471 ;
472 [label="X[1] <= 66.5\ngini = 0.578\nsamples = 1337\nvalue = [171, 26, 112, 158, 42, 828]"] ;
471 -> 472 ;
473 [label="X[6] <= 6.5\ngini = 0.757\nsamples = 718\nvalue = [133, 23, 95, 158, 42, 267]"] ;
472 -> 473 ;
474 [label="X[6] <= -1.5\ngini = 0.717\nsamples = 610\nvalue = [37, 23, 90, 154, 42, 264]"] ;
473 -> 474 ;
475 [label="X[2] <= 1.0\ngini = 0.713\nsamples = 228\nvalue = [16, 13, 63, 99, 24, 13]"] ;
474 -> 475 ;
476 [label="X[5] <= -6.5\ngini = 0.519\nsamples = 81\nvalue = [2, 12, 53, 0, 14, 0]"] ;
475 -> 476 ;
477 [label="gini = 0.595\nsamples = 17\nvalue = [2, 8, 0, 0, 7, 0]"] ;
476 -> 477 ;
478 [label="gini = 0.298\nsamples = 64\nvalue = [0, 4, 53, 0, 7, 0]"] ;
476 -> 478 ;
479 [label="X[2] <= 3.0\ngini = 0.52\nsamples = 147\nvalue = [14, 1, 10, 99, 10, 13]"] ;
475 -> 479 ;
480 [label="gini = 0.276\nsamples = 110\nvalue = [1, 0, 7, 93, 8, 1]"] ;
479 -> 480 ;
481 [label="gini = 0.735\nsamples = 37\nvalue = [13, 1, 3, 6, 2, 12]"] ;
479 -> 481 ;
482 [label="X[6] <= 4.5\ngini = 0.537\nsamples = 382\nvalue = [21, 10, 27, 55, 18, 251]"] ;
474 -> 482 ;
483 [label="X[5] <= -1.5\ngini = 0.382\nsamples = 324\nvalue = [13, 10, 8, 39, 3, 251]"] ;
482 -> 483 ;
484 [label="gini = 0.63\nsamples = 99\nvalue = [0, 10, 3, 36, 3, 47]"] ;
483 -> 484 ;
485 [label="gini = 0.174\nsamples = 225\nvalue = [13, 0, 5, 3, 0, 204]"] ;
483 -> 485 ;
486 [label="X[1] <= 62.5\ngini = 0.731\nsamples = 58\nvalue = [8, 0, 19, 16, 15, 0]"] ;
482 -> 486 ;
487 [label="gini = 0.645\nsamples = 34\nvalue = [8, 0, 0, 11, 15, 0]"] ;
486 -> 487 ;
488 [label="gini = 0.33\nsamples = 24\nvalue = [0, 0, 19, 5, 0, 0]"] ;
486 -> 488 ;
489 [label="X[0] <= -15.5\ngini = 0.206\nsamples = 108\nvalue = [96, 0, 5, 4, 0, 3]"] ;
473 -> 489 ;
490 [label="X[4] <= -10.5\ngini = 0.469\nsamples = 8\nvalue = [0, 0, 5, 0, 0, 3]"] ;
489 -> 490 ;
491 [label="gini = 0.0\nsamples = 5\nvalue = [0, 0, 5, 0, 0, 0]"] ;
490 -> 491 ;
492 [label="gini = 0.0\nsamples = 3\nvalue = [0, 0, 0, 0, 0, 3]"] ;
490 -> 492 ;
493 [label="X[4] <= -5.0\ngini = 0.077\nsamples = 100\nvalue = [96, 0, 0, 4, 0, 0]"] ;
489 -> 493 ;
494 [label="gini = 0.0\nsamples = 96\nvalue = [96, 0, 0, 0, 0, 0]"] ;
493 -> 494 ;
495 [label="gini = 0.0\nsamples = 4\nvalue = [0, 0, 0, 4, 0, 0]"] ;
493 -> 495 ;
496 [label="X[2] <= 3.0\ngini = 0.174\nsamples = 619\nvalue = [38, 3, 17, 0, 0, 561]"] ;
472 -> 496 ;
497 [label="X[2] <= 1.5\ngini = 0.128\nsamples = 602\nvalue = [38, 3, 0, 0, 0, 561]"] ;
496 -> 497 ;
498 [label="X[5] <= -7.5\ngini = 0.34\nsamples = 184\nvalue = [36, 3, 0, 0, 0, 145]"] ;
497 -> 498 ;
499 [label="gini = 0.459\nsamples = 101\nvalue = [36, 0, 0, 0, 0, 65]"] ;
498 -> 499 ;
500 [label="X[3] <= -1.0\ngini = 0.07\nsamples = 83\nvalue = [0, 3, 0, 0, 0, 80]"] ;
498 -> 500 ;
501 [label="gini = 0.0\nsamples = 3\nvalue = [0, 3, 0, 0, 0, 0]"] ;
500 -> 501 ;
502 [label="gini = 0.0\nsamples = 80\nvalue = [0, 0, 0, 0, 0, 80]"] ;
500 -> 502 ;
503 [label="X[6] <= 1.5\ngini = 0.01\nsamples = 418\nvalue = [2, 0, 0, 0, 0, 416]"] ;
497 -> 503 ;
504 [label="gini = 0.0\nsamples = 368\nvalue = [0, 0, 0, 0, 0, 368]"] ;
503 -> 504 ;
505 [label="X[5] <= -3.5\ngini = 0.077\nsamples = 50\nvalue = [2, 0, 0, 0, 0, 48]"] ;
503 -> 505 ;
506 [label="gini = 0.0\nsamples = 2\nvalue = [2, 0, 0, 0, 0, 0]"] ;
505 -> 506 ;
507 [label="gini = 0.0\nsamples = 48\nvalue = [0, 0, 0, 0, 0, 48]"] ;
505 -> 507 ;
508 [label="gini = 0.0\nsamples = 17\nvalue = [0, 0, 17, 0, 0, 0]"] ;
496 -> 508 ;
509 [label="X[4] <= 2.5\ngini = 0.723\nsamples = 477\nvalue = [31, 0, 172, 162, 59, 53]"] ;
471 -> 509 ;
510 [label="X[2] <= 0.0\ngini = 0.394\nsamples = 195\nvalue = [0, 0, 143, 1, 51, 0]"] ;
509 -> 510 ;
511 [label="gini = 0.0\nsamples = 48\nvalue = [0, 0, 0, 0, 48, 0]"] ;
510 -> 511 ;
512 [label="X[1] <= 67.5\ngini = 0.053\nsamples = 147\nvalue = [0, 0, 143, 1, 3, 0]"] ;
510 -> 512 ;
513 [label="X[5] <= 3.5\ngini = 0.014\nsamples = 144\nvalue = [0, 0, 143, 1, 0, 0]"] ;
512 -> 513 ;
514 [label="X[0] <= -16.0\ngini = 0.045\nsamples = 43\nvalue = [0, 0, 42, 1, 0, 0]"] ;
513 -> 514 ;
515 [label="gini = 0.0\nsamples = 42\nvalue = [0, 0, 42, 0, 0, 0]"] ;
514 -> 515 ;
516 [label="gini = 0.0\nsamples = 1\nvalue = [0, 0, 0, 1, 0, 0]"] ;
514 -> 516 ;
517 [label="gini = 0.0\nsamples = 101\nvalue = [0, 0, 101, 0, 0, 0]"] ;
513 -> 517 ;
518 [label="gini = 0.0\nsamples = 3\nvalue = [0, 0, 0, 0, 3, 0]"] ;
512 -> 518 ;
519 [label="X[1] <= 63.0\ngini = 0.615\nsamples = 282\nvalue = [31, 0, 29, 161, 8, 53]"] ;
509 -> 519 ;
520 [label="X[5] <= 5.5\ngini = 0.69\nsamples = 68\nvalue = [24, 0, 27, 5, 2, 10]"] ;
519 -> 520 ;
521 [label="X[6] <= -0.5\ngini = 0.581\nsamples = 41\nvalue = [24, 0, 0, 5, 2, 10]"] ;
520 -> 521 ;
522 [label="X[1] <= 58.5\ngini = 0.083\nsamples = 23\nvalue = [22, 0, 0, 1, 0, 0]"] ;
521 -> 522 ;
523 [label="gini = 0.0\nsamples = 1\nvalue = [0, 0, 0, 1, 0, 0]"] ;
522 -> 523 ;
524 [label="gini = 0.0\nsamples = 22\nvalue = [22, 0, 0, 0, 0, 0]"] ;
522 -> 524 ;
525 [label="X[4] <= 5.5\ngini = 0.617\nsamples = 18\nvalue = [2, 0, 0, 4, 2, 10]"] ;
521 -> 525 ;
526 [label="gini = 0.444\nsamples = 6\nvalue = [0, 0, 0, 4, 2, 0]"] ;
525 -> 526 ;
527 [label="gini = 0.278\nsamples = 12\nvalue = [2, 0, 0, 0, 0, 10]"] ;
525 -> 527 ;
528 [label="gini = 0.0\nsamples = 27\nvalue = [0, 0, 27, 0, 0, 0]"] ;
520 -> 528 ;
529 [label="X[6] <= 6.5\ngini = 0.426\nsamples = 214\nvalue = [7, 0, 2, 156, 6, 43]"] ;
519 -> 529 ;
530 [label="X[4] <= 10.0\ngini = 0.044\nsamples = 134\nvalue = [0, 0, 2, 131, 0, 1]"] ;
529 -> 530 ;
531 [label="X[3] <= -1.0\ngini = 0.015\nsamples = 132\nvalue = [0, 0, 0, 131, 0, 1]"] ;
530 -> 531 ;
532 [label="gini = 0.5\nsamples = 2\nvalue = [0, 0, 0, 1, 0, 1]"] ;
531 -> 532 ;
533 [label="gini = 0.0\nsamples = 130\nvalue = [0, 0, 0, 130, 0, 0]"] ;
531 -> 533 ;
534 [label="gini = 0.0\nsamples = 2\nvalue = [0, 0, 2, 0, 0, 0]"] ;
530 -> 534 ;
535 [label="X[2] <= 3.0\ngini = 0.613\nsamples = 80\nvalue = [7, 0, 0, 25, 6, 42]"] ;
529 -> 535 ;
536 [label="X[0] <= -16.5\ngini = 0.468\nsamples = 67\nvalue = [0, 0, 0, 25, 0, 42]"] ;
535 -> 536 ;
537 [label="gini = 0.453\nsamples = 26\nvalue = [0, 0, 0, 17, 0, 9]"] ;
536 -> 537 ;
538 [label="gini = 0.314\nsamples = 41\nvalue = [0, 0, 0, 8, 0, 33]"] ;
536 -> 538 ;
539 [label="X[4] <= 8.5\ngini = 0.497\nsamples = 13\nvalue = [7, 0, 0, 0, 6, 0]"] ;
535 -> 539 ;
540 [label="gini = 0.0\nsamples = 7\nvalue = [7, 0, 0, 0, 0, 0]"] ;
539 -> 540 ;
541 [label="gini = 0.0\nsamples = 6\nvalue = [0, 0, 0, 0, 6, 0]"] ;
539 -> 541 ;
542 [label="X[2] <= -3.5\ngini = 0.17\nsamples = 14785\nvalue = [461, 129, 13452, 276, 167, 300]"] ;
2 -> 542 ;
543 [label="X[1] <= 64.5\ngini = 0.044\nsamples = 13533\nvalue = [19, 46, 13231, 40, 117, 80]"] ;
542 -> 543 ;
544 [label="X[3] <= 3.5\ngini = 0.766\nsamples = 190\nvalue = [18, 7, 16, 38, 66, 45]"] ;
543 -> 544 ;
545 [label="X[5] <= -7.5\ngini = 0.754\nsamples = 111\nvalue = [15, 7, 15, 21, 8, 45]"] ;
544 -> 545 ;
546 [label="X[3] <= -6.5\ngini = 0.616\nsamples = 17\nvalue = [0, 2, 5, 9, 0, 1]"] ;
545 -> 546 ;
547 [label="gini = 0.0\nsamples = 9\nvalue = [0, 0, 0, 9, 0, 0]"] ;
546 -> 547 ;
548 [label="X[6] <= -6.5\ngini = 0.531\nsamples = 8\nvalue = [0, 2, 5, 0, 0, 1]"] ;
546 -> 548 ;
549 [label="X[6] <= -12.0\ngini = 0.444\nsamples = 3\nvalue = [0, 2, 0, 0, 0, 1]"] ;
548 -> 549 ;
550 [label="gini = 0.0\nsamples = 2\nvalue = [0, 2, 0, 0, 0, 0]"] ;
549 -> 550 ;
551 [label="gini = 0.0\nsamples = 1\nvalue = [0, 0, 0, 0, 0, 1]"] ;
549 -> 551 ;
552 [label="gini = 0.0\nsamples = 5\nvalue = [0, 0, 5, 0, 0, 0]"] ;
548 -> 552 ;
553 [label="X[6] <= 10.0\ngini = 0.718\nsamples = 94\nvalue = [15, 5, 10, 12, 8, 44]"] ;
545 -> 553 ;
554 [label="X[6] <= 5.5\ngini = 0.681\nsamples = 85\nvalue = [15, 5, 10, 10, 2, 43]"] ;
553 -> 554 ;
555 [label="X[1] <= 55.0\ngini = 0.759\nsamples = 59\nvalue = [10, 5, 9, 10, 2, 23]"] ;
554 -> 555 ;
556 [label="X[3] <= -5.5\ngini = 0.707\nsamples = 50\nvalue = [3, 3, 9, 10, 2, 23]"] ;
555 -> 556 ;
557 [label="X[1] <= 12.5\ngini = 0.417\nsamples = 22\nvalue = [0, 1, 0, 5, 0, 16]"] ;
556 -> 557 ;
558 [label="gini = 0.568\nsamples = 9\nvalue = [0, 1, 0, 5, 0, 3]"] ;
557 -> 558 ;
559 [label="gini = 0.0\nsamples = 13\nvalue = [0, 0, 0, 0, 0, 13]"] ;
557 -> 559 ;
560 [label="X[1] <= 35.5\ngini = 0.781\nsamples = 28\nvalue = [3, 2, 9, 5, 2, 7]"] ;
556 -> 560 ;
561 [label="gini = 0.685\nsamples = 18\nvalue = [3, 2, 9, 2, 2, 0]"] ;
560 -> 561 ;
562 [label="gini = 0.42\nsamples = 10\nvalue = [0, 0, 0, 3, 0, 7]"] ;
560 -> 562 ;
563 [label="X[4] <= 0.0\ngini = 0.346\nsamples = 9\nvalue = [7, 2, 0, 0, 0, 0]"] ;
555 -> 563 ;
564 [label="gini = 0.0\nsamples = 7\nvalue = [7, 0, 0, 0, 0, 0]"] ;
563 -> 564 ;
565 [label="gini = 0.0\nsamples = 2\nvalue = [0, 2, 0, 0, 0, 0]"] ;
563 -> 565 ;
566 [label="X[6] <= 8.5\ngini = 0.37\nsamples = 26\nvalue = [5, 0, 1, 0, 0, 20]"] ;
554 -> 566 ;
567 [label="X[2] <= -5.5\ngini = 0.288\nsamples = 24\nvalue = [3, 0, 1, 0, 0, 20]"] ;
566 -> 567 ;
568 [label="gini = 0.0\nsamples = 1\nvalue = [0, 0, 1, 0, 0, 0]"] ;
567 -> 568 ;
569 [label="X[6] <= 7.5\ngini = 0.227\nsamples = 23\nvalue = [3, 0, 0, 0, 0, 20]"] ;
567 -> 569 ;
570 [label="gini = 0.0\nsamples = 9\nvalue = [0, 0, 0, 0, 0, 9]"] ;
569 -> 570 ;
571 [label="gini = 0.337\nsamples = 14\nvalue = [3, 0, 0, 0, 0, 11]"] ;
569 -> 571 ;
572 [label="gini = 0.0\nsamples = 2\nvalue = [2, 0, 0, 0, 0, 0]"] ;
566 -> 572 ;
573 [label="X[6] <= 13.0\ngini = 0.494\nsamples = 9\nvalue = [0, 0, 0, 2, 6, 1]"] ;
553 -> 573 ;
574 [label="X[5] <= 4.5\ngini = 0.245\nsamples = 7\nvalue = [0, 0, 0, 1, 6, 0]"] ;
573 -> 574 ;
575 [label="gini = 0.375\nsamples = 4\nvalue = [0, 0, 0, 1, 3, 0]"] ;
574 -> 575 ;
576 [label="gini = 0.0\nsamples = 3\nvalue = [0, 0, 0, 0, 3, 0]"] ;
574 -> 576 ;
577 [label="X[1] <= 25.5\ngini = 0.5\nsamples = 2\nvalue = [0, 0, 0, 1, 0, 1]"] ;
573 -> 577 ;
578 [label="gini = 0.0\nsamples = 1\nvalue = [0, 0, 0, 1, 0, 0]"] ;
577 -> 578 ;
579 [label="gini = 0.0\nsamples = 1\nvalue = [0, 0, 0, 0, 0, 1]"] ;
577 -> 579 ;
580 [label="X[5] <= -4.5\ngini = 0.413\nsamples = 79\nvalue = [3, 0, 1, 17, 58, 0]"] ;
544 -> 580 ;
581 [label="X[1] <= 42.5\ngini = 0.39\nsamples = 21\nvalue = [3, 0, 0, 16, 2, 0]"] ;
580 -> 581 ;
582 [label="gini = 0.0\nsamples = 16\nvalue = [0, 0, 0, 16, 0, 0]"] ;
581 -> 582 ;
583 [label="X[1] <= 49.5\ngini = 0.48\nsamples = 5\nvalue = [3, 0, 0, 0, 2, 0]"] ;
581 -> 583 ;
584 [label="gini = 0.0\nsamples = 2\nvalue = [0, 0, 0, 0, 2, 0]"] ;
583 -> 584 ;
585 [label="gini = 0.0\nsamples = 3\nvalue = [3, 0, 0, 0, 0, 0]"] ;
583 -> 585 ;
586 [label="X[1] <= 29.5\ngini = 0.067\nsamples = 58\nvalue = [0, 0, 1, 1, 56, 0]"] ;
580 -> 586 ;
587 [label="gini = 0.0\nsamples = 1\nvalue = [0, 0, 0, 1, 0, 0]"] ;
586 -> 587 ;
588 [label="X[5] <= -2.5\ngini = 0.034\nsamples = 57\nvalue = [0, 0, 1, 0, 56, 0]"] ;
586 -> 588 ;
589 [label="X[0] <= -13.5\ngini = 0.278\nsamples = 6\nvalue = [0, 0, 1, 0, 5, 0]"] ;
588 -> 589 ;
590 [label="gini = 0.0\nsamples = 5\nvalue = [0, 0, 0, 0, 5, 0]"] ;
589 -> 590 ;
591 [label="gini = 0.0\nsamples = 1\nvalue = [0, 0, 1, 0, 0, 0]"] ;
589 -> 591 ;
592 [label="gini = 0.0\nsamples = 51\nvalue = [0, 0, 0, 0, 51, 0]"] ;
588 -> 592 ;
593 [label="X[4] <= -1.5\ngini = 0.019\nsamples = 13343\nvalue = [1, 39, 13215, 2, 51, 35]"] ;
543 -> 593 ;
594 [label="X[4] <= -6.0\ngini = 0.008\nsamples = 13252\nvalue = [0, 0, 13198, 2, 30, 22]"] ;
593 -> 594 ;
595 [label="gini = 0.0\nsamples = 6\nvalue = [0, 0, 0, 0, 6, 0]"] ;
594 -> 595 ;
596 [label="X[1] <= 66.0\ngini = 0.007\nsamples = 13246\nvalue = [0, 0, 13198, 2, 24, 22]"] ;
594 -> 596 ;
597 [label="X[5] <= -2.5\ngini = 0.239\nsamples = 363\nvalue = [0, 0, 315, 2, 24, 22]"] ;
596 -> 597 ;
598 [label="gini = 0.0\nsamples = 315\nvalue = [0, 0, 315, 0, 0, 0]"] ;
597 -> 598 ;
599 [label="X[2] <= -4.5\ngini = 0.538\nsamples = 48\nvalue = [0, 0, 0, 2, 24, 22]"] ;
597 -> 599 ;
600 [label="X[6] <= -1.5\ngini = 0.54\nsamples = 42\nvalue = [0, 0, 0, 2, 18, 22]"] ;
599 -> 600 ;
601 [label="gini = 0.539\nsamples = 32\nvalue = [0, 0, 0, 2, 18, 12]"] ;
600 -> 601 ;
602 [label="gini = 0.0\nsamples = 10\nvalue = [0, 0, 0, 0, 0, 10]"] ;
600 -> 602 ;
603 [label="gini = 0.0\nsamples = 6\nvalue = [0, 0, 0, 0, 6, 0]"] ;
599 -> 603 ;
604 [label="gini = 0.0\nsamples = 12883\nvalue = [0, 0, 12883, 0, 0, 0]"] ;
596 -> 604 ;
605 [label="X[3] <= -1.5\ngini = 0.708\nsamples = 91\nvalue = [1, 39, 17, 0, 21, 13]"] ;
593 -> 605 ;
606 [label="X[1] <= 67.0\ngini = 0.135\nsamples = 42\nvalue = [1, 39, 2, 0, 0, 0]"] ;
605 -> 606 ;
607 [label="gini = 0.0\nsamples = 39\nvalue = [0, 39, 0, 0, 0, 0]"] ;
606 -> 607 ;
608 [label="X[4] <= 1.5\ngini = 0.444\nsamples = 3\nvalue = [1, 0, 2, 0, 0, 0]"] ;
606 -> 608 ;
609 [label="gini = 0.0\nsamples = 2\nvalue = [0, 0, 2, 0, 0, 0]"] ;
608 -> 609 ;
610 [label="gini = 0.0\nsamples = 1\nvalue = [1, 0, 0, 0, 0, 0]"] ;
608 -> 610 ;
611 [label="X[4] <= 0.5\ngini = 0.652\nsamples = 49\nvalue = [0, 0, 15, 0, 21, 13]"] ;
605 -> 611 ;
612 [label="gini = 0.0\nsamples = 21\nvalue = [0, 0, 0, 0, 21, 0]"] ;
611 -> 612 ;
613 [label="X[2] <= -4.5\ngini = 0.497\nsamples = 28\nvalue = [0, 0, 15, 0, 0, 13]"] ;
611 -> 613 ;
614 [label="gini = 0.0\nsamples = 15\nvalue = [0, 0, 15, 0, 0, 0]"] ;
613 -> 614 ;
615 [label="gini = 0.0\nsamples = 13\nvalue = [0, 0, 0, 0, 0, 13]"] ;
613 -> 615 ;
616 [label="X[2] <= 0.5\ngini = 0.772\nsamples = 1252\nvalue = [442, 83, 221, 236, 50, 220]"] ;
542 -> 616 ;
617 [label="X[6] <= 0.5\ngini = 0.677\nsamples = 650\nvalue = [298, 44, 204, 18, 37, 49]"] ;
616 -> 617 ;
618 [label="X[3] <= 3.5\ngini = 0.551\nsamples = 407\nvalue = [257, 29, 83, 11, 7, 20]"] ;
617 -> 618 ;
619 [label="X[5] <= -5.5\ngini = 0.458\nsamples = 354\nvalue = [256, 29, 31, 11, 7, 20]"] ;
618 -> 619 ;
620 [label="X[3] <= -4.5\ngini = 0.713\nsamples = 27\nvalue = [0, 6, 10, 8, 0, 3]"] ;
619 -> 620 ;
621 [label="X[5] <= -9.5\ngini = 0.32\nsamples = 10\nvalue = [0, 0, 0, 8, 0, 2]"] ;
620 -> 621 ;
622 [label="gini = 0.0\nsamples = 2\nvalue = [0, 0, 0, 0, 0, 2]"] ;
621 -> 622 ;
623 [label="gini = 0.0\nsamples = 8\nvalue = [0, 0, 0, 8, 0, 0]"] ;
621 -> 623 ;
624 [label="X[3] <= -2.5\ngini = 0.526\nsamples = 17\nvalue = [0, 6, 10, 0, 0, 1]"] ;
620 -> 624 ;
625 [label="gini = 0.0\nsamples = 5\nvalue = [0, 5, 0, 0, 0, 0]"] ;
624 -> 625 ;
626 [label="X[6] <= -9.0\ngini = 0.292\nsamples = 12\nvalue = [0, 1, 10, 0, 0, 1]"] ;
624 -> 626 ;
627 [label="X[1] <= 52.5\ngini = 0.5\nsamples = 2\nvalue = [0, 1, 0, 0, 0, 1]"] ;
626 -> 627 ;
628 [label="gini = 0.0\nsamples = 1\nvalue = [0, 0, 0, 0, 0, 1]"] ;
627 -> 628 ;
629 [label="gini = 0.0\nsamples = 1\nvalue = [0, 1, 0, 0, 0, 0]"] ;
627 -> 629 ;
630 [label="gini = 0.0\nsamples = 10\nvalue = [0, 0, 10, 0, 0, 0]"] ;
626 -> 630 ;
631 [label="X[5] <= 1.5\ngini = 0.375\nsamples = 327\nvalue = [256, 23, 21, 3, 7, 17]"] ;
619 -> 631 ;
632 [label="X[1] <= 51.0\ngini = 0.275\nsamples = 287\nvalue = [243, 22, 4, 3, 4, 11]"] ;
631 -> 632 ;
633 [label="X[4] <= -9.0\ngini = 0.497\nsamples = 126\nvalue = [86, 21, 2, 3, 3, 11]"] ;
632 -> 633 ;
634 [label="gini = 0.0\nsamples = 6\nvalue = [0, 0, 0, 0, 0, 6]"] ;
633 -> 634 ;
635 [label="X[1] <= 25.5\ngini = 0.452\nsamples = 120\nvalue = [86, 21, 2, 3, 3, 5]"] ;
633 -> 635 ;
636 [label="gini = 0.365\nsamples = 110\nvalue = [86, 16, 2, 1, 0, 5]"] ;
635 -> 636 ;
637 [label="gini = 0.62\nsamples = 10\nvalue = [0, 5, 0, 2, 3, 0]"] ;
635 -> 637 ;
638 [label="X[4] <= -1.0\ngini = 0.049\nsamples = 161\nvalue = [157, 1, 2, 0, 1, 0]"] ;
632 -> 638 ;
639 [label="gini = 0.0\nsamples = 139\nvalue = [139, 0, 0, 0, 0, 0]"] ;
638 -> 639 ;
640 [label="X[4] <= 2.5\ngini = 0.318\nsamples = 22\nvalue = [18, 1, 2, 0, 1, 0]"] ;
638 -> 640 ;
641 [label="gini = 0.625\nsamples = 4\nvalue = [0, 1, 2, 0, 1, 0]"] ;
640 -> 641 ;
642 [label="gini = 0.0\nsamples = 18\nvalue = [18, 0, 0, 0, 0, 0]"] ;
640 -> 642 ;
643 [label="X[1] <= 59.0\ngini = 0.685\nsamples = 40\nvalue = [13, 1, 17, 0, 3, 6]"] ;
631 -> 643 ;
644 [label="X[6] <= -5.0\ngini = 0.566\nsamples = 22\nvalue = [13, 1, 0, 0, 2, 6]"] ;
643 -> 644 ;
645 [label="X[0] <= -13.5\ngini = 0.142\nsamples = 13\nvalue = [12, 0, 0, 0, 1, 0]"] ;
644 -> 645 ;
646 [label="gini = 0.0\nsamples = 1\nvalue = [0, 0, 0, 0, 1, 0]"] ;
645 -> 646 ;
647 [label="gini = 0.0\nsamples = 12\nvalue = [12, 0, 0, 0, 0, 0]"] ;
645 -> 647 ;
648 [label="X[3] <= -1.0\ngini = 0.519\nsamples = 9\nvalue = [1, 1, 0, 0, 1, 6]"] ;
644 -> 648 ;
649 [label="gini = 0.0\nsamples = 6\nvalue = [0, 0, 0, 0, 0, 6]"] ;
648 -> 649 ;
650 [label="gini = 0.667\nsamples = 3\nvalue = [1, 1, 0, 0, 1, 0]"] ;
648 -> 650 ;
651 [label="X[4] <= 6.0\ngini = 0.105\nsamples = 18\nvalue = [0, 0, 17, 0, 1, 0]"] ;
643 -> 651 ;
652 [label="gini = 0.0\nsamples = 17\nvalue = [0, 0, 17, 0, 0, 0]"] ;
651 -> 652 ;
653 [label="gini = 0.0\nsamples = 1\nvalue = [0, 0, 0, 0, 1, 0]"] ;
651 -> 653 ;
654 [label="X[1] <= 38.0\ngini = 0.037\nsamples = 53\nvalue = [1, 0, 52, 0, 0, 0]"] ;
618 -> 654 ;
655 [label="gini = 0.0\nsamples = 1\nvalue = [1, 0, 0, 0, 0, 0]"] ;
654 -> 655 ;
656 [label="gini = 0.0\nsamples = 52\nvalue = [0, 0, 52, 0, 0, 0]"] ;
654 -> 656 ;
657 [label="X[1] <= 61.5\ngini = 0.689\nsamples = 243\nvalue = [41, 15, 121, 7, 30, 29]"] ;
617 -> 657 ;
658 [label="X[1] <= 59.5\ngini = 0.803\nsamples = 115\nvalue = [25, 14, 13, 7, 27, 29]"] ;
657 -> 658 ;
659 [label="X[5] <= 0.5\ngini = 0.786\nsamples = 95\nvalue = [25, 14, 13, 7, 7, 29]"] ;
658 -> 659 ;
660 [label="X[1] <= 19.0\ngini = 0.614\nsamples = 44\nvalue = [9, 1, 1, 2, 6, 25]"] ;
659 -> 660 ;
661 [label="X[4] <= -11.0\ngini = 0.679\nsamples = 18\nvalue = [9, 1, 1, 2, 1, 4]"] ;
660 -> 661 ;
662 [label="X[5] <= -0.5\ngini = 0.571\nsamples = 7\nvalue = [0, 0, 0, 2, 1, 4]"] ;
661 -> 662 ;
663 [label="gini = 0.0\nsamples = 2\nvalue = [0, 0, 0, 2, 0, 0]"] ;
662 -> 663 ;
664 [label="gini = 0.32\nsamples = 5\nvalue = [0, 0, 0, 0, 1, 4]"] ;
662 -> 664 ;
665 [label="X[4] <= -5.0\ngini = 0.314\nsamples = 11\nvalue = [9, 1, 1, 0, 0, 0]"] ;
661 -> 665 ;
666 [label="gini = 0.0\nsamples = 4\nvalue = [4, 0, 0, 0, 0, 0]"] ;
665 -> 666 ;
667 [label="gini = 0.449\nsamples = 7\nvalue = [5, 1, 1, 0, 0, 0]"] ;
665 -> 667 ;
668 [label="X[3] <= 3.5\ngini = 0.311\nsamples = 26\nvalue = [0, 0, 0, 0, 5, 21]"] ;
660 -> 668 ;
669 [label="gini = 0.0\nsamples = 21\nvalue = [0, 0, 0, 0, 0, 21]"] ;
668 -> 669 ;
670 [label="gini = 0.0\nsamples = 5\nvalue = [0, 0, 0, 0, 5, 0]"] ;
668 -> 670 ;
671 [label="X[5] <= 8.5\ngini = 0.765\nsamples = 51\nvalue = [16, 13, 12, 5, 1, 4]"] ;
659 -> 671 ;
672 [label="X[6] <= 12.0\ngini = 0.671\nsamples = 36\nvalue = [16, 12, 3, 0, 1, 4]"] ;
671 -> 672 ;
673 [label="X[1] <= 45.5\ngini = 0.6\nsamples = 32\nvalue = [16, 12, 3, 0, 1, 0]"] ;
672 -> 673 ;
674 [label="gini = 0.599\nsamples = 18\nvalue = [5, 10, 2, 0, 1, 0]"] ;
673 -> 674 ;
675 [label="gini = 0.357\nsamples = 14\nvalue = [11, 2, 1, 0, 0, 0]"] ;
673 -> 675 ;
676 [label="gini = 0.0\nsamples = 4\nvalue = [0, 0, 0, 0, 0, 4]"] ;
672 -> 676 ;
677 [label="X[2] <= -0.5\ngini = 0.524\nsamples = 15\nvalue = [0, 1, 9, 5, 0, 0]"] ;
671 -> 677 ;
678 [label="X[0] <= -13.5\ngini = 0.278\nsamples = 6\nvalue = [0, 1, 0, 5, 0, 0]"] ;
677 -> 678 ;
679 [label="gini = 0.444\nsamples = 3\nvalue = [0, 1, 0, 2, 0, 0]"] ;
678 -> 679 ;
680 [label="gini = 0.0\nsamples = 3\nvalue = [0, 0, 0, 3, 0, 0]"] ;
678 -> 680 ;
681 [label="gini = 0.0\nsamples = 9\nvalue = [0, 0, 9, 0, 0, 0]"] ;
677 -> 681 ;
682 [label="gini = 0.0\nsamples = 20\nvalue = [0, 0, 0, 0, 20, 0]"] ;
658 -> 682 ;
683 [label="X[0] <= -13.5\ngini = 0.272\nsamples = 128\nvalue = [16, 1, 108, 0, 3, 0]"] ;
657 -> 683 ;
684 [label="gini = 0.0\nsamples = 16\nvalue = [16, 0, 0, 0, 0, 0]"] ;
683 -> 684 ;
685 [label="X[3] <= 0.0\ngini = 0.069\nsamples = 112\nvalue = [0, 1, 108, 0, 3, 0]"] ;
683 -> 685 ;
686 [label="X[6] <= 6.5\ngini = 0.375\nsamples = 4\nvalue = [0, 1, 0, 0, 3, 0]"] ;
685 -> 686 ;
687 [label="gini = 0.0\nsamples = 1\nvalue = [0, 1, 0, 0, 0, 0]"] ;
686 -> 687 ;
688 [label="gini = 0.0\nsamples = 3\nvalue = [0, 0, 0, 0, 3, 0]"] ;
686 -> 688 ;
689 [label="gini = 0.0\nsamples = 108\nvalue = [0, 0, 108, 0, 0, 0]"] ;
685 -> 689 ;
690 [label="X[4] <= -0.5\ngini = 0.725\nsamples = 602\nvalue = [144, 39, 17, 218, 13, 171]"] ;
616 -> 690 ;
691 [label="X[6] <= 0.5\ngini = 0.428\nsamples = 244\nvalue = [9, 2, 3, 177, 2, 51]"] ;
690 -> 691 ;
692 [label="X[6] <= -4.5\ngini = 0.581\nsamples = 86\nvalue = [7, 0, 0, 32, 2, 45]"] ;
691 -> 692 ;
693 [label="X[3] <= 21.5\ngini = 0.164\nsamples = 34\nvalue = [1, 0, 0, 31, 2, 0]"] ;
692 -> 693 ;
694 [label="gini = 0.0\nsamples = 31\nvalue = [0, 0, 0, 31, 0, 0]"] ;
693 -> 694 ;
695 [label="X[6] <= -10.5\ngini = 0.444\nsamples = 3\nvalue = [1, 0, 0, 0, 2, 0]"] ;
693 -> 695 ;
696 [label="gini = 0.0\nsamples = 1\nvalue = [1, 0, 0, 0, 0, 0]"] ;
695 -> 696 ;
697 [label="gini = 0.0\nsamples = 2\nvalue = [0, 0, 0, 0, 2, 0]"] ;
695 -> 697 ;
698 [label="X[5] <= -3.5\ngini = 0.237\nsamples = 52\nvalue = [6, 0, 0, 1, 0, 45]"] ;
692 -> 698 ;
699 [label="gini = 0.0\nsamples = 45\nvalue = [0, 0, 0, 0, 0, 45]"] ;
698 -> 699 ;
700 [label="X[6] <= -1.0\ngini = 0.245\nsamples = 7\nvalue = [6, 0, 0, 1, 0, 0]"] ;
698 -> 700 ;
701 [label="gini = 0.0\nsamples = 1\nvalue = [0, 0, 0, 1, 0, 0]"] ;
700 -> 701 ;
702 [label="gini = 0.0\nsamples = 6\nvalue = [6, 0, 0, 0, 0, 0]"] ;
700 -> 702 ;
703 [label="X[2] <= 3.0\ngini = 0.156\nsamples = 158\nvalue = [2, 2, 3, 145, 0, 6]"] ;
691 -> 703 ;
704 [label="X[1] <= 66.5\ngini = 0.1\nsamples = 153\nvalue = [2, 0, 0, 145, 0, 6]"] ;
703 -> 704 ;
705 [label="X[3] <= 0.0\ngini = 0.041\nsamples = 144\nvalue = [2, 0, 0, 141, 0, 1]"] ;
704 -> 705 ;
706 [label="gini = 0.0\nsamples = 2\nvalue = [2, 0, 0, 0, 0, 0]"] ;
705 -> 706 ;
707 [label="X[5] <= -4.0\ngini = 0.014\nsamples = 142\nvalue = [0, 0, 0, 141, 0, 1]"] ;
705 -> 707 ;
708 [label="X[0] <= -13.5\ngini = 0.5\nsamples = 2\nvalue = [0, 0, 0, 1, 0, 1]"] ;
707 -> 708 ;
709 [label="gini = 0.0\nsamples = 1\nvalue = [0, 0, 0, 0, 0, 1]"] ;
708 -> 709 ;
710 [label="gini = 0.0\nsamples = 1\nvalue = [0, 0, 0, 1, 0, 0]"] ;
708 -> 710 ;
711 [label="gini = 0.0\nsamples = 140\nvalue = [0, 0, 0, 140, 0, 0]"] ;
707 -> 711 ;
712 [label="X[1] <= 67.5\ngini = 0.494\nsamples = 9\nvalue = [0, 0, 0, 4, 0, 5]"] ;
704 -> 712 ;
713 [label="gini = 0.0\nsamples = 5\nvalue = [0, 0, 0, 0, 0, 5]"] ;
712 -> 713 ;
714 [label="gini = 0.0\nsamples = 4\nvalue = [0, 0, 0, 4, 0, 0]"] ;
712 -> 714 ;
715 [label="X[4] <= -8.0\ngini = 0.48\nsamples = 5\nvalue = [0, 2, 3, 0, 0, 0]"] ;
703 -> 715 ;
716 [label="gini = 0.0\nsamples = 2\nvalue = [0, 2, 0, 0, 0, 0]"] ;
715 -> 716 ;
717 [label="gini = 0.0\nsamples = 3\nvalue = [0, 0, 3, 0, 0, 0]"] ;
715 -> 717 ;
718 [label="X[1] <= 66.5\ngini = 0.719\nsamples = 358\nvalue = [135, 37, 14, 41, 11, 120]"] ;
690 -> 718 ;
719 [label="X[1] <= 16.5\ngini = 0.714\nsamples = 306\nvalue = [135, 37, 10, 39, 11, 74]"] ;
718 -> 719 ;
720 [label="gini = 0.0\nsamples = 12\nvalue = [0, 12, 0, 0, 0, 0]"] ;
719 -> 720 ;
721 [label="X[1] <= 62.5\ngini = 0.698\nsamples = 294\nvalue = [135, 25, 10, 39, 11, 74]"] ;
719 -> 721 ;
722 [label="X[2] <= 2.5\ngini = 0.716\nsamples = 224\nvalue = [88, 23, 4, 29, 9, 71]"] ;
721 -> 722 ;
723 [label="X[3] <= 2.5\ngini = 0.67\nsamples = 32\nvalue = [2, 8, 2, 16, 1, 3]"] ;
722 -> 723 ;
724 [label="X[0] <= -13.5\ngini = 0.524\nsamples = 24\nvalue = [2, 0, 2, 16, 1, 3]"] ;
723 -> 724 ;
725 [label="gini = 0.117\nsamples = 16\nvalue = [0, 0, 0, 15, 0, 1]"] ;
724 -> 725 ;
726 [label="gini = 0.781\nsamples = 8\nvalue = [2, 0, 2, 1, 1, 2]"] ;
724 -> 726 ;
727 [label="gini = 0.0\nsamples = 8\nvalue = [0, 8, 0, 0, 0, 0]"] ;
723 -> 727 ;
728 [label="X[1] <= 52.5\ngini = 0.661\nsamples = 192\nvalue = [86, 15, 2, 13, 8, 68]"] ;
722 -> 728 ;
729 [label="X[3] <= 3.5\ngini = 0.558\nsamples = 94\nvalue = [58, 13, 0, 1, 3, 19]"] ;
728 -> 729 ;
730 [label="gini = 0.519\nsamples = 90\nvalue = [58, 13, 0, 0, 0, 19]"] ;
729 -> 730 ;
731 [label="gini = 0.375\nsamples = 4\nvalue = [0, 0, 0, 1, 3, 0]"] ;
729 -> 731 ;
732 [label="X[0] <= -12.5\ngini = 0.65\nsamples = 98\nvalue = [28, 2, 2, 12, 5, 49]"] ;
728 -> 732 ;
733 [label="gini = 0.555\nsamples = 76\nvalue = [28, 0, 2, 4, 0, 42]"] ;
732 -> 733 ;
734 [label="gini = 0.707\nsamples = 22\nvalue = [0, 2, 0, 8, 5, 7]"] ;
732 -> 734 ;
735 [label="X[4] <= 3.5\ngini = 0.518\nsamples = 70\nvalue = [47, 2, 6, 10, 2, 3]"] ;
721 -> 735 ;
736 [label="X[2] <= 21.5\ngini = 0.219\nsamples = 8\nvalue = [1, 0, 0, 7, 0, 0]"] ;
735 -> 736 ;
737 [label="gini = 0.0\nsamples = 7\nvalue = [0, 0, 0, 7, 0, 0]"] ;
736 -> 737 ;
738 [label="gini = 0.0\nsamples = 1\nvalue = [1, 0, 0, 0, 0, 0]"] ;
736 -> 738 ;
739 [label="X[4] <= 10.5\ngini = 0.433\nsamples = 62\nvalue = [46, 2, 6, 3, 2, 3]"] ;
735 -> 739 ;
740 [label="X[1] <= 63.5\ngini = 0.222\nsamples = 49\nvalue = [43, 0, 3, 3, 0, 0]"] ;
739 -> 740 ;
741 [label="gini = 0.375\nsamples = 4\nvalue = [1, 0, 3, 0, 0, 0]"] ;
740 -> 741 ;
742 [label="gini = 0.124\nsamples = 45\nvalue = [42, 0, 0, 3, 0, 0]"] ;
740 -> 742 ;
743 [label="X[4] <= 12.5\ngini = 0.793\nsamples = 13\nvalue = [3, 2, 3, 0, 2, 3]"] ;
739 -> 743 ;
744 [label="gini = 0.74\nsamples = 10\nvalue = [3, 2, 0, 0, 2, 3]"] ;
743 -> 744 ;
745 [label="gini = 0.0\nsamples = 3\nvalue = [0, 0, 3, 0, 0, 0]"] ;
743 -> 745 ;
746 [label="X[0] <= -12.5\ngini = 0.21\nsamples = 52\nvalue = [0, 0, 4, 2, 0, 46]"] ;
718 -> 746 ;
747 [label="gini = 0.0\nsamples = 46\nvalue = [0, 0, 0, 0, 0, 46]"] ;
746 -> 747 ;
748 [label="X[5] <= 1.5\ngini = 0.444\nsamples = 6\nvalue = [0, 0, 4, 2, 0, 0]"] ;
746 -> 748 ;
749 [label="gini = 0.0\nsamples = 2\nvalue = [0, 0, 0, 2, 0, 0]"] ;
748 -> 749 ;
750 [label="gini = 0.0\nsamples = 4\nvalue = [0, 0, 4, 0, 0, 0]"] ;
748 -> 750 ;
751 [label="X[6] <= -14.5\ngini = 0.478\nsamples = 36840\nvalue = [459, 596, 9010, 1136, 24993, 646]"] ;
1 -> 751 ;
752 [label="X[6] <= -16.5\ngini = 0.026\nsamples = 11318\nvalue = [10, 40, 71, 23, 11169, 5]"] ;
751 -> 752 ;
753 [label="X[1] <= 76.0\ngini = 0.569\nsamples = 123\nvalue = [9, 39, 70, 0, 0, 5]"] ;
752 -> 753 ;
754 [label="X[0] <= -30.0\ngini = 0.291\nsamples = 84\nvalue = [9, 0, 70, 0, 0, 5]"] ;
753 -> 754 ;
755 [label="gini = 0.0\nsamples = 9\nvalue = [9, 0, 0, 0, 0, 0]"] ;
754 -> 755 ;
756 [label="X[0] <= -16.5\ngini = 0.124\nsamples = 75\nvalue = [0, 0, 70, 0, 0, 5]"] ;
754 -> 756 ;
757 [label="gini = 0.0\nsamples = 70\nvalue = [0, 0, 70, 0, 0, 0]"] ;
756 -> 757 ;
758 [label="gini = 0.0\nsamples = 5\nvalue = [0, 0, 0, 0, 0, 5]"] ;
756 -> 758 ;
759 [label="gini = 0.0\nsamples = 39\nvalue = [0, 39, 0, 0, 0, 0]"] ;
753 -> 759 ;
760 [label="X[1] <= 73.5\ngini = 0.005\nsamples = 11195\nvalue = [1, 1, 1, 23, 11169, 0]"] ;
752 -> 760 ;
761 [label="X[3] <= 2.5\ngini = 0.0\nsamples = 11171\nvalue = [0, 0, 1, 1, 11169, 0]"] ;
760 -> 761 ;
762 [label="gini = 0.0\nsamples = 11169\nvalue = [0, 0, 0, 0, 11169, 0]"] ;
761 -> 762 ;
763 [label="X[0] <= -14.5\ngini = 0.5\nsamples = 2\nvalue = [0, 0, 1, 1, 0, 0]"] ;
761 -> 763 ;
764 [label="gini = 0.0\nsamples = 1\nvalue = [0, 0, 1, 0, 0, 0]"] ;
763 -> 764 ;
765 [label="gini = 0.0\nsamples = 1\nvalue = [0, 0, 0, 1, 0, 0]"] ;
763 -> 765 ;
766 [label="X[3] <= 5.0\ngini = 0.156\nsamples = 24\nvalue = [1, 1, 0, 22, 0, 0]"] ;
760 -> 766 ;
767 [label="gini = 0.0\nsamples = 22\nvalue = [0, 0, 0, 22, 0, 0]"] ;
766 -> 767 ;
768 [label="X[4] <= -5.0\ngini = 0.5\nsamples = 2\nvalue = [1, 1, 0, 0, 0, 0]"] ;
766 -> 768 ;
769 [label="gini = 0.0\nsamples = 1\nvalue = [0, 1, 0, 0, 0, 0]"] ;
768 -> 769 ;
770 [label="gini = 0.0\nsamples = 1\nvalue = [1, 0, 0, 0, 0, 0]"] ;
768 -> 770 ;
771 [label="X[6] <= 4.5\ngini = 0.581\nsamples = 25522\nvalue = [449, 556, 8939, 1113, 13824, 641]"] ;
751 -> 771 ;
772 [label="X[2] <= -1.5\ngini = 0.589\nsamples = 9681\nvalue = [356, 334, 5799, 721, 1963, 508]"] ;
771 -> 772 ;
773 [label="X[1] <= 76.5\ngini = 0.438\nsamples = 7281\nvalue = [303, 328, 5373, 429, 713, 135]"] ;
772 -> 773 ;
774 [label="X[6] <= -10.5\ngini = 0.324\nsamples = 6576\nvalue = [227, 33, 5354, 148, 681, 133]"] ;
773 -> 774 ;
775 [label="X[3] <= 4.0\ngini = 0.049\nsamples = 2743\nvalue = [0, 4, 2674, 31, 34, 0]"] ;
774 -> 775 ;
776 [label="X[5] <= -5.5\ngini = 0.028\nsamples = 2708\nvalue = [0, 4, 2670, 0, 34, 0]"] ;
775 -> 776 ;
777 [label="gini = 0.0\nsamples = 2595\nvalue = [0, 0, 2595, 0, 0, 0]"] ;
776 -> 777 ;
778 [label="X[1] <= 70.5\ngini = 0.468\nsamples = 113\nvalue = [0, 4, 75, 0, 34, 0]"] ;
776 -> 778 ;
779 [label="gini = 0.0\nsamples = 34\nvalue = [0, 0, 0, 0, 34, 0]"] ;
778 -> 779 ;
780 [label="X[0] <= -27.0\ngini = 0.096\nsamples = 79\nvalue = [0, 4, 75, 0, 0, 0]"] ;
778 -> 780 ;
781 [label="gini = 0.0\nsamples = 65\nvalue = [0, 0, 65, 0, 0, 0]"] ;
780 -> 781 ;
782 [label="X[0] <= -21.5\ngini = 0.408\nsamples = 14\nvalue = [0, 4, 10, 0, 0, 0]"] ;
780 -> 782 ;
783 [label="gini = 0.0\nsamples = 4\nvalue = [0, 4, 0, 0, 0, 0]"] ;
782 -> 783 ;
784 [label="gini = 0.0\nsamples = 10\nvalue = [0, 0, 10, 0, 0, 0]"] ;
782 -> 784 ;
785 [label="X[0] <= -61.0\ngini = 0.202\nsamples = 35\nvalue = [0, 0, 4, 31, 0, 0]"] ;
775 -> 785 ;
786 [label="gini = 0.0\nsamples = 4\nvalue = [0, 0, 4, 0, 0, 0]"] ;
785 -> 786 ;
787 [label="gini = 0.0\nsamples = 31\nvalue = [0, 0, 0, 31, 0, 0]"] ;
785 -> 787 ;
788 [label="X[5] <= -7.5\ngini = 0.477\nsamples = 3833\nvalue = [227, 29, 2680, 117, 647, 133]"] ;
774 -> 788 ;
789 [label="X[4] <= -9.0\ngini = 0.473\nsamples = 636\nvalue = [16, 28, 145, 10, 437, 0]"] ;
788 -> 789 ;
790 [label="gini = 0.0\nsamples = 359\nvalue = [0, 0, 0, 0, 359, 0]"] ;
789 -> 790 ;
791 [label="X[2] <= -3.5\ngini = 0.632\nsamples = 277\nvalue = [16, 28, 145, 10, 78, 0]"] ;
789 -> 791 ;
792 [label="X[1] <= 73.5\ngini = 0.049\nsamples = 80\nvalue = [0, 0, 0, 2, 78, 0]"] ;
791 -> 792 ;
793 [label="gini = 0.0\nsamples = 78\nvalue = [0, 0, 0, 0, 78, 0]"] ;
792 -> 793 ;
794 [label="gini = 0.0\nsamples = 2\nvalue = [0, 0, 0, 2, 0, 0]"] ;
792 -> 794 ;
795 [label="X[1] <= 71.5\ngini = 0.43\nsamples = 197\nvalue = [16, 28, 145, 8, 0, 0]"] ;
791 -> 795 ;
796 [label="gini = 0.0\nsamples = 128\nvalue = [0, 0, 128, 0, 0, 0]"] ;
795 -> 796 ;
797 [label="X[1] <= 73.5\ngini = 0.707\nsamples = 69\nvalue = [16, 28, 17, 8, 0, 0]"] ;
795 -> 797 ;
798 [label="gini = 0.47\nsamples = 45\nvalue = [0, 28, 17, 0, 0, 0]"] ;
797 -> 798 ;
799 [label="gini = 0.444\nsamples = 24\nvalue = [16, 0, 0, 8, 0, 0]"] ;
797 -> 799 ;
800 [label="X[6] <= -7.5\ngini = 0.36\nsamples = 3197\nvalue = [211, 1, 2535, 107, 210, 133]"] ;
788 -> 800 ;
801 [label="X[5] <= -1.5\ngini = 0.479\nsamples = 190\nvalue = [27, 0, 9, 17, 4, 133]"] ;
800 -> 801 ;
802 [label="X[0] <= -50.0\ngini = 0.492\nsamples = 39\nvalue = [26, 0, 9, 0, 4, 0]"] ;
801 -> 802 ;
803 [label="gini = 0.0\nsamples = 6\nvalue = [0, 0, 6, 0, 0, 0]"] ;
802 -> 803 ;
804 [label="X[5] <= -3.5\ngini = 0.356\nsamples = 33\nvalue = [26, 0, 3, 0, 4, 0]"] ;
802 -> 804 ;
805 [label="gini = 0.231\nsamples = 30\nvalue = [26, 0, 0, 0, 4, 0]"] ;
804 -> 805 ;
806 [label="gini = 0.0\nsamples = 3\nvalue = [0, 0, 3, 0, 0, 0]"] ;
804 -> 806 ;
807 [label="X[6] <= -8.5\ngini = 0.211\nsamples = 151\nvalue = [1, 0, 0, 17, 0, 133]"] ;
801 -> 807 ;
808 [label="gini = 0.0\nsamples = 133\nvalue = [0, 0, 0, 0, 0, 133]"] ;
807 -> 808 ;
809 [label="X[1] <= 73.5\ngini = 0.105\nsamples = 18\nvalue = [1, 0, 0, 17, 0, 0]"] ;
807 -> 809 ;
810 [label="gini = 0.0\nsamples = 17\nvalue = [0, 0, 0, 17, 0, 0]"] ;
809 -> 810 ;
811 [label="gini = 0.0\nsamples = 1\nvalue = [1, 0, 0, 0, 0, 0]"] ;
809 -> 811 ;
812 [label="X[0] <= -25.5\ngini = 0.285\nsamples = 3007\nvalue = [184, 1, 2526, 90, 206, 0]"] ;
800 -> 812 ;
813 [label="X[4] <= -11.5\ngini = 0.737\nsamples = 263\nvalue = [90, 0, 66, 54, 53, 0]"] ;
812 -> 813 ;
814 [label="X[0] <= -27.0\ngini = 0.059\nsamples = 66\nvalue = [2, 0, 64, 0, 0, 0]"] ;
813 -> 814 ;
815 [label="gini = 0.0\nsamples = 64\nvalue = [0, 0, 64, 0, 0, 0]"] ;
814 -> 815 ;
816 [label="gini = 0.0\nsamples = 2\nvalue = [2, 0, 0, 0, 0, 0]"] ;
814 -> 816 ;
817 [label="X[5] <= 1.5\ngini = 0.653\nsamples = 197\nvalue = [88, 0, 2, 54, 53, 0]"] ;
813 -> 817 ;
818 [label="gini = 0.066\nsamples = 89\nvalue = [86, 0, 2, 0, 1, 0]"] ;
817 -> 818 ;
819 [label="gini = 0.518\nsamples = 108\nvalue = [2, 0, 0, 54, 52, 0]"] ;
817 -> 819 ;
820 [label="X[1] <= 71.5\ngini = 0.192\nsamples = 2744\nvalue = [94, 1, 2460, 36, 153, 0]"] ;
812 -> 820 ;
821 [label="X[4] <= 0.5\ngini = 0.08\nsamples = 1644\nvalue = [0, 0, 1575, 1, 68, 0]"] ;
820 -> 821 ;
822 [label="gini = 0.0\nsamples = 1249\nvalue = [0, 0, 1249, 0, 0, 0]"] ;
821 -> 822 ;
823 [label="gini = 0.289\nsamples = 395\nvalue = [0, 0, 326, 1, 68, 0]"] ;
821 -> 823 ;
824 [label="X[5] <= -4.5\ngini = 0.338\nsamples = 1100\nvalue = [94, 1, 885, 35, 85, 0]"] ;
820 -> 824 ;
825 [label="gini = 0.055\nsamples = 71\nvalue = [69, 1, 0, 0, 1, 0]"] ;
824 -> 825 ;
826 [label="gini = 0.252\nsamples = 1029\nvalue = [25, 0, 885, 35, 84, 0]"] ;
824 -> 826 ;
827 [label="X[0] <= -34.0\ngini = 0.652\nsamples = 705\nvalue = [76, 295, 19, 281, 32, 2]"] ;
773 -> 827 ;
828 [label="X[1] <= 79.5\ngini = 0.394\nsamples = 292\nvalue = [1, 42, 0, 222, 25, 2]"] ;
827 -> 828 ;
829 [label="X[4] <= -0.5\ngini = 0.611\nsamples = 70\nvalue = [0, 36, 0, 13, 21, 0]"] ;
828 -> 829 ;
830 [label="gini = 0.0\nsamples = 35\nvalue = [0, 35, 0, 0, 0, 0]"] ;
829 -> 830 ;
831 [label="X[4] <= 3.0\ngini = 0.501\nsamples = 35\nvalue = [0, 1, 0, 13, 21, 0]"] ;
829 -> 831 ;
832 [label="gini = 0.0\nsamples = 21\nvalue = [0, 0, 0, 0, 21, 0]"] ;
831 -> 832 ;
833 [label="X[1] <= 78.5\ngini = 0.133\nsamples = 14\nvalue = [0, 1, 0, 13, 0, 0]"] ;
831 -> 833 ;
834 [label="gini = 0.0\nsamples = 13\nvalue = [0, 0, 0, 13, 0, 0]"] ;
833 -> 834 ;
835 [label="gini = 0.0\nsamples = 1\nvalue = [0, 1, 0, 0, 0, 0]"] ;
833 -> 835 ;
836 [label="X[1] <= 82.5\ngini = 0.113\nsamples = 222\nvalue = [1, 6, 0, 209, 4, 2]"] ;
828 -> 836 ;
837 [label="X[3] <= 1.5\ngini = 0.063\nsamples = 216\nvalue = [1, 0, 0, 209, 4, 2]"] ;
836 -> 837 ;
838 [label="gini = 0.0\nsamples = 4\nvalue = [0, 0, 0, 0, 4, 0]"] ;
837 -> 838 ;
839 [label="X[5] <= -1.5\ngini = 0.028\nsamples = 212\nvalue = [1, 0, 0, 209, 0, 2]"] ;
837 -> 839 ;
840 [label="X[6] <= -4.0\ngini = 0.088\nsamples = 66\nvalue = [1, 0, 0, 63, 0, 2]"] ;
839 -> 840 ;
841 [label="gini = 0.031\nsamples = 64\nvalue = [1, 0, 0, 63, 0, 0]"] ;
840 -> 841 ;
842 [label="gini = 0.0\nsamples = 2\nvalue = [0, 0, 0, 0, 0, 2]"] ;
840 -> 842 ;
843 [label="gini = 0.0\nsamples = 146\nvalue = [0, 0, 0, 146, 0, 0]"] ;
839 -> 843 ;
844 [label="gini = 0.0\nsamples = 6\nvalue = [0, 6, 0, 0, 0, 0]"] ;
836 -> 844 ;
845 [label="X[1] <= 77.5\ngini = 0.569\nsamples = 413\nvalue = [75, 253, 19, 59, 7, 0]"] ;
827 -> 845 ;
846 [label="X[2] <= -3.5\ngini = 0.096\nsamples = 79\nvalue = [75, 0, 4, 0, 0, 0]"] ;
845 -> 846 ;
847 [label="gini = 0.0\nsamples = 4\nvalue = [0, 0, 4, 0, 0, 0]"] ;
846 -> 847 ;
848 [label="gini = 0.0\nsamples = 75\nvalue = [75, 0, 0, 0, 0, 0]"] ;
846 -> 848 ;
849 [label="X[6] <= -13.5\ngini = 0.393\nsamples = 334\nvalue = [0, 253, 15, 59, 7, 0]"] ;
845 -> 849 ;
850 [label="X[4] <= 1.0\ngini = 0.244\nsamples = 44\nvalue = [0, 2, 4, 38, 0, 0]"] ;
849 -> 850 ;
851 [label="X[5] <= -7.0\ngini = 0.444\nsamples = 6\nvalue = [0, 2, 4, 0, 0, 0]"] ;
850 -> 851 ;
852 [label="gini = 0.0\nsamples = 4\nvalue = [0, 0, 4, 0, 0, 0]"] ;
851 -> 852 ;
853 [label="gini = 0.0\nsamples = 2\nvalue = [0, 2, 0, 0, 0, 0]"] ;
851 -> 853 ;
854 [label="gini = 0.0\nsamples = 38\nvalue = [0, 0, 0, 38, 0, 0]"] ;
850 -> 854 ;
855 [label="X[4] <= -5.5\ngini = 0.244\nsamples = 290\nvalue = [0, 251, 11, 21, 7, 0]"] ;
849 -> 855 ;
856 [label="X[2] <= -2.5\ngini = 0.67\nsamples = 34\nvalue = [0, 11, 8, 14, 1, 0]"] ;
855 -> 856 ;
857 [label="X[2] <= -3.5\ngini = 0.535\nsamples = 20\nvalue = [0, 11, 8, 0, 1, 0]"] ;
856 -> 857 ;
858 [label="gini = 0.198\nsamples = 9\nvalue = [0, 0, 8, 0, 1, 0]"] ;
857 -> 858 ;
859 [label="gini = 0.0\nsamples = 11\nvalue = [0, 11, 0, 0, 0, 0]"] ;
857 -> 859 ;
860 [label="gini = 0.0\nsamples = 14\nvalue = [0, 0, 0, 14, 0, 0]"] ;
856 -> 860 ;
861 [label="X[2] <= -4.5\ngini = 0.12\nsamples = 256\nvalue = [0, 240, 3, 7, 6, 0]"] ;
855 -> 861 ;
862 [label="X[5] <= -3.0\ngini = 0.278\nsamples = 6\nvalue = [0, 0, 1, 0, 5, 0]"] ;
861 -> 862 ;
863 [label="gini = 0.0\nsamples = 5\nvalue = [0, 0, 0, 0, 5, 0]"] ;
862 -> 863 ;
864 [label="gini = 0.0\nsamples = 1\nvalue = [0, 0, 1, 0, 0, 0]"] ;
862 -> 864 ;
865 [label="X[6] <= 3.0\ngini = 0.078\nsamples = 250\nvalue = [0, 240, 2, 7, 1, 0]"] ;
861 -> 865 ;
866 [label="gini = 0.055\nsamples = 247\nvalue = [0, 240, 0, 7, 0, 0]"] ;
865 -> 866 ;
867 [label="gini = 0.444\nsamples = 3\nvalue = [0, 0, 2, 0, 1, 0]"] ;
865 -> 867 ;
868 [label="X[1] <= 70.5\ngini = 0.658\nsamples = 2400\nvalue = [53, 6, 426, 292, 1250, 373]"] ;
772 -> 868 ;
869 [label="X[4] <= 0.5\ngini = 0.702\nsamples = 724\nvalue = [24, 4, 83, 222, 88, 303]"] ;
868 -> 869 ;
870 [label="X[1] <= 69.5\ngini = 0.619\nsamples = 323\nvalue = [3, 0, 68, 180, 28, 44]"] ;
869 -> 870 ;
871 [label="X[0] <= -17.0\ngini = 0.635\nsamples = 105\nvalue = [0, 0, 46, 7, 10, 42]"] ;
870 -> 871 ;
872 [label="X[0] <= -20.5\ngini = 0.318\nsamples = 57\nvalue = [0, 0, 46, 1, 10, 0]"] ;
871 -> 872 ;
873 [label="X[0] <= -38.0\ngini = 0.537\nsamples = 18\nvalue = [0, 0, 7, 1, 10, 0]"] ;
872 -> 873 ;
874 [label="X[3] <= 3.0\ngini = 0.219\nsamples = 8\nvalue = [0, 0, 7, 1, 0, 0]"] ;
873 -> 874 ;
875 [label="gini = 0.0\nsamples = 7\nvalue = [0, 0, 7, 0, 0, 0]"] ;
874 -> 875 ;
876 [label="gini = 0.0\nsamples = 1\nvalue = [0, 0, 0, 1, 0, 0]"] ;
874 -> 876 ;
877 [label="gini = 0.0\nsamples = 10\nvalue = [0, 0, 0, 0, 10, 0]"] ;
873 -> 877 ;
878 [label="gini = 0.0\nsamples = 39\nvalue = [0, 0, 39, 0, 0, 0]"] ;
872 -> 878 ;
879 [label="X[0] <= -13.5\ngini = 0.219\nsamples = 48\nvalue = [0, 0, 0, 6, 0, 42]"] ;
871 -> 879 ;
880 [label="gini = 0.0\nsamples = 42\nvalue = [0, 0, 0, 0, 0, 42]"] ;
879 -> 880 ;
881 [label="gini = 0.0\nsamples = 6\nvalue = [0, 0, 0, 6, 0, 0]"] ;
879 -> 881 ;
882 [label="X[0] <= -14.5\ngini = 0.353\nsamples = 218\nvalue = [3, 0, 22, 173, 18, 2]"] ;
870 -> 882 ;
883 [label="X[3] <= 2.5\ngini = 0.204\nsamples = 195\nvalue = [3, 0, 1, 173, 18, 0]"] ;
882 -> 883 ;
884 [label="X[6] <= -1.5\ngini = 0.51\nsamples = 27\nvalue = [0, 0, 1, 10, 16, 0]"] ;
883 -> 884 ;
885 [label="gini = 0.0\nsamples = 16\nvalue = [0, 0, 0, 0, 16, 0]"] ;
884 -> 885 ;
886 [label="X[4] <= -8.5\ngini = 0.165\nsamples = 11\nvalue = [0, 0, 1, 10, 0, 0]"] ;
884 -> 886 ;
887 [label="gini = 0.0\nsamples = 1\nvalue = [0, 0, 1, 0, 0, 0]"] ;
886 -> 887 ;
888 [label="gini = 0.0\nsamples = 10\nvalue = [0, 0, 0, 10, 0, 0]"] ;
886 -> 888 ;
889 [label="X[2] <= 3.5\ngini = 0.058\nsamples = 168\nvalue = [3, 0, 0, 163, 2, 0]"] ;
883 -> 889 ;
890 [label="X[0] <= -64.5\ngini = 0.036\nsamples = 166\nvalue = [1, 0, 0, 163, 2, 0]"] ;
889 -> 890 ;
891 [label="gini = 0.0\nsamples = 1\nvalue = [1, 0, 0, 0, 0, 0]"] ;
890 -> 891 ;
892 [label="gini = 0.024\nsamples = 165\nvalue = [0, 0, 0, 163, 2, 0]"] ;
890 -> 892 ;
893 [label="gini = 0.0\nsamples = 2\nvalue = [2, 0, 0, 0, 0, 0]"] ;
889 -> 893 ;
894 [label="X[2] <= 3.5\ngini = 0.159\nsamples = 23\nvalue = [0, 0, 21, 0, 0, 2]"] ;
882 -> 894 ;
895 [label="gini = 0.0\nsamples = 21\nvalue = [0, 0, 21, 0, 0, 0]"] ;
894 -> 895 ;
896 [label="gini = 0.0\nsamples = 2\nvalue = [0, 0, 0, 0, 0, 2]"] ;
894 -> 896 ;
897 [label="X[4] <= 5.5\ngini = 0.545\nsamples = 401\nvalue = [21, 4, 15, 42, 60, 259]"] ;
869 -> 897 ;
898 [label="X[0] <= -14.5\ngini = 0.253\nsamples = 252\nvalue = [11, 2, 5, 14, 3, 217]"] ;
897 -> 898 ;
899 [label="X[1] <= 69.5\ngini = 0.5\nsamples = 90\nvalue = [11, 1, 0, 14, 3, 61]"] ;
898 -> 899 ;
900 [label="X[5] <= -6.0\ngini = 0.333\nsamples = 76\nvalue = [11, 1, 0, 0, 3, 61]"] ;
899 -> 900 ;
901 [label="X[3] <= 0.5\ngini = 0.153\nsamples = 12\nvalue = [11, 1, 0, 0, 0, 0]"] ;
900 -> 901 ;
902 [label="gini = 0.0\nsamples = 1\nvalue = [0, 1, 0, 0, 0, 0]"] ;
901 -> 902 ;
903 [label="gini = 0.0\nsamples = 11\nvalue = [11, 0, 0, 0, 0, 0]"] ;
901 -> 903 ;
904 [label="X[6] <= -0.5\ngini = 0.089\nsamples = 64\nvalue = [0, 0, 0, 0, 3, 61]"] ;
900 -> 904 ;
905 [label="gini = 0.0\nsamples = 61\nvalue = [0, 0, 0, 0, 0, 61]"] ;
904 -> 905 ;
906 [label="gini = 0.0\nsamples = 3\nvalue = [0, 0, 0, 0, 3, 0]"] ;
904 -> 906 ;
907 [label="gini = 0.0\nsamples = 14\nvalue = [0, 0, 0, 14, 0, 0]"] ;
899 -> 907 ;
908 [label="X[0] <= -13.5\ngini = 0.072\nsamples = 162\nvalue = [0, 1, 5, 0, 0, 156]"] ;
898 -> 908 ;
909 [label="X[6] <= -11.0\ngini = 0.025\nsamples = 158\nvalue = [0, 0, 2, 0, 0, 156]"] ;
908 -> 909 ;
910 [label="gini = 0.0\nsamples = 2\nvalue = [0, 0, 2, 0, 0, 0]"] ;
909 -> 910 ;
911 [label="gini = 0.0\nsamples = 156\nvalue = [0, 0, 0, 0, 0, 156]"] ;
909 -> 911 ;
912 [label="X[1] <= 69.5\ngini = 0.375\nsamples = 4\nvalue = [0, 1, 3, 0, 0, 0]"] ;
908 -> 912 ;
913 [label="gini = 0.0\nsamples = 1\nvalue = [0, 1, 0, 0, 0, 0]"] ;
912 -> 913 ;
914 [label="gini = 0.0\nsamples = 3\nvalue = [0, 0, 3, 0, 0, 0]"] ;
912 -> 914 ;
915 [label="X[6] <= 0.0\ngini = 0.73\nsamples = 149\nvalue = [10, 2, 10, 28, 57, 42]"] ;
897 -> 915 ;
916 [label="X[0] <= -17.0\ngini = 0.626\nsamples = 105\nvalue = [10, 0, 10, 28, 56, 1]"] ;
915 -> 916 ;
917 [label="gini = 0.0\nsamples = 56\nvalue = [0, 0, 0, 0, 56, 0]"] ;
916 -> 917 ;
918 [label="X[5] <= 0.5\ngini = 0.59\nsamples = 49\nvalue = [10, 0, 10, 28, 0, 1]"] ;
916 -> 918 ;
919 [label="X[5] <= -4.0\ngini = 0.418\nsamples = 39\nvalue = [0, 0, 10, 28, 0, 1]"] ;
918 -> 919 ;
920 [label="gini = 0.0\nsamples = 1\nvalue = [0, 0, 0, 0, 0, 1]"] ;
919 -> 920 ;
921 [label="gini = 0.388\nsamples = 38\nvalue = [0, 0, 10, 28, 0, 0]"] ;
919 -> 921 ;
922 [label="gini = 0.0\nsamples = 10\nvalue = [10, 0, 0, 0, 0, 0]"] ;
918 -> 922 ;
923 [label="X[1] <= 69.5\ngini = 0.129\nsamples = 44\nvalue = [0, 2, 0, 0, 1, 41]"] ;
915 -> 923 ;
924 [label="X[4] <= 10.5\ngini = 0.046\nsamples = 42\nvalue = [0, 0, 0, 0, 1, 41]"] ;
923 -> 924 ;
925 [label="gini = 0.0\nsamples = 41\nvalue = [0, 0, 0, 0, 0, 41]"] ;
924 -> 925 ;
926 [label="gini = 0.0\nsamples = 1\nvalue = [0, 0, 0, 0, 1, 0]"] ;
924 -> 926 ;
927 [label="gini = 0.0\nsamples = 2\nvalue = [0, 2, 0, 0, 0, 0]"] ;
923 -> 927 ;
928 [label="X[1] <= 73.5\ngini = 0.474\nsamples = 1676\nvalue = [29, 2, 343, 70, 1162, 70]"] ;
868 -> 928 ;
929 [label="X[2] <= 2.5\ngini = 0.363\nsamples = 1482\nvalue = [2, 0, 320, 2, 1139, 19]"] ;
928 -> 929 ;
930 [label="X[1] <= 71.5\ngini = 0.502\nsamples = 303\nvalue = [2, 0, 165, 0, 136, 0]"] ;
929 -> 930 ;
931 [label="X[3] <= 3.0\ngini = 0.279\nsamples = 155\nvalue = [0, 0, 26, 0, 129, 0]"] ;
930 -> 931 ;
932 [label="gini = 0.0\nsamples = 129\nvalue = [0, 0, 0, 0, 129, 0]"] ;
931 -> 932 ;
933 [label="gini = 0.0\nsamples = 26\nvalue = [0, 0, 26, 0, 0, 0]"] ;
931 -> 933 ;
934 [label="X[6] <= -0.5\ngini = 0.116\nsamples = 148\nvalue = [2, 0, 139, 0, 7, 0]"] ;
930 -> 934 ;
935 [label="X[6] <= -7.5\ngini = 0.42\nsamples = 10\nvalue = [0, 0, 3, 0, 7, 0]"] ;
934 -> 935 ;
936 [label="gini = 0.0\nsamples = 3\nvalue = [0, 0, 3, 0, 0, 0]"] ;
935 -> 936 ;
937 [label="gini = 0.0\nsamples = 7\nvalue = [0, 0, 0, 0, 7, 0]"] ;
935 -> 937 ;
938 [label="X[5] <= 1.0\ngini = 0.029\nsamples = 138\nvalue = [2, 0, 136, 0, 0, 0]"] ;
934 -> 938 ;
939 [label="gini = 0.0\nsamples = 136\nvalue = [0, 0, 136, 0, 0, 0]"] ;
938 -> 939 ;
940 [label="gini = 0.0\nsamples = 2\nvalue = [2, 0, 0, 0, 0, 0]"] ;
938 -> 940 ;
941 [label="X[6] <= 1.5\ngini = 0.259\nsamples = 1179\nvalue = [0, 0, 155, 2, 1003, 19]"] ;
929 -> 941 ;
942 [label="X[5] <= -10.5\ngini = 0.172\nsamples = 1017\nvalue = [0, 0, 74, 2, 922, 19]"] ;
941 -> 942 ;
943 [label="gini = 0.0\nsamples = 15\nvalue = [0, 0, 15, 0, 0, 0]"] ;
942 -> 943 ;
944 [label="X[0] <= -31.0\ngini = 0.149\nsamples = 1002\nvalue = [0, 0, 59, 2, 922, 19]"] ;
942 -> 944 ;
945 [label="gini = 0.0\nsamples = 11\nvalue = [0, 0, 0, 0, 0, 11]"] ;
944 -> 945 ;
946 [label="X[6] <= -1.5\ngini = 0.131\nsamples = 991\nvalue = [0, 0, 59, 2, 922, 8]"] ;
944 -> 946 ;
947 [label="gini = 0.038\nsamples = 516\nvalue = [0, 0, 0, 2, 506, 8]"] ;
946 -> 947 ;
948 [label="gini = 0.218\nsamples = 475\nvalue = [0, 0, 59, 0, 416, 0]"] ;
946 -> 948 ;
949 [label="X[5] <= -0.5\ngini = 0.5\nsamples = 162\nvalue = [0, 0, 81, 0, 81, 0]"] ;
941 -> 949 ;
950 [label="gini = 0.0\nsamples = 74\nvalue = [0, 0, 0, 0, 74, 0]"] ;
949 -> 950 ;
951 [label="X[4] <= 11.5\ngini = 0.146\nsamples = 88\nvalue = [0, 0, 81, 0, 7, 0]"] ;
949 -> 951 ;
952 [label="gini = 0.0\nsamples = 81\nvalue = [0, 0, 81, 0, 0, 0]"] ;
951 -> 952 ;
953 [label="gini = 0.0\nsamples = 7\nvalue = [0, 0, 0, 0, 7, 0]"] ;
951 -> 953 ;
954 [label="X[1] <= 81.5\ngini = 0.76\nsamples = 194\nvalue = [27, 2, 23, 68, 23, 51]"] ;
928 -> 954 ;
955 [label="X[4] <= -10.5\ngini = 0.737\nsamples = 157\nvalue = [27, 2, 23, 67, 22, 16]"] ;
954 -> 955 ;
956 [label="gini = 0.0\nsamples = 34\nvalue = [0, 0, 0, 34, 0, 0]"] ;
955 -> 956 ;
957 [label="X[6] <= -7.5\ngini = 0.796\nsamples = 123\nvalue = [27, 2, 23, 33, 22, 16]"] ;
955 -> 957 ;
958 [label="X[4] <= 2.0\ngini = 0.7\nsamples = 46\nvalue = [7, 0, 0, 8, 20, 11]"] ;
957 -> 958 ;
959 [label="X[0] <= -14.5\ngini = 0.198\nsamples = 18\nvalue = [0, 0, 0, 2, 16, 0]"] ;
958 -> 959 ;
960 [label="gini = 0.0\nsamples = 16\nvalue = [0, 0, 0, 0, 16, 0]"] ;
959 -> 960 ;
961 [label="gini = 0.0\nsamples = 2\nvalue = [0, 0, 0, 2, 0, 0]"] ;
959 -> 961 ;
962 [label="X[0] <= -18.0\ngini = 0.717\nsamples = 28\nvalue = [7, 0, 0, 6, 4, 11]"] ;
958 -> 962 ;
963 [label="gini = 0.622\nsamples = 14\nvalue = [7, 0, 0, 3, 4, 0]"] ;
962 -> 963 ;
964 [label="gini = 0.337\nsamples = 14\nvalue = [0, 0, 0, 3, 0, 11]"] ;
962 -> 964 ;
965 [label="X[5] <= -7.5\ngini = 0.732\nsamples = 77\nvalue = [20, 2, 23, 25, 2, 5]"] ;
957 -> 965 ;
966 [label="X[0] <= -14.0\ngini = 0.105\nsamples = 18\nvalue = [1, 0, 0, 17, 0, 0]"] ;
965 -> 966 ;
967 [label="gini = 0.0\nsamples = 17\nvalue = [0, 0, 0, 17, 0, 0]"] ;
966 -> 967 ;
968 [label="gini = 0.0\nsamples = 1\nvalue = [1, 0, 0, 0, 0, 0]"] ;
966 -> 968 ;
969 [label="X[2] <= 1.5\ngini = 0.716\nsamples = 59\nvalue = [19, 2, 23, 8, 2, 5]"] ;
965 -> 969 ;
970 [label="gini = 0.0\nsamples = 13\nvalue = [13, 0, 0, 0, 0, 0]"] ;
969 -> 970 ;
971 [label="gini = 0.687\nsamples = 46\nvalue = [6, 2, 23, 8, 2, 5]"] ;
969 -> 971 ;
972 [label="X[6] <= -1.5\ngini = 0.104\nsamples = 37\nvalue = [0, 0, 0, 1, 1, 35]"] ;
954 -> 972 ;
973 [label="X[2] <= 3.0\ngini = 0.054\nsamples = 36\nvalue = [0, 0, 0, 1, 0, 35]"] ;
972 -> 973 ;
974 [label="gini = 0.0\nsamples = 32\nvalue = [0, 0, 0, 0, 0, 32]"] ;
973 -> 974 ;
975 [label="X[5] <= 3.0\ngini = 0.375\nsamples = 4\nvalue = [0, 0, 0, 1, 0, 3]"] ;
973 -> 975 ;
976 [label="gini = 0.0\nsamples = 1\nvalue = [0, 0, 0, 1, 0, 0]"] ;
975 -> 976 ;
977 [label="gini = 0.0\nsamples = 3\nvalue = [0, 0, 0, 0, 0, 3]"] ;
975 -> 977 ;
978 [label="gini = 0.0\nsamples = 1\nvalue = [0, 0, 0, 0, 1, 0]"] ;
972 -> 978 ;
979 [label="X[2] <= -3.5\ngini = 0.399\nsamples = 15841\nvalue = [93, 222, 3140, 392, 11861, 133]"] ;
771 -> 979 ;
980 [label="X[4] <= 1.5\ngini = 0.326\nsamples = 14519\nvalue = [26, 137, 2665, 59, 11620, 12]"] ;
979 -> 980 ;
981 [label="X[5] <= 3.0\ngini = 0.076\nsamples = 3866\nvalue = [26, 14, 73, 33, 3716, 4]"] ;
980 -> 981 ;
982 [label="X[6] <= 7.5\ngini = 0.631\nsamples = 103\nvalue = [1, 10, 52, 33, 3, 4]"] ;
981 -> 982 ;
983 [label="X[4] <= -11.5\ngini = 0.113\nsamples = 50\nvalue = [0, 0, 47, 0, 3, 0]"] ;
982 -> 983 ;
984 [label="gini = 0.0\nsamples = 1\nvalue = [0, 0, 0, 0, 1, 0]"] ;
983 -> 984 ;
985 [label="X[5] <= 1.0\ngini = 0.078\nsamples = 49\nvalue = [0, 0, 47, 0, 2, 0]"] ;
983 -> 985 ;
986 [label="gini = 0.0\nsamples = 39\nvalue = [0, 0, 39, 0, 0, 0]"] ;
985 -> 986 ;
987 [label="gini = 0.32\nsamples = 10\nvalue = [0, 0, 8, 0, 2, 0]"] ;
985 -> 987 ;
988 [label="X[0] <= -32.0\ngini = 0.562\nsamples = 53\nvalue = [1, 10, 5, 33, 0, 4]"] ;
982 -> 988 ;
989 [label="gini = 0.0\nsamples = 33\nvalue = [0, 0, 0, 33, 0, 0]"] ;
988 -> 989 ;
990 [label="X[5] <= 0.5\ngini = 0.645\nsamples = 20\nvalue = [1, 10, 5, 0, 0, 4]"] ;
988 -> 990 ;
991 [label="X[1] <= 75.5\ngini = 0.165\nsamples = 11\nvalue = [1, 10, 0, 0, 0, 0]"] ;
990 -> 991 ;
992 [label="gini = 0.0\nsamples = 1\nvalue = [1, 0, 0, 0, 0, 0]"] ;
991 -> 992 ;
993 [label="gini = 0.0\nsamples = 10\nvalue = [0, 10, 0, 0, 0, 0]"] ;
991 -> 993 ;
994 [label="X[6] <= 10.5\ngini = 0.494\nsamples = 9\nvalue = [0, 0, 5, 0, 0, 4]"] ;
990 -> 994 ;
995 [label="gini = 0.0\nsamples = 5\nvalue = [0, 0, 5, 0, 0, 0]"] ;
994 -> 995 ;
996 [label="gini = 0.0\nsamples = 4\nvalue = [0, 0, 0, 0, 0, 4]"] ;
994 -> 996 ;
997 [label="X[3] <= 0.0\ngini = 0.026\nsamples = 3763\nvalue = [25, 4, 21, 0, 3713, 0]"] ;
981 -> 997 ;
998 [label="gini = 0.238\nsamples = 29\nvalue = [25, 4, 0, 0, 0, 0]"] ;
997 -> 998 ;
999 [label="X[4] <= -2.0\ngini = 0.011\nsamples = 3734\nvalue = [0, 0, 21, 0, 3713, 0]"] ;
997 -> 999 ;
1000 [label="gini = 0.0\nsamples = 6\nvalue = [0, 0, 6, 0, 0, 0]"] ;
999 -> 1000 ;
1001 [label="X[2] <= -4.5\ngini = 0.008\nsamples = 3728\nvalue = [0, 0, 15, 0, 3713, 0]"] ;
999 -> 1001 ;
1002 [label="gini = 0.0\nsamples = 2070\nvalue = [0, 0, 0, 0, 2070, 0]"] ;
1001 -> 1002 ;
1003 [label="X[5] <= 8.0\ngini = 0.018\nsamples = 1658\nvalue = [0, 0, 15, 0, 1643, 0]"] ;
1001 -> 1003 ;
1004 [label="gini = 0.081\nsamples = 356\nvalue = [0, 0, 15, 0, 341, 0]"] ;
1003 -> 1004 ;
1005 [label="gini = 0.0\nsamples = 1302\nvalue = [0, 0, 0, 0, 1302, 0]"] ;
1003 -> 1005 ;
1006 [label="X[5] <= 7.5\ngini = 0.39\nsamples = 10653\nvalue = [0, 123, 2592, 26, 7904, 8]"] ;
980 -> 1006 ;
1007 [label="X[6] <= 5.5\ngini = 0.372\nsamples = 10477\nvalue = [0, 0, 2587, 0, 7890, 0]"] ;
1006 -> 1007 ;
1008 [label="X[1] <= 69.5\ngini = 0.236\nsamples = 1420\nvalue = [0, 0, 194, 0, 1226, 0]"] ;
1007 -> 1008 ;
1009 [label="gini = 0.227\nsamples = 1410\nvalue = [0, 0, 184, 0, 1226, 0]"] ;
1008 -> 1009 ;
1010 [label="gini = 0.0\nsamples = 10\nvalue = [0, 0, 10, 0, 0, 0]"] ;
1008 -> 1010 ;
1011 [label="X[6] <= 8.5\ngini = 0.389\nsamples = 9057\nvalue = [0, 0, 2393, 0, 6664, 0]"] ;
1007 -> 1011 ;
1012 [label="X[1] <= 71.0\ngini = 0.388\nsamples = 9052\nvalue = [0, 0, 2388, 0, 6664, 0]"] ;
1011 -> 1012 ;
1013 [label="X[5] <= 4.5\ngini = 0.389\nsamples = 9044\nvalue = [0, 0, 2388, 0, 6656, 0]"] ;
1012 -> 1013 ;
1014 [label="X[2] <= -4.5\ngini = 0.391\nsamples = 8051\nvalue = [0, 0, 2147, 0, 5904, 0]"] ;
1013 -> 1014 ;
1015 [label="gini = 0.0\nsamples = 16\nvalue = [0, 0, 0, 0, 16, 0]"] ;
1014 -> 1015 ;
1016 [label="gini = 0.392\nsamples = 8035\nvalue = [0, 0, 2147, 0, 5888, 0]"] ;
1014 -> 1016 ;
1017 [label="X[1] <= 69.5\ngini = 0.368\nsamples = 993\nvalue = [0, 0, 241, 0, 752, 0]"] ;
1013 -> 1017 ;
1018 [label="gini = 0.362\nsamples = 986\nvalue = [0, 0, 234, 0, 752, 0]"] ;
1017 -> 1018 ;
1019 [label="gini = 0.0\nsamples = 7\nvalue = [0, 0, 7, 0, 0, 0]"] ;
1017 -> 1019 ;
1020 [label="gini = 0.0\nsamples = 8\nvalue = [0, 0, 0, 0, 8, 0]"] ;
1012 -> 1020 ;
1021 [label="gini = 0.0\nsamples = 5\nvalue = [0, 0, 5, 0, 0, 0]"] ;
1011 -> 1021 ;
1022 [label="X[6] <= 10.5\ngini = 0.481\nsamples = 176\nvalue = [0, 123, 5, 26, 14, 8]"] ;
1006 -> 1022 ;
1023 [label="X[0] <= -16.5\ngini = 0.113\nsamples = 117\nvalue = [0, 110, 0, 1, 0, 6]"] ;
1022 -> 1023 ;
1024 [label="X[0] <= -22.5\ngini = 0.018\nsamples = 111\nvalue = [0, 110, 0, 1, 0, 0]"] ;
1023 -> 1024 ;
1025 [label="gini = 0.0\nsamples = 1\nvalue = [0, 0, 0, 1, 0, 0]"] ;
1024 -> 1025 ;
1026 [label="gini = 0.0\nsamples = 110\nvalue = [0, 110, 0, 0, 0, 0]"] ;
1024 -> 1026 ;
1027 [label="gini = 0.0\nsamples = 6\nvalue = [0, 0, 0, 0, 0, 6]"] ;
1023 -> 1027 ;
1028 [label="X[6] <= 11.5\ngini = 0.707\nsamples = 59\nvalue = [0, 13, 5, 25, 14, 2]"] ;
1022 -> 1028 ;
1029 [label="gini = 0.0\nsamples = 25\nvalue = [0, 0, 0, 25, 0, 0]"] ;
1028 -> 1029 ;
1030 [label="X[3] <= 5.0\ngini = 0.659\nsamples = 34\nvalue = [0, 13, 5, 0, 14, 2]"] ;
1028 -> 1030 ;
1031 [label="X[6] <= 16.0\ngini = 0.561\nsamples = 29\nvalue = [0, 13, 0, 0, 14, 2]"] ;
1030 -> 1031 ;
1032 [label="X[6] <= 13.0\ngini = 0.559\nsamples = 24\nvalue = [0, 13, 0, 0, 9, 2]"] ;
1031 -> 1032 ;
1033 [label="gini = 0.0\nsamples = 2\nvalue = [0, 0, 0, 0, 0, 2]"] ;
1032 -> 1033 ;
1034 [label="gini = 0.483\nsamples = 22\nvalue = [0, 13, 0, 0, 9, 0]"] ;
1032 -> 1034 ;
1035 [label="gini = 0.0\nsamples = 5\nvalue = [0, 0, 0, 0, 5, 0]"] ;
1031 -> 1035 ;
1036 [label="gini = 0.0\nsamples = 5\nvalue = [0, 0, 5, 0, 0, 0]"] ;
1030 -> 1036 ;
1037 [label="X[2] <= -2.5\ngini = 0.759\nsamples = 1322\nvalue = [67, 85, 475, 333, 241, 121]"] ;
979 -> 1037 ;
1038 [label="X[1] <= 74.5\ngini = 0.097\nsamples = 280\nvalue = [0, 7, 266, 4, 2, 1]"] ;
1037 -> 1038 ;
1039 [label="X[3] <= 4.0\ngini = 0.029\nsamples = 270\nvalue = [0, 0, 266, 4, 0, 0]"] ;
1038 -> 1039 ;
1040 [label="gini = 0.0\nsamples = 266\nvalue = [0, 0, 266, 0, 0, 0]"] ;
1039 -> 1040 ;
1041 [label="gini = 0.0\nsamples = 4\nvalue = [0, 0, 0, 4, 0, 0]"] ;
1039 -> 1041 ;
1042 [label="X[3] <= 2.5\ngini = 0.46\nsamples = 10\nvalue = [0, 7, 0, 0, 2, 1]"] ;
1038 -> 1042 ;
1043 [label="gini = 0.0\nsamples = 7\nvalue = [0, 7, 0, 0, 0, 0]"] ;
1042 -> 1043 ;
1044 [label="X[0] <= -19.5\ngini = 0.444\nsamples = 3\nvalue = [0, 0, 0, 0, 2, 1]"] ;
1042 -> 1044 ;
1045 [label="gini = 0.0\nsamples = 2\nvalue = [0, 0, 0, 0, 2, 0]"] ;
1044 -> 1045 ;
1046 [label="gini = 0.0\nsamples = 1\nvalue = [0, 0, 0, 0, 0, 1]"] ;
1044 -> 1046 ;
1047 [label="X[1] <= 80.0\ngini = 0.784\nsamples = 1042\nvalue = [67, 78, 209, 329, 239, 120]"] ;
1037 -> 1047 ;
1048 [label="X[1] <= 75.5\ngini = 0.8\nsamples = 854\nvalue = [67, 68, 209, 157, 233, 120]"] ;
1047 -> 1048 ;
1049 [label="X[1] <= 69.5\ngini = 0.737\nsamples = 694\nvalue = [7, 2, 209, 146, 225, 105]"] ;
1048 -> 1049 ;
1050 [label="X[4] <= -6.0\ngini = 0.607\nsamples = 174\nvalue = [4, 1, 37, 17, 15, 100]"] ;
1049 -> 1050 ;
1051 [label="X[5] <= 1.0\ngini = 0.552\nsamples = 62\nvalue = [0, 0, 37, 17, 8, 0]"] ;
1050 -> 1051 ;
1052 [label="gini = 0.0\nsamples = 17\nvalue = [0, 0, 0, 17, 0, 0]"] ;
1051 -> 1052 ;
1053 [label="X[2] <= 4.5\ngini = 0.292\nsamples = 45\nvalue = [0, 0, 37, 0, 8, 0]"] ;
1051 -> 1053 ;
1054 [label="gini = 0.0\nsamples = 8\nvalue = [0, 0, 0, 0, 8, 0]"] ;
1053 -> 1054 ;
1055 [label="gini = 0.0\nsamples = 37\nvalue = [0, 0, 37, 0, 0, 0]"] ;
1053 -> 1055 ;
1056 [label="X[0] <= -21.5\ngini = 0.198\nsamples = 112\nvalue = [4, 1, 0, 0, 7, 100]"] ;
1050 -> 1056 ;
1057 [label="X[2] <= 4.0\ngini = 0.463\nsamples = 11\nvalue = [4, 0, 0, 0, 7, 0]"] ;
1056 -> 1057 ;
1058 [label="gini = 0.0\nsamples = 4\nvalue = [4, 0, 0, 0, 0, 0]"] ;
1057 -> 1058 ;
1059 [label="gini = 0.0\nsamples = 7\nvalue = [0, 0, 0, 0, 7, 0]"] ;
1057 -> 1059 ;
1060 [label="X[3] <= 0.0\ngini = 0.02\nsamples = 101\nvalue = [0, 1, 0, 0, 0, 100]"] ;
1056 -> 1060 ;
1061 [label="gini = 0.0\nsamples = 1\nvalue = [0, 1, 0, 0, 0, 0]"] ;
1060 -> 1061 ;
1062 [label="gini = 0.0\nsamples = 100\nvalue = [0, 0, 0, 0, 0, 100]"] ;
1060 -> 1062 ;
1063 [label="X[2] <= 0.0\ngini = 0.666\nsamples = 520\nvalue = [3, 1, 172, 129, 210, 5]"] ;
1049 -> 1063 ;
1064 [label="X[1] <= 72.5\ngini = 0.384\nsamples = 134\nvalue = [1, 1, 102, 25, 0, 5]"] ;
1063 -> 1064 ;
1065 [label="X[0] <= -20.0\ngini = 0.117\nsamples = 97\nvalue = [0, 0, 91, 1, 0, 5]"] ;
1064 -> 1065 ;
1066 [label="gini = 0.0\nsamples = 91\nvalue = [0, 0, 91, 0, 0, 0]"] ;
1065 -> 1066 ;
1067 [label="gini = 0.278\nsamples = 6\nvalue = [0, 0, 0, 1, 0, 5]"] ;
1065 -> 1067 ;
1068 [label="X[0] <= -35.5\ngini = 0.489\nsamples = 37\nvalue = [1, 1, 11, 24, 0, 0]"] ;
1064 -> 1068 ;
1069 [label="gini = 0.0\nsamples = 8\nvalue = [0, 0, 8, 0, 0, 0]"] ;
1068 -> 1069 ;
1070 [label="gini = 0.302\nsamples = 29\nvalue = [1, 1, 3, 24, 0, 0]"] ;
1068 -> 1070 ;
1071 [label="X[1] <= 70.5\ngini = 0.599\nsamples = 386\nvalue = [2, 0, 70, 104, 210, 0]"] ;
1063 -> 1071 ;
1072 [label="X[5] <= 3.5\ngini = 0.457\nsamples = 142\nvalue = [2, 0, 8, 99, 33, 0]"] ;
1071 -> 1072 ;
1073 [label="gini = 0.169\nsamples = 109\nvalue = [2, 0, 8, 99, 0, 0]"] ;
1072 -> 1073 ;
1074 [label="gini = 0.0\nsamples = 33\nvalue = [0, 0, 0, 0, 33, 0]"] ;
1072 -> 1074 ;
1075 [label="X[6] <= 6.5\ngini = 0.409\nsamples = 244\nvalue = [0, 0, 62, 5, 177, 0]"] ;
1071 -> 1075 ;
1076 [label="gini = 0.466\nsamples = 92\nvalue = [0, 0, 58, 0, 34, 0]"] ;
1075 -> 1076 ;
